-0.0123862103 -0.0051061064 0.0592337623 0.0065231770 -0.0650193468 -0.0694362074 0.0767438337 0.0705968067 -0.0795190483 0.0265305042 0.0808970705 -0.0143520385 0.0347307175 0.0156892911 0.0024283305 0.0236868188 -0.0089723244 0.0554576293 0.0662799701 -0.0292925462 -0.0459780209 0.0551057681 -0.0750606954 0.0309148803 -0.0352179892 -0.0598417260 0.0114695057 0.0081987754 -0.0465227067 0.0094188675 0.0345730484 0.0772905871 -0.0738370493 0.0396271124 -0.0285315290 -0.0702455193 0.0409409031 -0.0217082500 0.0738159791 0.0343046784 0.0722512975 0.0403787047 0.0598592535 0.0257017761 -0.0474894084 0.0357356817 0.0038099438 -0.0564653836 0.0092628226 0.0361986458 -0.0695167333 0.0363265350 0.0342250615 0.0199766606 0.0355320871 -0.0226529315 0.0170787498 0.0322268382 0.0549383536 0.0524475947 0.0591113493 -0.0477611311 0.0026236027 0.0071456954
-0.0651884302 -0.0020398125 0.0064344779 0.0543239340 0.0741542950 -0.0802738890 0.0233620256 -0.0770903379 -0.0099727213 0.0718049183 0.0422669277 -0.0807335079 0.0618634298 0.0555063710 0.0725741163 -0.0504976660 -0.0635922104 -0.0788818300 -0.0647765398 -0.0155012012 -0.0524191521 -0.0086803511 0.0021981671 0.0701150820 0.0027675778 -0.0660011694 -0.0821851492 -0.0469323061 -0.0505455546 0.0794835314 0.0159493014 -0.0598663539 0.0665812716 -0.0244132802 -0.0550923124 -0.0757382438 0.0804827884 -0.0441485643 0.0671080127 0.0057799667 -0.0008462518 -0.0374345444 -0.0414464027 0.0760481432 -0.0712739527 -0.0004175827 -0.0010029376 0.0606246367 0.0670363531 -0.0004160777 -0.0471450277 -0.0829966068 -0.0659625232 -0.0683124214 -0.0220784023 0.0593860671 -0.0047690868 0.0460323617 0.0819010958 0.0571824387 -0.0263796523 0.0603085235 0.0592683926 -0.0635714531
-0.0439821072 0.0494129285 -0.0815699324 -0.0540801510 -0.0346347168 -0.0422399491 0.0080130473 0.0220861807 -0.0243965536 -0.0564267784 -0.0344930105 0.0524706468 -0.0217089951 -0.0095821321 0.0700606182 0.0271688253 -0.0448378474 -0.0359249413 0.0162403360 0.0815074816 0.0420939550 0.0439724550 -0.0535625741 -0.0041817650 -0.0460292585 0.0503471717 0.0395900533 -0.0673152208 -0.0680530369 0.0368135124 0.0293597728 0.0173079520 0.0406792462 -0.0739352554 0.0583734587 0.0108717531 0.0500089899 -0.0515788980 -0.0503930971 -0.0402566530 0.0506056920 -0.0240749568 0.0549223647 0.0109960362 -0.0030619651 0.0499347225 -0.0086745694 -0.0197526067 0.0555682704 0.0172386467 0.0374775007 0.0288126543 0.0101145878 0.0791785046 0.0324064121 -0.0182269216 -0.0839694887 0.0261089280 -0.0840360448 -0.0741626024 0.0614107475 -0.0192487314 0.0443022028 -0.0617795177
0.0580604747 -0.0155258030 -0.0289250426 0.0608663633 -0.0272244364 0.0115472823 -0.0367269926 0.0583090857 0.0582038686 -0.0461497903 -0.0819572508 0.0749904141 -0.0032020658 0.0010573491 0.0201862976 0.0609198138 -0.0343354791 -0.0629006028 0.0475222245 -0.0415982157 0.0486261174 -0.0624864474 0.0117626637 -0.0583705902 0.0316539183 0.0270230249 0.0290089920 -0.0685675144 -0.0054312348 0.0701423958 -0.0029690862 0.0361622721 -0.0455832221 0.0259911269 -0.0151475519 -0.0655057579 -0.0264134817 -0.0507083014 0.0543711111 0.0661347136 -0.0766663551 -0.0824516788 -0.0493944101 -0.0495199747 0.0369865447 -0.0555640832 0.0094115660 -0.0605082065 0.0323178098 0.0033257231 0.0272886753 0.0578563437 -0.0554113239 -0.0453348048 -0.0399299599 0.0221722573 -0.0735932067 -0.0337599069 -0.0479990616 -0.0042127892 -0.0376914255 -0.0344930105 0.0772067979 -0.0757309645
0.0594691411 -0.0305838324 -0.0740714893 0.0188568458 -0.0163861737 -0.0414283536 -0.0633789673 0.0285105705 0.0016056821 -0.0412329212 0.0648017302 -0.0173839033 -0.0462801866 0.0322777182 -0.0498564914 0.0035787746 0.0035398081 0.0032877028 0.0381088257 -0.0278044231 -0.0820753351 0.0614256486 0.0812821463 0.0693381056 -0.0801222399 0.0607133135 0.0545012429 -0.0033973008 0.0093478709 0.0507712141 -0.0484373160 -0.0349671058 0.0427746847 0.0730998591 -0.0557159968 -0.0193950906 -0.0628375858 0.0113136992 -0.0449180044 0.0608003065 -0.0014080033 -0.0018707663 0.0126794726 -0.0398025326 0.0343106762 -0.0615076348 -0.0105367377 -0.0394326039 -0.0086637810 -0.0531417057 0.0103513747 -0.0545446798 -0.0006736964 0.0315541252 -0.0600801967 -0.0043814033 0.0313917026 -0.0061546266 0.0212997571 0.0207847729 0.0603503361 0.0061857328 0.0358677059 -0.0225747377
-0.0170257017 0.0527179316 0.0536373332 0.0390381813 0.0687289014 -0.0516468436 -0.0643112510 -0.0217291676 -0.0142859966 -0.0404054783 -0.0069904551 0.0540644899 -0.0187241435 -0.0454083048 -0.0618764423 -0.0383294895 -0.0298946723 -0.0029031485 -0.0343724601 -0.0426886566 -0.0564737692 -0.0739592016 -0.0778350532 -0.0091370940 0.0568994060 -0.0421965308 -0.0256602243 0.0499045625 0.0674361214 -0.0807350278 0.0525415465 -0.0409899168 -0.0030292347 -0.0271666199 -0.0295011178 -0.0573499426 0.0180010647 -0.0307393968 0.0466851965 -0.0137886778 -0.0712458566 -0.0296534523 0.0209751129 0.0050104856 -0.0689298660 -0.0183691531 0.0452159569 0.0093257949 0.0350866690 0.0343346819 -0.0106607005 -0.0280110873 0.0531544462 0.0460810885 -0.0355717763 -0.0778622627 -0.0719535649 -0.0223776400 -0.0771079063 0.0124553815 -0.0216187462 -0.0232944824 -0.0149449185 0.0041640922
-0.0251174644 -0.0404258966 0.0485072806 -0.0222127102 0.0419763848 -0.0720376596 -0.0008960888 0.0022105798 0.0628034100 -0.0343931764 -0.0501416326 -0.0782107785 0.0567036197 0.0421536192 0.0463903472 0.0580855235 -0.0652300268 0.0575193390 -0.0725257322 0.0544077232 0.0168515071 -0.0107200965 -0.0741109774 0.0007795095 -0.0240369327 -0.0131458417 -0.0207043067 0.0441235676 -0.0767888725 0.0529558733 0.0496393815 0.0497746691 -0.0633987635 0.0725265667 -0.0499775447 -0.0229219869 0.0605985746 0.0813456252 -0.0800746083 0.0798862502 0.0137651339 0.0510786697 -0.0009577125 -0.0296875872 -0.0703181624 -0.0290396176 -0.0818436816 -0.0086766407 0.0592287555 0.0331032574 0.0042731091 -0.0822568685 0.0382809192 -0.0192403942 -0.0154425949 -0.0799831748 0.0758559480 -0.0681855753 0.0303179696 -0.0840450749 0.0325596705 0.0205413625 0.0123230144 -0.0617103092
-0.0609979257 0.0355341360 -0.0653779656 -0.0139829516 0.0265359581 -0.0533817820 -0.0203868002 -0.0020055175 -0.0388728119 0.0834063813 0.0602184758 -0.0139231682 0.0146937966 0.0259466097 0.0503379032 -0.0173481256 0.0686262026 0.0412274376 0.0763757005 -0.0232398733 -0.0297538452 -0.0402157605 -0.0229681730 0.0620256886 -0.0765091106 0.0482750759 -0.0286181644 0.0469892547 -0.0662362128 0.0036076158 0.0110315681 -0.0774295628 -0.0476993024 0.0280444175 0.0246283039 -0.0827252641 -0.0100294948 0.0122688115 -0.0353402868 0.0752739981 0.0066052005 -0.0036838427 -0.0731474906 0.0356682017 -0.0443493500 0.0184844285 -0.0353505947 -0.0595958345 -0.0696751624 -0.0367053337 -0.0011151433 -0.0003387257 -0.0653170422 0.0739001706 -0.0656090006 -0.0334060006 0.0417584106 -0.0144391805 -0.0491121188 -0.0207824409 0.0629642680 -0.0247201174 -0.0774950385 -0.0459384732
-0.0780294836 0.0767355338 -0.0657262802 -0.0629853904 -0.0118234903 0.0193369165 0.0831439272 0.0756346360 -0.0474831499 0.0376602411 0.0022621155 -0.0791583657 -0.0014841557 0.0786465630 0.0715144053 -0.0690289587 -0.0755178034 0.0058627501 -0.0687307045 -0.0187538192 -0.0547360815 0.0160501748 0.0353301167 -0.0405307002 0.0576815233 -0.0804099217 0.0079329237 -0.0642105564 0.0278591141 0.0359243974 -0.0769456849 -0.0701948032 0.0696033463 0.0022100136 -0.0239620879 0.0494044945 -0.0469108485 -0.0145470500 -0.0273373276 0.0649006292 -0.0585812405 0.0033670142 -0.0109777004 -0.0305919573 0.0535639003 -0.0325531140 0.0716813877 -0.0540727898 -0.0803075060 0.0044736788 0.0626605377 0.0567813441 -0.0336893760 -0.0458621643 0.0780414715 -0.0680809319 -0.0655746609 0.0670828000 -0.0022710636 -0.0759272203 -0.0385098606 0.0698991939 -0.0356189050 -0.0304898359
-0.0789193511 -0.0466272347 -0.0838597864 -0.0476813912 0.0710603669 -0.0028877854 0.0622754171 0.0419943258 0.0752365068 0.0422678068 0.0223672688 -0.0239470266 0.0379648730 0.0560119227 0.0557128713 -0.0730128437 0.0229935646 -0.0349369049 0.0332047492 0.0124571845 -0.0134987682 0.0257000774 -0.0321733952 0.0047201291 0.0663254783 -0.0331157073 0.0606323704 0.0666802004 -0.0614245087 -0.0772837028 0.0788607076 0.0559226647 0.0364432186 0.0452208892 0.0499479249 0.0512683913 -0.0389937051 -0.0112660080 0.0610379353 0.0819978639 0.0407499969 0.0146519989 -0.0663645416 -0.0178380832 0.0252841190 -0.0088776872 0.0702130571 -0.0729821995 0.0041242242 0.0304459780 0.0719795451 0.0165938437 -0.0666002482 -0.0737248436 0.0237989426 0.0582830086 0.0165035576 0.0689264014 0.0329192951 -0.0461363122 -0.0684359223 0.0349755287 -0.0595859475 -0.0728349537
-0.0680531710 0.0173878148 -0.0652945414 0.0709356889 0.0092020929 -0.0171109363 -0.0328464918 0.0048017129 -0.0733469352 0.0706926808 -0.0106255040 -0.0759194791 0.0159737691 0.0183059424 -0.0092291683 0.0171937048 0.0815259889 0.0091656968 -0.0376749821 0.0234772637 -0.0037299693 0.0205262825 0.0103469640 -0.0566553026 0.0733455047 0.0141812563 -0.0550638363 -0.0767124221 -0.0837852657 0.0673448369 -0.0458322205 -0.0443959385 0.0359202474 0.0070399046 0.0427384451 -0.0425301641 0.0719775334 0.0579872355 -0.0629913062 0.0018517375 -0.0789630711 0.0382050872 0.0067926943 -0.0120007992 -0.0346040539 0.0787214115 0.0075042993 0.0528180972 -0.0214478001 -0.0226950273 -0.0817098543 0.0609895214 0.0208031982 0.0748082623 -0.0344798341 -0.0215909109 -0.0198449418 -0.0226349644 0.0652966574 -0.0624227747 -0.0020970851 0.0561099127 0.0277697667 0.0837237015
0.0790798441 -0.0562710315 0.0290171728 -0.0155583322 0.0202784091 0.0768673494 -0.0823086873 -0.0733482763 0.0210228562 0.0683499798 0.0353398621 -0.0690606833 -0.0718979388 0.0707212016 0.0068373531 0.0559014305 0.0581405833 -0.0208627656 0.0338750035 -0.0578418821 0.0230030715 -0.0385391228 -0.0608810447 -0.0138413236 -0.0458416492 0.0062286556 -0.0789399296 0.0439405963 0.0770384297 0.0811376497 0.0531635061 0.0545009598 0.0719209388 -0.0164797679 0.0476848856 0.0349277779 -0.0110380501 -0.0591694713 -0.0781118274 -0.0188237950 -0.0222430937 -0.0155271068 0.0503582284 0.0817317888 0.0399736837 -0.0721161738 0.0486659780 -0.0777804628 0.0839830562 0.0561867431 -0.0480979308 -0.0508849025 -0.0196419284 0.0591871515 0.0509963110 0.0302619711 -0.0211327821 -0.0706104785 -0.0832981914 -0.0782013312 0.0300559551 -0.0486253314 -0.0233374834 -0.0199521333
0.0726687163 -0.1118744984 -0.0765831620 0.0779228359 0.0236050207 -0.0388346426 0.0041124308 -0.0451593623 0.0557989664 0.1420105249 -0.0817101523 -0.0443195254 -0.0479856990 -0.0050310884 0.0599512644 0.0190056432 -0.0582079440 -0.0654800013 0.0079479497 -0.0342192054 -0.0731463656 -0.0965301096 0.0057751215 -0.0019499063 -0.0295904409 -0.0105168745 -0.0087882373 0.0151012158 -0.0396132171 -0.0314062722 -0.0682375133 0.0492884777 0.1013734192 0.0067571546 -0.0401478112 0.0044376771 0.0073476583 -0.0487792753 0.0266511068 -0.1234695390 0.0890118331 -0.1232270673 0.0604692288 -0.0752025843 -0.0399087593 -0.0224001221 0.0920230374 -0.0078030028 -0.0258419830 -0.0126035810 0.0527938008 0.0973065048 0.0105094761 0.0116327712 0.1355398893 0.0714410320 0.0218430161 -0.0067983260 -0.0092653222 -0.0096307890 -0.0260142181 -0.0149533935 0.0500766151 -0.0240276624
0.0620603934 -0.0523863509 0.0129260598 0.0381095149 -0.0005759656 0.0203662608 0.1035461053 0.0040872023 0.0111237848 0.0976561978 0.0044380203 -0.0631297603 -0.1547308415 0.0563982688 0.1070813164 -0.1312011927 -0.0898613557 -0.0621031858 -0.1045847237 -0.1204959750 -0.1506266147 -0.0767550543 0.0794246346 0.0118753165 0.0343584418 -0.0578213707 -0.0079159709 0.0036541831 0.0564316139 0.0397311375 -0.0772104859 0.0606366433 0.1250533164 -0.0502512418 0.0538996719 0.0496691167 0.0673157051 -0.0683423653 0.1141523942 -0.0314501300 0.0109517518 -0.0627513826 0.0252184272 -0.0404763743 -0.0271938723 -0.1097905189 0.0825812593 -0.0085403798 0.0078240307 0.0366640612 0.0526801795 0.0084192799 -0.0344223157 0.0457075052 0.0491621308 0.0915456191 -0.0539055318 -0.0151731065 -0.0812635645 0.0590588264 -0.0080708023 0.0327995233 0.1066358015 -0.0328421146
0.0371139534 -0.0107363109 0.0699542388 -0.0038534738 0.0281122625 0.0034828684 -0.0083993133 0.0700487271 0.0076772869 0.1082109138 0.0349778421 0.0118221240 -0.0062608891 0.0525675304 0.0608790927 -0.0626617894 0.1057703346 0.0440936238 -0.0220778529 -0.0121581675 -0.0460226797 0.0490779392 0.0796090439 0.0319054648 -0.0843605995 -0.0064764176 0.0387112945 0.0502899550 -0.0311220624 -0.0778280795 0.0196666699 0.0581069738 -0.0413969271 -0.0672390312 0.0630303845 0.0653194711 -0.0209919848 -0.0004602653 0.0461632311 -0.0442615151 0.0450179018 0.0218602065 -0.0337921754 0.0543902814 0.0132492250 0.0012999333 -0.0530369468 0.0702890679 -0.0541554056 -0.0212000608 0.0098430365 0.0321547948 0.0768056735 -0.0515982695 0.0528504699 0.0599055178 0.0213228613 -0.0805926248 -0.0591696650 0.0261538811 -0.0232531726 -0.0445486084 -0.0455194451 0.1090403944
-0.0595116615 -0.0763793513 -0.0526931025 -0.0666733831 -0.0172870383 0.0205554459 0.0576420575 -0.0193488076 0.0141448975 -0.0726436749 0.0389776826 0.0352506302 0.0651298389 0.0678988546 0.0191499237 0.0101298466 -0.0617839992 0.0414699838 0.0289500263 0.0459079407 0.0736013427 -0.0388653055 0.0135086849 -0.0064523220 -0.0237261578 -0.0058543663 0.0725926086 -0.0543755144 -0.0180606470 0.0131503558 0.0579054505 -0.0770241171 -0.0116371959 -0.0089683952 0.0258491039 0.0028946027 -0.0379029326 0.0757775232 0.0438551828 -0.0156744029 -0.0200489499 0.0072144200 -0.0177636147 -0.0220394321 -0.0452203304 0.0829325095 -0.0426244773 -0.0275159329 0.0378790237 -0.0804114267 0.0531296618 0.0544592515 -0.0327184051 0.0093856975 0.0738468692 0.0771030039 -0.0606843457 -0.0292353109 -0.0056286706 -0.0848482400 0.0738606527 0.0512122139 0.0450957119 -0.0540094823
0.0168046951 -0.0074460953 0.0324946493 0.0768006518 0.0303333327 0.0261405781 -0.0136894733 0.0036780089 0.0456576720 0.0432065949 -0.0273843147 0.0391395837 0.0125313476 -0.0469139367 -0.0144661516 0.0433652773 -0.0159390718 0.0178744569 0.0730963126 0.0383701175 0.0165132061 0.0383135229 0.0634502992 0.0319160149 0.0601431057 -0.0716507211 -0.0037155449 -0.0091733932 -0.0496477634 -0.0595617592 0.0381527841 -0.0697471425 -0.0085632503 0.0281140283 0.0328963920 0.0839483514 -0.0532847792 0.0798431113 -0.0029629096 0.0241012052 -0.0318249017 0.0812781826 -0.0668476969 -0.0712658092 0.0388127118 -0.0082951188 0.0829397365 -0.0786777288 -0.0295352489 -0.0054202229 -0.0161812529 0.0048818514 -0.0223601907 -0.0057767406 0.0498025790 -0.0094014406 0.0099088028 0.0693971589 0.0738638267 0.0242457390 -0.0023369864 0.0787441805 -0.0449651517 0.0049875230
0.0645401552 0.0011387467 0.0008335933 0.0320208371 -0.0554927886 0.0211384520 -0.0674327984 -0.0570751280 0.0557035580 -0.0446394421 -0.0775014609 -0.0320984311 0.0544129983 -0.0165381730 -0.0407173708 0.0555017665 -0.0320775919 0.0382686257 0.0159784853 -0.0635566562 0.0472381189 0.0482424870 -0.0373494737 0.0234219953 0.0416760519 0.0047516376 -0.0106862262 -0.0806047320 -0.0255794637 -0.0199636668 0.0002731085 0.0256531835 0.0046120137 -0.0598245785 -0.0329555310 -0.0010020360 -0.0201351345 0.0287363902 -0.0629763305 0.0549857393 0.0375013500 0.0147238970 0.0185688585 0.0414667800 0.0635295585 0.0131307244 0.0663696304 0.0121273249 -0.0824220628 -0.0586939529 -0.0437454619 -0.0459775999 0.0071751997 0.0608349219 0.0037868023 -0.0063498840 0.0776116177 -0.0636606961 0.0615757033 -0.0254436359 0.0184206143 -0.0332845300 0.0246917382 -0.0097230375
-0.0357285850 -0.0476920418 0.0316115990 0.0176107213 -0.0189244673 -0.0820340365 0.0747765377 -0.0257366151 0.0718841627 0.0637315139 0.0281294286 0.0243115202 0.0726379976 -0.0460786559 0.0560814962 0.0040489808 0.0013413057 0.0058181733 -0.0372319706 0.0362884328 0.0357550979 -0.0634140447 -0.0099081993 0.0550738052 -0.0343154855 0.0046020672 0.0451195911 -0.0727899745 0.0105503947 -0.0494724847 -0.0620994940 -0.0258829333 -0.0266581103 0.0728067383 -0.0389963724 -0.0025581494 -0.0000983253 0.0527782366 0.0832386091 -0.0601733103 0.0589561090 0.0447461382 -0.0766475871 0.0018508732 -0.0091788098 0.0639583096 -0.0376892388 0.0649181083 0.0700824633 -0.0690882802 0.0645411834 0.0768772736 0.0273624733 0.0666577592 -0.0286452398 -0.0085956603 0.0256667659 -0.0466168039 -0.0503418371 0.0175625682 -0.0065841004 -0.0075341985 0.0486567095 -0.0308482163
-0.0758760422 0.0381010473 -0.0311494768 -0.0025226325 -0.0072485954 -0.0470869876 -0.0157009810 0.0582268313 0.0132796690 -0.0739347339 -0.0279978923 -0.0122866780 0.0161576122 -0.0437697470 -0.0167892352 0.0308619365 0.0058390051 0.0808368549 0.0698789433 0.0050026402 -0.0778526813 0.0086518079 -0.0183101520 0.0075634196 0.0641953126 -0.0552853793 0.0797267333 -0.0338414498 -0.0666693151 -0.0727430657 0.0687546059 0.0339096338 0.0033353120 0.0195614696 -0.0185267404 -0.0222766660 0.0735448673 -0.0194645822 -0.0139055178 0.0099889040 -0.0294637531 -0.0820958912 -0.0579145029 -0.0562981479 0.0519067720 -0.0040929988 0.0040569231 0.0262063146 0.0256203189 -0.0092558190 -0.0090671852 0.0800009593 0.0540130809 0.0083701015 0.0819902048 -0.0107950419 -0.0193348899 0.0652543828 -0.0775993243 -0.0832459927 -0.0047612637 -0.0345944278 -0.0642522946 -0.0801605657
-0.0713419169 0.0827294216 -0.0612496734 -0.0182684362 -0.0094415843 0.0061469078 0.0820668712 0.0282863602 -0.0204856917 -0.0208602548 0.0247184932 0.0154792219 -0.0215303823 0.0638442412 0.0379673392 0.0038639531 0.0317025483 0.0122606903 -0.0818515643 -0.0146066546 0.0701377317 -0.0722904503 -0.0327456780 -0.0382714309 -0.0715251565 -0.0593944639 -0.0185601935 -0.0508679971 -0.0019619018 -0.0586341694 0.0282976925 -0.0570035130 -0.0318780690 0.0213108882 -0.0035311431 -0.0265204757 -0.0400861874 0.0105689093 0.0832209066 0.0179479793 -0.0468778573 -0.0188241750 -0.0245531015 -0.0838801041 -0.0594614297 -0.0722137392 -0.0584488437 -0.0626617074 -0.0410033129 -0.0411534011 0.0387070775 0.0102328286 -0.0139739066 0.0688744411 -0.0788477957 0.0216578171 -0.0529056005 -0.0515651181 0.0431315228 0.0560129508 -0.0830959007 -0.0473030992 -0.0756971911 0.0495003536
-0.0763245448 -0.0198458061 -0.0300945565 0.0425699726 -0.0104456916 0.0301869065 -0.0382368155 0.0268746242 0.0062723309 -0.0607604161 0.0561612472 0.0637654439 0.0127894506 0.0460665002 -0.0324118882 0.0516509935 -0.0634526461 -0.0530016832 0.0071761236 0.0603865907 -0.0545099005 0.0412490889 0.0002904534 -0.0262730382 -0.0614549145 -0.0060359836 -0.0512167476 0.0746124908 0.0728962645 -0.0533256084 -0.0706454739 0.0281716287 0.0837314352 -0.0593794808 0.0059974194 0.0354442298 -0.0105454624 0.0736351982 -0.0518343560 -0.0589315221 0.0483277962 -0.0783985928 -0.0293166339 0.0422780886 0.0552634224 -0.0832328945 -0.0207502767 0.0496042296 0.0299649611 0.0781223401 0.0648280606 0.0382790491 -0.0439322740 0.0803356990 -0.0303427763 0.0384452492 0.0557348654 -0.0762993991 -0.0272445343 -0.0083041787 0.0657781586 0.0533903614 0.0194020122 -0.0515172705
-0.0585935973 -0.0656068102 0.0223459303 -0.0362070128 -0.0394069739 0.0722463652 -0.0567687526 0.0056190491 -0.0140972063 0.0000637323 0.0180765092 -0.0275406614 0.0665094331 -0.0652381033 0.0399493501 0.0314707160 0.0411235169 -0.0510926507 -0.0426160358 -0.0553086437 -0.0413027704 0.0100534558 -0.0340330750 0.0123724565 0.0702265725 -0.0837648436 -0.0784025416 -0.0599210039 0.0494380072 -0.0000163838 0.0808117762 -0.0538893081 -0.0794742852 0.0748960301 -0.0714043677 -0.0552962497 0.0073653758 0.0540585890 0.0351432264 0.0686665848 -0.0179764181 0.0274173245 0.0214335620 -0.0818779916 -0.0019812882 0.0092606917 -0.0020791963 -0.0651685148 0.0350026861 0.0652393326 -0.0578800477 -0.0475244634 0.0506769791 -0.0473227911 0.0344422907 0.0797211006 -0.0797309503 -0.0211498886 -0.0005538091 -0.0523410589 0.0587793067 0.0541774407 -0.0529755950 0.0451354608
-0.0722202361 0.0530669764 -0.0550714955 -0.0496295728 0.0298101828 0.0360774547 0.0758486912 0.0340797827 -0.0179990828 0.0705131516 0.0326003581 -0.0269288495 -0.0482277237 -0.0707093701 -0.0245777108 0.0501458868 -0.0116466507 0.0785537586 -0.0343599692 -0.0659159720 0.0439088419 -0.0138115063 0.0189235881 0.0577936545 -0.0108243823 -0.0314639360 -0.0144351870 -0.0502591133 0.0788569674 -0.0206759945 0.0742560998 0.0667526647 0.0081678703 0.0404779166 -0.0472562723 -0.0013144538 0.0195657983 0.0754627064 -0.0346267968 0.0695937350 -0.0791998357 -0.0346431993 -0.0583401024 -0.0204496980 0.0145631358 0.0440111086 -0.0735138506 0.0778898075 0.0479184166 0.0656944886 0.0338382795 0.0279325321 0.0830430910 -0.0521654412 0.0533947125 -0.0338691063 0.0772039220 0.0793769881 -0.0266748555 -0.0495802797 0.0324276090 0.0590961352 -0.0250775553 0.0417925045
0.0106869265 0.0413552150 -0.0119825900 0.0793211535 0.0375511050 -0.0007746965 0.0482432321 0.0545597598 -0.0322509259 0.0783182904 -0.0481891185 -0.0706034005 0.0288163275 0.0729266629 -0.0276101902 0.0220349431 -0.0462546572 0.0248753801 -0.0276001655 -0.0004644096 0.0792424008 0.0724869296 -0.0564557575 -0.0653433353 0.0399830267 0.0279515833 0.0406734124 -0.0536859930 0.0465180799 0.0132012740 -0.0061340556 0.0437357500 0.0612941906 -0.0222905613 0.0117923468 -0.0632843077 -0.0229311734 0.0011948645 -0.0544477552 -0.0593946241 0.0175482705 0.0045749545 0.0126704872 -0.0827254504 0.0444291160 -0.0588858351 0.0112658292 -0.0185467601 -0.0784717277 -0.0028785616 -0.0252106190 0.0519138947 -0.0085111633 0.0093813464 -0.0725443810 -0.0171356797 0.0546359643 0.0050678253 -0.0169851929 -0.0406700037 -0.0206205994 -0.0436564200 -0.0138186663 -0.0734365359
-0.0276717804 -0.0709785819 -0.0165005848 0.0755511597 -0.0169867575 0.0456912741 0.0782592222 -0.0534102619 0.0064225793 -0.0291805416 -0.0468964465 -0.0028121173 -0.0443548858 -0.0528781861 -0.0772589743 -0.0269896165 0.0019328594 -0.0057264641 0.0357038006 -0.0332613662 -0.0333878919 0.0339042023 0.0366629586 -0.0060574636 -0.0015062913 -0.0323799998 -0.0669560358 0.0629187748 0.0406931043 0.0529576764 0.0820949599 0.0309776887 -0.0082940161 0.0666986927 0.0079977810 -0.0760560483 -0.0700133294 0.0564095303 0.0355040953 -0.0467045046 0.0194038376 -0.0105836242 0.0344844237 -0.0147221908 0.0072900280 -0.0197995752 0.0170046836 0.0289811194 0.0689306930 -0.0569403991 0.0097519383 -0.0198117942 -0.0055028126 -0.0788612515 0.0744363740 0.0450857356 -0.0710352808 0.0804368034 -0.0625053644 0.0642682686 0.0375361815 -0.0451765321 -0.0280810185 0.0193155184
0.0138069540 -0.0220989399 0.0022455752 -0.0069677085 -0.0803691894 -0.0242643133 0.0070396662 0.0196014792 0.0014005452 -0.0797206983 0.0621284321 0.0489154831 -0.0445188135 0.0154124349 -0.0140262693 -0.0431358553 0.0812458619 0.0322315320 0.0104451478 0.0718809292 -0.0336540379 0.0016505048 0.0730372891 0.0371684209 -0.0270927176 -0.0663043186 0.0247535110 0.0359834433 -0.0780208185 0.0593079701 -0.0341731980 -0.0502331220 -0.0558650233 0.0041645318 0.0080288723 -0.0139383674 0.0210720152 0.0376450419 0.0523621365 -0.0271061137 -0.0576233864 0.0259130970 0.0127376318 0.0522003993 0.0556976870 -0.0461262651 -0.0826808065 -0.0140216202 0.0258027315 -0.0659250394 0.0617415980 -0.0730691329 -0.0250607096 -0.0215895250 -0.0507178269 0.0182363912 -0.0270697139 -0.0741085559 0.0459887758 0.0014358014 0.0747511014 -0.0135150552 -0.0239301808 0.0371118262
0.0531068966 -0.0375029705 -0.0222642310 0.0107486397 -0.0704501420 0.0424932167 0.0205149502 -0.0451459885 0.0497979596 0.0791505501 0.0606606975 -0.0712784007 -0.0475882366 0.0734745786 0.0187388211 -0.0323798992 0.0087154880 -0.0684431195 0.0518694147 -0.0738143697 0.0812625065 -0.0395215452 0.0354091302 0.0204096064 0.0466339961 0.0013420656 0.0400061458 0.0465062186 -0.0128337964 0.0554410592 -0.0477750897 0.0764265880 -0.0255566835 -0.0205001086 0.0148932189 -0.0254260078 0.0350640938 0.0836445168 -0.0644284338 -0.0158252642 0.0791239068 0.0393962041 0.0257992670 0.0565105006 0.0584486201 -0.0695450306 -0.0580635071 0.0634584799 0.0763280764 0.0089530945 0.0722472146 -0.0322421417 0.0813389942 -0.0210000947 0.0380054042 0.0141840205 0.0076151192 -0.0726838037 0.0548808500 0.0083175600 -0.0053712726 0.0782895759 -0.0525915623 0.0282135829
0.0624778643 -0.0309773088 0.0803296492 -0.0117410868 0.0127300918 -0.0792750046 -0.0420766845 0.0600214973 0.0161459595 -0.0457384065 -0.0745243505 0.0453935787 -0.0455209129 0.0496043637 0.0181018636 -0.0296989158 -0.0131851509 0.0187534988 0.0604507253 -0.0004363954 0.0391412228 0.0172482505 0.0500204340 0.0330903009 0.0716328546 -0.0746210739 0.0331010297 0.0301426724 0.0023325309 0.0385656133 0.0003892854 0.0250610262 -0.0051441267 -0.0014126375 -0.0249224715 0.0093019456 0.0516551211 0.0788361803 0.0646068379 -0.0521199740 0.0710241720 -0.0114650130 -0.0177523270 -0.0118776634 -0.0047210380 0.0143995881 -0.0511176176 0.0787000135 -0.0508666337 -0.0651263371 -0.0256316662 -0.0237985812 -0.0657825097 0.0758169964 -0.0571146980 0.0264162943 -0.0538215041 -0.0449365564 0.0174473971 -0.0391346700 0.0367515385 -0.0740287751 0.0399422571 -0.0205134675
0.0121672302 0.0335143805 -0.0834121406 0.0395764560 0.0697348490 -0.0490784682 -0.0302495994 0.0275906995 -0.0295464210 -0.0546052232 -0.0149047077 -0.0487680212 0.0749481842 -0.0085724145 0.0117014199 -0.0400337651 -0.0067526400 0.0203979164 0.0594268516 0.0316216648 -0.0491698794 -0.0353052877 -0.0576729216 0.0434525236 0.0611462817 -0.0642226338 0.0627999231 -0.0839803740 -0.0353118479 -0.0001056716 -0.0793693811 -0.0282955654 -0.0096086636 0.0406136885 -0.0794992372 0.0135643482 0.0180166289 0.0093972087 0.0542500690 0.0439250097 0.0067548081 0.0151713565 -0.0349004641 -0.0430267192 0.0202806294 -0.0281206854 0.0800228044 -0.0249872692 0.0670337453 -0.0410079658 0.0090065002 -0.0089208484 -0.0484722927 0.0484609976 -0.0837064087 0.0387962013 0.0148253962 -0.0614565387 0.0614215061 0.0025079325 0.0021001995 0.0379133523 -0.0684887022 0.0302010477
0.0172023252 -0.0430673100 0.0321876332 0.0300269127 0.0151719004 0.0540165529 -0.0779739097 0.0077806711 -0.0091467053 -0.0694256797 -0.0011420771 0.0535517856 -0.0357997604 0.0544167235 0.0801050290 -0.0793588907 -0.0709461942 -0.0667501763 0.0593750253 0.0558341369 -0.0168225467 -0.0186717212 0.0341964588 -0.0131953433 -0.0104206204 0.0695035383 -0.0092274845 -0.0458093807 0.0201621726 -0.0395880863 0.0525742397 0.0535010621 -0.0131949559 0.0358804986 -0.0716906264 -0.0691971555 -0.0596958473 0.0279313698 0.0821976736 0.0131383240 -0.0094442517 -0.0767086372 0.0199879929 0.0211371332 0.0060140267 0.0272471011 -0.0778223798 -0.0807079747 -0.0617883019 -0.0502662137 -0.0229047798 0.0793796852 0.0707500800 0.0520349964 -0.0122593418 0.0494007692 -0.0132628828 0.0738869235 0.0135923848 0.0829242542 -0.0684971660 0.0742901936 -0.0046867579 0.0527803376
-0.0830614641 -0.0018569529 -0.0733941421 -0.0088905841 0.0313779861 0.0487635061 0.0745748803 0.0614614710 0.0121599734 0.0835238025 0.0795740262 0.0790007338 -0.0519962162 -0.0745165050 0.0001348257 0.0804279074 -0.0077718049 0.0487454310 0.0349900499 0.0161742792 0.0643182173 0.0481517985 -0.0802108571 -0.0057569444 0.0627140924 -0.0487939119 0.0493958220 0.0285343751 -0.0562211573 0.0144084916 0.0098611712 -0.0389852189 0.0524397716 0.0466915146 -0.0602092072 0.0825620666 0.0376059711 -0.0145766363 -0.0799851045 0.0273420960 0.0491025522 -0.0359228142 -0.0477609709 0.0816010907 0.0601472929 -0.0711297393 0.0261279866 0.0549364313 0.0343304873 0.0395559967 0.0271894261 0.0634056553 -0.0060874671 0.0470839962 0.0122122169 -0.0420095623 -0.0558470152 -0.0471504219 0.0588916168 -0.0514026359 -0.0150765181 -0.0065537021 0.0270710960 0.0796591863
0.0333771743 0.0279064700 0.0016311780 -0.0602169111 -0.0229472965 -0.0596466064 0.0237847008 0.0482831039 0.0248758700 -0.0360720605 0.0679905787 0.0284772217 0.0409223773 0.0483434536 0.0645327568 -0.0769177452 -0.0179941133 0.0239061937 -0.0659331456 -0.0219011288 0.0668289140 0.0314698964 -0.0338975340 0.0218658447 -0.0209070053 0.0279963259 0.0772437975 -0.0575920492 0.0707722604 0.0834753886 -0.0080019264 0.0530322939 -0.0132991653 0.0604357347 -0.0370732583 -0.0009011403 0.0387799963 -0.0068799453 0.0342145339 0.0232754145 -0.0658701137 0.0565714613 0.0411957614 -0.0069715595 -0.0278868303 0.0318144560 -0.0629030615 -0.0061198622 0.0306902751 0.0440009162 0.0541852564 -0.0383710898 0.0851010382 0.0692404956 0.0805988982 -0.0565794148 -0.0409775898 -0.0129146753 -0.0432546698 -0.0551592521 -0.0473416038 -0.0269307699 0.0369036645 0.0737112537
-0.0198879130 -0.0584202744 -0.0832205787 0.0788786858 0.0131141394 0.0549060181 0.0694696382 0.0096686454 -0.0066498225 0.1306048632 -0.0673948377 0.0905924067 -0.0936393961 -0.0061786505 -0.0165734775 0.0346508995 -0.0444265492 -0.0298410244 -0.1483456641 -0.1340420097 0.0415937230 -0.0594994687 0.0054904330 0.0156809390 -0.0296104345 -0.0145707764 -0.0270328429 0.0031782750 -0.0878307968 -0.0173385013 0.0598186255 -0.0919482559 -0.0111473724 -0.0808268636 -0.0387771502 -0.0279245712 -0.0738174170 -0.0854426622 0.0131929414 0.0059342613 -0.0219857600 -0.0847468302 -0.0013391505 -0.0815952569 0.0753232613 0.0141032962 0.0390019789 -0.0771972910 -0.0744420812 0.0757420585 0.0836365744 0.0524075143 0.0775338113 -0.0365025923 0.0903065652 0.0524664000 0.0663652048 -0.0219079759 -0.0939772278 -0.0485391319 -0.0108615085 0.0696407855 0.0678909048 -0.0275085755
0.1822961718 -0.2836015224 -0.2363043278 0.2635890245 0.0445731208 0.1635636985 0.2529280484 0.0155838653 0.2791878879 0.2144958526 -0.2905786633 0.0681108609 -0.0779222697 0.2727082670 0.2001396567 -0.1491696686 -0.1184466183 0.0001159981 -0.2656040192 -0.2221966833 0.0207937956 -0.1295961142 0.1583456248 0.0150583619 -0.1893714219 -0.2526299357 -0.2115791589 -0.1772325933 -0.0153149310 0.1044132560 -0.2276781648 -0.1345783323 0.1587701589 0.0529139861 -0.0075283223 -0.1177977324 -0.0288195536 -0.1561436206 0.1699916273 0.0945267305 -0.1131635085 -0.2430623472 0.0143574178 -0.1408277601 0.0775001943 -0.1765740216 0.2178524733 0.0238369536 -0.1973312497 -0.0538050532 0.1399655789 0.2756082714 0.0374491066 0.0655580834 0.1540766656 -0.0152387777 0.1606508791 0.2583215237 -0.1351899207 -0.2020007074 0.0537233576 0.1211933643 0.1864513457 -0.0869546756
0.1921306252 -0.1906005293 -0.2353888303 0.2644542158 -0.0449986421 0.2490013391 0.1624485254 0.0459688231 0.1996605545 0.2249894142 -0.1852161139 0.0871284530 0.0193620585 0.2365049124 0.2184229344 -0.0997575969 -0.1057314575 0.0461608395 -0.2428102493 -0.2546748817 -0.0233681723 -0.1588953584 0.0757786706 -0.0458771698 -0.2420188189 -0.2074950635 -0.2513315082 -0.1489214897 0.0069822138 0.0260730535 -0.1806142330 -0.1818978190 0.0062232357 -0.0030240454 -0.0267343130 -0.0625476241 0.0294847023 -0.1587179601 0.2685412467 0.2428079396 -0.1295949668 -0.1995880306 0.0363217741 -0.2274474204 -0.0013935756 -0.2852620780 0.1652428955 -0.1050160006 -0.1665462554 -0.0263047889 0.1454493850 0.1351230592 0.0358209126 0.0858443826 0.1983305663 0.0135493325 0.0889286250 0.1855186969 -0.1802441478 -0.1177644432 0.0624227151 0.1697277278 0.2272618264 -0.0175738689
0.0935860574 -0.1817293763 -0.0632554889 0.2233254462 -0.0325922109 0.2051007003 0.0773494467 0.0018185392 0.1908104867 0.2036674321 -0.0972178802 0.0629200265 -0.0064370064 0.0655244738 0.1830411106 -0.0412531309 -0.1641468704 -0.0725867897 -0.1470559090 -0.1903093755 -0.1384596080 -0.0889152363 0.0834385902 -0.0870630592 -0.0773908570 -0.1424144208 -0.1193752959 -0.0466929190 0.0289959908 0.0119749485 -0.1237066016 0.1336460859 0.0430850498 0.0705191270 -0.1565531343 -0.0954618081 -0.0611342192 -0.0481100120 0.2186700404 0.0265709516 0.1038505882 -0.2331709713 -0.0025332824 -0.1692658961 0.0380537882 -0.1705822498 0.1272326261 -0.0913097635 -0.1551105529 -0.0572009310 0.0811895952 0.1747192293 -0.0509454198 -0.0199293606 0.2221312076 0.1017373577 0.1676566154 0.1746317595 -0.1839101315 -0.0089109084 -0.0835201368 0.2240454406 0.1098107994 0.0744931400
0.0702158138 -0.1406304389 -0.0379597880 0.0450136252 0.0147554018 0.1953831464 0.0657353327 0.0433684625 0.0970074683 0.0983133018 -0.0595638379 0.2216167301 -0.0116061000 0.1107292101 0.1730435640 -0.1735432446 -0.1130528003 -0.0193368960 -0.0762811080 -0.1390806139 -0.1555003375 -0.1192211360 -0.0235616565 0.0281490255 0.0172836930 0.0164414663 -0.1083329916 -0.0512469225 -0.0714983046 0.1058254316 -0.0431731045 -0.0432348028 -0.0002505810 -0.0844170824 -0.1403332502 -0.1108691320 0.0494021364 -0.0730711669 0.0389698856 -0.0385191813 0.0298366398 -0.1893187314 0.0095650963 -0.0638259202 -0.0730936676 0.0324694291 0.1378699094 -0.0361072905 0.0612568073 -0.0469880961 0.1473984569 0.0319241472 0.0239077359 -0.0104064196 0.0551649407 0.0784725249 0.1557782739 -0.0132217314 -0.1124401093 -0.0343164653 -0.0491064228 0.0912160128 0.0918769538 -0.0698970780
0.1692484766 -0.1235742047 -0.0481374450 0.0109861773 -0.0396716073 0.0664898828 0.0677280426 0.0099781202 0.1307356805 0.1347393245 -0.0906061456 0.0888722986 -0.0503455400 0.1660745889 0.1359891742 -0.1953977197 -0.0836702660 -0.0170716587 -0.1542690992 0.0217605978 -0.0803196728 -0.0783409774 -0.0266383663 0.0531266853 0.0065918993 -0.0038843453 -0.0214665476 -0.1031761020 -0.0746209100 -0.0010195532 -0.0649028122 0.0733034760 0.1004565954 -0.0933040157 -0.0713419318 -0.0357021429 0.0422832482 -0.1308302730 0.1550331861 -0.1439832896 0.0881235003 -0.1655341238 -0.0783468038 -0.0367004685 -0.0103628207 -0.0423049890 0.1872061789 0.0193721466 0.0779006556 -0.2000733316 0.0539764687 0.0661026910 0.0742359087 0.0374670923 0.0367785916 -0.0777944922 0.0045453538 0.0904854983 -0.1478729993 -0.0275800750 -0.0085021863 0.1199634448 0.0118616112 0.0462046713
0.1237861663 -0.1203243732 -0.1144957095 0.1480461806 0.0282002613 0.0437343977 0.0367071554 -0.0444831736 -0.0205157921 0.0527691469 0.0582194328 0.0717619061 -0.0438430533 0.1119270846 0.0569021590 -0.0584748015 -0.1042612568 0.0538934134 -0.1623771042 -0.0260270871 -0.1715859920 -0.1384921521 0.1109426767 -0.1042431593 0.0385267287 -0.1538837552 -0.1494615823 0.0197536536 0.0027338774 0.0510026217 0.0048951288 -0.0113679906 -0.0386962891 -0.0991786197 -0.0260027107 0.0221355688 -0.0476516858 -0.1306840181 0.1226446331 0.0625913143 0.0815885812 -0.1569842249 -0.0102475872 -0.0027851409 -0.0206213463 -0.0053964658 0.1916619986 0.0386133306 -0.0617674217 -0.0782474354 0.0140330177 0.0862657577 0.0494625457 0.0935586691 0.0990013033 -0.0414439291 -0.0157402400 -0.0400114581 -0.1058754474 0.0619088560 0.1060564592 0.0989267677 0.1257830709 -0.0975077227
0.0908290297 -0.1470554769 -0.1362452656 0.1061936989 0.0352252163 0.0940202251 0.0626416281 0.0437501371 0.0134967268 0.1560793370 0.0183271915 0.1036572829 -0.2155082524 0.0769015029 0.1556578130 -0.0875530392 -0.2539553940 -0.0440157801 -0.1200830862 -0.1276154965 -0.1748209000 0.0035072388 0.1219761819 -0.0168840941 -0.0741577595 -0.0587272532 -0.0251167305 0.0477323085 0.0004545198 0.0776537061 -0.0189494640 0.0081776725 -0.0092257904 -0.1186968684 -0.1298287213 -0.0068402942 -0.0984709933 0.0011815546 -0.0322502516 0.0399563052 -0.0311968680 -0.1659451127 -0.0424099118 -0.1256956756 0.0514471792 0.0785007924 0.1381922811 -0.0443927385 0.0347703025 0.0579391569 0.0388709828 0.0883948728 0.0548615977 0.2307790518 0.1904338747 0.0149673978 0.1918726712 0.0176452417 -0.1858137846 0.0118913837 -0.0263923053 0.1095243394 -0.0261299405 0.0117750494
0.2367721796 -0.1855639964 -0.1126942113 0.1346669346 -0.1075462028 0.1571233869 0.1843884885 -0.1021796241 0.0261088908 0.1947672367 0.0139250290 0.0873852894 -0.2041574568 0.1393973082 0.0784629509 -0.2987839282 -0.2953144014 -0.0450575575 -0.2340343446 -0.1185803115 -0.0371101648 -0.0366765521 0.1346181184 0.0355287492 0.0328578986 -0.1837220341 -0.1434167922 -0.0196711011 -0.0093781175 0.1050526500 0.0852293372 0.0172983501 -0.0311844554 -0.1182624772 -0.0654569566 -0.1389922202 -0.0766552314 -0.1002996862 0.0208114386 -0.0199061595 0.0355301574 -0.1401565075 -0.0358400792 -0.1246828437 0.0167208463 -0.1041383892 0.1942619532 -0.0570683442 -0.0010289426 -0.0765740126 0.1179434806 0.1350019127 0.0968169719 0.1002502963 0.1026008204 0.0347543135 0.2149048597 0.1209812537 -0.1420505196 0.0869016275 0.0420076586 0.2194319814 -0.0126652718 -0.0418053865
0.2129167467 -0.1937471479 -0.1372881979 0.0964697152 0.1089339256 0.1082964242 0.2627611458 0.0931516960 0.2300840169 0.0847501978 -0.1945313215 -0.0166482925 0.0508676358 0.1005864888 -0.0942382216 0.0155614885 -0.0865386724 0.1647603661 -0.1877465099 -0.2357334346 -0.0913583115 -0.1113732457 0.0268121902 -0.2298272848 -0.0935742185 -0.1780550182 0.0417009145 -0.0903312862 0.0066474518 0.1058814675 -0.0764806196 -0.0536010079 -0.1991581172 0.1568677276 -0.1186635494 0.0248652119 -0.0579442456 0.0143526578 0.1159874126 -0.0262228195 -0.0339714549 0.0905990973 0.1141528562 -0.0769514889 -0.0311939027 -0.0930523798 0.0385973863 -0.0046134312 -0.0635059103 -0.1088932529 -0.1212698668 0.0809193105 0.1174712628 0.2517997622 0.1287349313 0.0945619345 0.2522810102 0.1277584285 -0.2115917206 -0.0153126596 0.0100909173 0.0820890889 -0.0432062335 -0.2231150120
0.1383376569 -0.2026689202 -0.0920800045 0.0800656229 0.0123873232 -0.0036377418 0.0672481507 0.0647073910 0.1582212299 0.1649307907 -0.0168790184 0.0001178515 0.1197012514 0.1067671403 -0.1285357922 0.0745405555 -0.0424628817 0.1182286143 -0.1040917709 -0.1927248389 -0.1538135856 -0.0704694688 0.0923080221 -0.1822294593 -0.1880926937 -0.1821131110 0.0667946264 0.0755251497 -0.2144242227 0.1344251931 -0.1033222154 -0.0728570074 -0.2145494670 0.0192733388 -0.2058381885 0.0521575250 0.0081488695 -0.0306380969 0.1323545426 -0.0286990926 -0.2096908987 -0.0606087781 0.1056733727 0.0371856801 0.0364269279 -0.0970401391 -0.0270560794 0.0124731511 -0.0370566063 -0.2776863575 -0.1562172920 0.0114699034 0.0802779496 0.1848354936 0.2289570421 0.1917798221 0.3192694187 0.1174310371 -0.1852738112 -0.0640160516 0.1529549956 0.0971141160 0.0661441013 -0.0682253316
0.1111935750 -0.2514231503 -0.0288527347 0.2298125625 0.0226945058 0.0800042227 -0.0622269288 -0.0117238741 -0.1064311564 0.2133167535 0.1049088985 0.0708154887 -0.1112198681 -0.0186776388 0.1200550422 0.0567995012 -0.0902501121 0.0301470421 -0.0438345894 -0.2062216699 -0.2879436910 0.1548111439 0.1974163055 0.0381379910 -0.0476618633 0.0537301861 0.1038692817 0.0717308968 -0.2557947040 0.0980329067 0.1105460972 -0.1757244021 -0.1081865206 -0.2326744199 -0.1204499230 0.0235394966 0.1258196235 -0.1741739362 0.1859208792 0.0593853295 -0.0559635237 -0.1900387108 0.0661954135 -0.1620435417 0.1003119424 0.1933095455 -0.0776072890 -0.2626918256 -0.1607116014 -0.3088468909 0.0535425432 0.0235657301 0.0301036034 0.1429631859 0.0839532763 0.0504998975 0.2829832435 -0.1336495280 -0.1771494746 -0.0850420892 0.0121580744 0.1040220261 0.1574483663 0.1299616694
0.0968324170 -0.0825893730 -0.1859443039 0.1700486690 -0.0913303271 0.1379052997 0.1080449745 -0.0635209307 -0.0939062536 0.0886836722 0.0197753068 0.0669331551 -0.1007439196 0.1380918622 0.1138965487 0.0746620893 -0.1633824855 0.0077244444 -0.0786644444 -0.0358361416 -0.2453945130 -0.0325467959 0.0742388144 0.0703067780 -0.0976068154 -0.0728900582 0.0368582681 0.0232810844 -0.2456587255 0.1093648672 0.1862073541 -0.1188126877 0.0354486741 -0.1736096889 -0.0601794794 -0.0716794804 0.0320576765 -0.1254555732 0.1208964959 0.1386355609 -0.1048482582 -0.1388055533 -0.1055858135 -0.1205672696 -0.0327046998 0.2328065783 0.1162923798 -0.2471227497 -0.0208542030 -0.1319632977 0.0623430759 0.0676281378 0.0648649931 0.2009440958 0.0019239171 0.0576146841 0.2555409670 -0.1233785078 -0.1367684156 -0.0570600592 -0.0939020440 0.1514627486 0.1488218755 0.0720553771
0.1632618010 -0.0117290393 -0.1271898746 0.1119929031 -0.0199933518 0.0198745187 0.1410147548 -0.0510596260 0.1567475051 0.0733641535 -0.0522733405 -0.0468307436 -0.1903833896 0.0970954299 0.0610491671 -0.1280340254 -0.0853751376 -0.0057775667 -0.2064399719 -0.0728112459 -0.0942999125 -0.1154264584 -0.0094754137 0.0340697467 0.0489348583 -0.0666839927 -0.0430613495 -0.1975842565 -0.0557537712 0.1079582870 0.1068275869 0.0971928760 0.1011730134 0.0922032371 -0.0368871726 -0.0185977239 -0.0564375184 -0.0856409669 0.1179334521 -0.0924800709 0.0583770648 -0.1503450871 0.0105156647 -0.0352275372 0.0678739250 -0.1084589064 0.0175700746 0.0576385930 0.1476192325 0.0580024682 0.1347481906 0.1795477420 0.1579251289 0.1715791970 0.0529103465 -0.0357891098 0.0601135604 0.1635496318 -0.2108481526 0.0743537843 0.0378196724 0.2493236065 0.0146576790 0.0659782141
0.0007585114 -0.2021192908 -0.2352852374 0.2326485515 -0.0892951339 0.0437888317 0.1490979493 -0.0880385190 0.1060729027 0.2035441399 -0.1927771419 -0.0557515956 -0.2667316794 0.1889887154 0.2237833440 -0.1292649955 -0.1454248130 0.2084242404 -0.2442715168 -0.2730995417 -0.0279042255 -0.1749147773 0.0695386827 -0.0120660579 0.0024396761 -0.1646517813 -0.1311944276 -0.2729333043 -0.0574946404 0.0902418569 0.1025255173 0.1097930968 0.1005360857 0.0608028844 -0.0530558750 -0.0617053211 -0.1783368737 -0.0653430745 0.1800425500 0.0177961700 0.0157785304 -0.2092648894 -0.0882711262 -0.0630898252 0.0532083511 -0.2071065456 -0.0068085450 0.0751067176 -0.0880579352 -0.0609987043 0.1865280271 0.1752821803 0.0724840537 0.1509587765 0.1308690757 0.0482200161 0.1486558467 0.1235691682 -0.2424010932 0.1210647523 0.0732245147 0.2283340693 0.0183973201 -0.0034292936
0.1061748713 -0.1177684963 -0.2551876009 0.2987729013 -0.0532950535 0.1333073974 0.2786343694 -0.1267308295 0.1714334786 0.2166415900 -0.2546811104 -0.0862582028 -0.1064752415 0.1952475160 0.1573206335 -0.0694593191 -0.2669939697 0.2903081179 -0.2179352641 -0.2805999219 -0.1581098139 -0.2493486702 -0.0199114997 -0.0370185897 0.1356529742 -0.1581501514 -0.1797892302 -0.2655208111 -0.0707291588 0.0873620659 0.0080792680 0.1198644787 0.1344818473 0.1631002724 -0.0002789866 0.0207483321 -0.2361425608 -0.2777686417 0.1358151585 -0.1385641545 0.2131624967 -0.2241828442 -0.0978488624 -0.1321799755 -0.0006516417 -0.0840606689 0.1977299899 0.0173021499 -0.0922837555 -0.2296382636 0.2524608076 0.2088900357 0.1979341954 0.3075214028 0.0820833221 -0.0789592043 0.1063675359 0.1509693712 -0.2067715824 0.1359830797 0.1422511935 0.2407310158 0.1620818377 -0.1220317110
0.1154080778 -0.0775490105 -0.1776366830 0.0168464966 -0.0641372949 0.0660011321 0.0271460284 -0.0190327801 0.0458253808 0.1153185144 -0.0748084188 -0.1234972030 -0.1413471103 0.0996620208 0.1607673913 -0.0833683461 -0.1887986958 0.2132024318 -0.1395101994 -0.1998002678 -0.0404123031 -0.1541545838 0.0705586150 -0.0488389209 0.0831598490 -0.0953428820 -0.1181448847 -0.1724396646 -0.1005259007 -0.0028065916 -0.0405735150 0.0745864511 0.1126137748 0.1489022076 0.0719414353 0.0610380210 -0.2158547640 -0.0942488238 0.0433273353 -0.0757946298 0.1352242827 -0.1105733737 -0.0870960727 -0.0759271160 0.0335016921 -0.0568612814 0.2062026709 0.0400411189 -0.0144588659 -0.1803376824 0.0668735057 0.1143582389 0.1058159843 0.1084312424 -0.0023950948 0.0078818277 -0.0033510565 0.0938402638 -0.0341540091 0.1049051434 0.1572277546 0.0323976055 0.0779700577 -0.0943139195
0.1442561150 -0.1187361851 -0.1303416789 0.1477592885 0.0764302686 0.0714938119 0.0312712528 -0.0256396346 0.1422860622 0.0394129269 -0.1314038187 -0.1108261794 -0.0374466181 0.2125537395 0.1812022179 -0.1835544258 -0.0750350431 0.0931021497 -0.1047160849 0.0116528394 -0.1813193262 -0.1394737512 -0.0177580360 -0.0190067962 -0.0577167273 -0.1515254676 -0.1504683048 -0.1561079472 -0.1209032163 0.0216192957 -0.0031942460 0.0196432769 0.1097895727 0.0479388312 0.0504096299 0.0227491464 -0.2044837624 -0.1868712008 0.0538747832 -0.0011359662 0.1942008287 -0.0022727319 -0.0370889790 -0.0082979091 0.0059172213 -0.1226217896 0.1027882099 -0.0600909442 -0.0148116890 -0.0871071219 0.1173079461 0.0809646472 0.0451517813 0.1545827687 0.0996748805 0.0192578360 0.0848615691 0.1071001217 -0.1217296720 0.0792395100 0.1258185208 0.1149906963 0.0661188290 -0.0697416589
0.1650865376 -0.1852812916 -0.1819102317 0.0612917729 -0.0268460438 0.0899098963 0.0479843020 0.0684477314 0.1169824377 0.1802881956 -0.1761353463 -0.0006540594 0.0311243385 0.2063674927 0.0987752900 -0.1318102479 -0.0737562254 0.0269811414 -0.0728502646 -0.0831224173 -0.0519638509 -0.0157317184 0.0889333338 0.0561729595 -0.1410775632 -0.0614533052 -0.2012776881 -0.0116125466 -0.0042347531 0.0909685791 -0.0669420734 -0.1085959077 0.1090408489 -0.0559881181 -0.0086136833 0.0371353105 -0.1045697927 -0.1333965361 0.1812756211 0.1280863732 -0.0322209373 -0.1010666937 0.0877491161 -0.1480198205 0.0660556927 -0.1553317457 0.2211442590 -0.0826856047 -0.1744818985 -0.1343612373 0.1198873073 0.1639865488 0.1767415255 0.0746848658 0.1329348981 0.0283803940 0.0762311816 0.1441916823 -0.1906880289 -0.0043353750 -0.0430195592 0.1085680723 0.0814939067 0.0219203085
-0.0453069657 -0.0728363395 -0.0559818037 0.0784559622 0.0133269429 -0.0240348466 0.0317985713 -0.0064316839 -0.0615990832 -0.0830975622 0.0279769152 0.0518035516 -0.0648887902 -0.0195615292 -0.0486847535 0.0654582903 -0.0591397062 0.0642399415 -0.0392049588 0.0381140187 -0.0570812076 0.0203773379 -0.0725480467 0.0724250004 -0.0338853896 0.0448504016 -0.0150278062 -0.0757199377 0.0362586752 -0.0204868764 -0.0633248016 0.0036992058 0.0287109986 -0.0134770498 0.0831455365 0.0665382370 -0.0141334459 0.0732408240 0.0143836886 -0.0477023683 0.0710116997 -0.0304324999 0.0006230250 0.0004161969 0.0197590068 0.0292383581 0.0734389201 0.0094681829 0.0822789147 -0.0027354285 0.0295508355 -0.0827414095 -0.0823651850 0.0085929111 -0.0243149102 -0.0429975800 -0.0389502235 0.0740754381 0.0509162024 0.0680311993 0.0708638057 0.0216827989 -0.0390845314 0.0362840593
0.0028476566 0.0414253846 0.0458615944 0.0413301215 -0.0678334758 0.0786189064 -0.0757425129 0.0246840194 0.0201063380 0.0303456038 -0.0256257728 0.0082191527 0.0468749329 0.0492152050 0.0063556209 -0.0578525923 -0.0688445345 0.0833643302 -0.0551416688 -0.0342530347 -0.0782739073 -0.0450405404 -0.0625667498 0.0015985668 0.0008051768 0.0165016875 -0.0385231972 -0.0491429642 0.0740920529 -0.0078799203 -0.0463567749 0.0695698932 -0.0649158433 -0.0602822490 -0.0501846895 0.0446886942 0.0400891975 0.0670510158 -0.0601852834 0.0553845093 -0.0037505627 -0.0567811877 0.0382533446 0.0317033082 -0.0141431689 0.0494884476 0.0768739507 0.0154005215 -0.0048065111 -0.0781712905 0.0203485563 -0.0592484251 -0.0532497987 -0.0266568884 -0.0364120118 0.0130423233 0.0276279002 0.0574778691 0.0129429474 -0.0460555926 -0.0298925862 -0.0382929705 0.0052436441 -0.0309303403
0.0821399912 0.0674601123 0.0801637098 0.0164725706 0.0798326209 0.0730346367 0.0112680942 0.0425902084 0.0754282102 -0.0577836037 -0.0455848649 0.0111678839 0.0164952949 0.0829551741 0.0050185695 0.0325310752 0.0320545509 -0.0607883707 0.0123368725 0.0529323742 -0.0425685868 -0.0707593411 0.0736589804 0.0552505478 0.0086069703 -0.0707748905 0.0439675823 -0.0073716938 0.0059667155 -0.0821650773 -0.0286979824 0.0785356238 -0.0762773380 0.0048117638 0.0010197461 0.0577174202 -0.0068800524 -0.0619068667 0.0282567590 0.0010606200 0.0538579449 -0.0109955892 0.0011196807 0.0422399119 -0.0435402431 0.0547353849 -0.0325790644 0.0444110259 -0.0612911433 0.0460617468 0.0507393405 0.0016578287 0.0086196214 0.0659189001 0.0144765824 0.0132206902 0.0836316273 0.0531721935 0.0505509898 -0.0731224194 -0.0441533551 0.0062813163 -0.0789403319 0.0729338899
-0.0419633128 -0.0548260882 0.0734047964 -0.0351579860 -0.0362328626 0.0198391452 -0.0556048155 0.0185687169 0.0039542392 0.0000694692 0.0735108331 -0.0583553053 0.0840078518 -0.0666107312 -0.0639146715 -0.0041370615 -0.0743399858 0.0375884250 -0.0622792840 -0.0687648952 -0.0155670792 -0.0078017265 0.0669159666 0.0744318292 -0.0401927382 -0.0679800957 -0.0732761398 0.0410967693 -0.0572919622 -0.0440906063 -0.0356334858 -0.0262491927 0.0155493319 -0.0152164623 0.0132374763 0.0071085170 0.0287985206 -0.0252319165 0.0634374693 0.0499660596 0.0339532346 -0.0595339052 0.0390894860 -0.0415957309 0.0127418786 -0.0547748469 -0.0301805325 -0.0357579067 0.0339960754 -0.0691342875 -0.0166452229 -0.0400892571 -0.0628523901 0.0290483981 -0.0123684034 -0.0388801917 -0.0222658142 -0.0434385836 -0.0443207547 -0.0234961361 -0.0497222468 0.0257367343 -0.0544655398 0.0038056746
-0.0383053236 -0.0207518563 -0.0637908280 0.0820475742 -0.0353166386 -0.0331627578 -0.0233817622 -0.0021850094 0.0017007664 -0.0139036551 -0.0328552984 -0.0128706768 0.0403973162 -0.0004259646 0.0805039629 0.0809094086 0.0351557210 0.0651132241 -0.0274230614 -0.0180594027 0.0250681862 0.0321518779 -0.0491400361 -0.0839230791 -0.0226885304 0.0004299954 -0.0149089172 0.0787473992 0.0654564574 0.0808612779 0.0660345331 0.0357820317 0.0763366446 -0.0245054103 0.0152199492 0.0588564798 0.0780310705 -0.0504983068 0.0220906362 0.0790431723 -0.0261156708 0.0055785552 -0.0449612625 0.0295471251 0.0824680701 -0.0633143112 0.0048852041 0.0417272970 0.0823554620 0.0178360343 -0.0253131762 -0.0369981118 -0.0654825568 0.0611701980 0.0633314624 -0.0261127613 -0.0338446610 -0.0237267241 0.0489386693 -0.0617607087 -0.0159933418 -0.0813369527 0.0411249176 0.0531877056
-0.0232152864 0.0588690117 0.0792378858 0.0571576580 -0.0028668940 -0.0254277326 -0.0098994970 -0.0672974512 -0.0506899282 0.0784661099 -0.0238615945 0.0585620329 -0.0535258353 0.0532160476 -0.0292622633 -0.0602051988 -0.0145595670 -0.0125024468 0.0702073351 0.0206870437 0.0415861830 -0.0711465403 0.0587067530 0.0369076431 -0.0605695546 -0.0181432143 -0.0805425867 0.0245295763 -0.0560045466 0.0270859599 -0.0038478076 0.0452666208 0.0105992928 0.0757728592 0.0416340008 -0.0780230016 0.0798180923 -0.0568683855 0.0689926371 -0.0271307640 -0.0808779448 0.0743501261 0.0152573287 -0.0763007775 0.0611292645 -0.0516790524 0.0627612248 -0.0585735813 0.0631271824 0.0214328170 0.0666003004 -0.0657063425 0.0391446576 -0.0313698798 -0.0239085816 0.0612129942 -0.0579712987 -0.0803403705 -0.0195421576 -0.0656712279 0.0782010928 -0.0707952827 0.0327381343 -0.0636576265
0.0202345103 -0.0546572097 0.0080995122 0.0912467390 -0.0107020140 0.0227201227 0.1349933296 -0.0390896872 0.0644435361 0.0573218651 0.0413420461 0.0363897271 0.0272727683 0.0757623687 0.1182420924 -0.0554082990 -0.1087825969 0.0712368265 -0.0367306620 -0.0788061321 0.0064806193 0.0609042458 0.0834747404 0.0410756692 -0.0498485975 -0.0588935241 -0.1353178471 0.0293489154 -0.0620088056 0.0808291882 -0.0593844503 -0.0153214717 -0.0182185844 0.0397465006 0.0345448330 0.0158823431 -0.0498189069 -0.0015248075 -0.0128748938 -0.0239297226 0.0104975915 -0.0381921530 -0.0544241555 0.0532898158 -0.0175267719 0.0251616165 -0.0349535085 0.0193424802 -0.0897955820 0.0742958114 0.0815919340 0.0823996812 0.0075621475 0.0514317565 -0.0474476181 -0.0646286607 0.1308287084 -0.0496317670 -0.1352420449 -0.0931059197 -0.0818999112 0.0543763861 -0.0143098300 -0.0409276262
0.0340522416 0.0549087375 -0.1207980514 0.1479517668 0.0138656721 0.0221342351 -0.0491963662 0.0409712866 -0.0257615410 -0.0360269174 0.1904910207 0.0774925873 0.0301213115 -0.0268131346 0.0415179655 0.0350362509 -0.0769487396 0.1154494733 -0.0494980812 -0.1882989109 -0.0083100572 0.0362499394 0.1601928025 0.0326457731 -0.0450369082 -0.0767586976 0.1839960665 0.0914360285 -0.1137977317 0.0182451904 -0.1623574793 0.0113243349 -0.0345197991 0.0680607781 -0.0073687658 -0.0264248736 0.1314019412 -0.0576733127 -0.1065636799 0.0419198535 -0.0529946685 -0.1692204773 0.0917367488 -0.0831398666 -0.0086731408 0.1161854863 -0.1021704897 -0.0403803065 -0.1060097069 0.0899835825 -0.0756825432 -0.0908712074 -0.0357866511 0.0174533557 -0.0494326353 0.0757709369 0.0719937310 -0.1024682671 -0.0487439670 -0.0379443839 -0.0690574571 0.1932501495 0.0242561549 0.0503377505
0.0565948561 -0.0596526638 -0.1980454177 0.2183735222 -0.0257714279 0.0891254693 0.0303189438 -0.0310377590 0.1330654472 0.0961359069 0.0219816417 0.0867589787 -0.0610431507 0.1663129926 0.1418246478 -0.1354434788 -0.1190931201 0.1472252011 -0.1483157724 -0.2380309701 -0.0008932427 -0.0453584269 0.0881880820 0.0414144285 -0.0495857075 0.0044399709 -0.0837738886 -0.0417509563 -0.1051717550 0.1216151267 0.0417254083 0.0298532266 -0.0902990028 0.1006546617 -0.2184704393 0.0709608570 0.0414764062 -0.1689367145 -0.0352912508 -0.0217385218 0.0612993911 -0.1149821281 -0.0541213378 -0.1273481548 -0.0175616201 0.0105528990 0.0374968946 -0.0110035418 -0.0288037192 -0.1023751050 0.0565156154 0.0220360681 0.1439536512 0.0715259016 0.0987655818 -0.0956478044 0.0300238803 -0.0636442900 -0.0786835924 0.0291366093 0.0933994204 0.1418913901 0.0314295441 -0.0527604595
0.1944072545 -0.0443423428 -0.0348499939 0.0825483575 0.0395666361 0.1200967804 0.1250330061 -0.1203275993 0.0171351898 0.0262319315 -0.1071035415 -0.0502088405 -0.1098631918 0.0864194632 0.0286393389 -0.1348441839 0.0139907785 0.0436674245 -0.0020863060 -0.0291394219 -0.0843186826 -0.1447948962 0.0579636171 0.0287079141 0.0135462238 0.0105757974 0.0288463607 -0.0267432965 0.0606057681 0.0409962274 0.0568907335 0.1158490330 -0.0579469912 0.0678347796 -0.0692246631 0.0606413446 -0.1202747300 -0.0132847158 0.0304496847 -0.0305927470 -0.0141060231 -0.1896507293 -0.0485631824 -0.1442142427 -0.0762416124 0.0183212720 0.0990100875 -0.0022434059 -0.0515361428 -0.0103849014 0.1280406415 0.0797452033 -0.0050329170 0.0531868823 0.0094585372 0.0892724097 0.0738282725 0.0811386406 -0.0167713482 0.0286380257 -0.0302880332 0.0314553082 0.0775591433 -0.0415197425
0.0677832142 -0.1077293232 -0.1004088148 0.1281185746 0.0510963090 0.1817544550 0.0692742839 -0.0481615290 0.1400536150 0.2481337786 -0.1923352778 -0.1834518611 -0.0561426543 -0.0158104505 0.1449903697 -0.1429040432 -0.0394897722 0.0630703270 -0.1352941394 -0.2678173482 -0.1666423380 -0.0639666244 0.0196260568 -0.0278705619 0.1142783090 -0.1027699560 -0.0859190673 -0.1439021975 0.0554203503 0.1381637603 -0.0341219939 0.0639406219 0.0982818455 -0.1880803108 -0.0089407060 0.0551962033 -0.0264502037 -0.0380485170 0.2324194014 0.0142158782 0.0190090239 -0.2613101304 -0.0656818300 -0.1470881850 0.0342072956 -0.1075441167 0.2444343865 -0.0210072324 -0.0008718806 -0.0316628069 0.2152571827 0.0124522364 0.0712909997 0.0187470466 0.2676217556 0.0553707182 0.1288945526 0.0921978354 -0.1455158740 -0.0490082279 0.0078082010 0.2225160599 -0.1026539281 -0.0682973489
0.1756428629 -0.1544915736 -0.1539807022 0.2110916078 -0.0225518700 0.2398025542 0.1226543561 -0.0703937858 0.2263294011 0.2683001459 -0.2041954100 -0.1609529406 -0.0688847825 0.0536925085 0.2214793712 -0.1589662433 -0.1102118716 0.0002099367 -0.2631372809 -0.3185403347 -0.0815376192 0.0283958036 0.0359770693 0.0205431543 -0.0737885162 -0.1764027476 -0.2107789367 -0.0371394679 0.0437101163 0.0961467475 0.0017730154 0.0678139701 -0.0007680586 -0.2293814719 0.0083959252 -0.1937719136 -0.0226207040 -0.1418087035 0.2068410367 0.0562342070 0.0540685467 -0.1939004362 -0.0082444930 -0.1291464120 0.0631437898 -0.2402406782 0.2557365298 0.0138799455 -0.1305665821 -0.0148757398 0.2041770816 0.1410906762 0.0264587384 0.0795428455 0.3044445217 -0.0261214767 0.1825922281 0.1141711250 -0.1983676255 -0.1066283956 -0.1074474305 0.2128760815 0.1183115095 0.0436603948
-0.0142559726 -0.3661164939 -0.1043976992 0.2762208879 -0.0371891819 0.3635919988 0.2409929037 -0.0429681316 0.3167984188 0.2729968429 -0.2094268650 -0.1233269423 -0.0025915173 -0.0314620286 0.1872530133 0.0458499752 0.0067832768 -0.1142532378 -0.2482492477 -0.1862671524 -0.0991360471 -0.0712887347 0.1669676006 0.0445663854 -0.0619035773 0.0719615147 -0.2192439288 -0.0404963084 0.0151130930 0.1514513344 0.0356022231 0.1014791504 0.0599498823 -0.0754345953 0.0139954686 -0.0087203067 -0.0921290144 -0.2240658402 0.2354123294 -0.0044199210 0.1034982204 -0.1972527355 -0.1228594854 -0.2004854530 0.1192940995 -0.0195401814 0.2237733901 0.0183577966 -0.1142897904 -0.0514001660 0.3621275127 -0.0625086352 0.0002467434 0.0969013050 0.2878694534 0.0389356650 -0.0531751327 0.0109215006 -0.2941339314 -0.0687011108 0.0558241792 0.1697666347 0.0664877072 0.0328166187
-0.1263046712 -0.2360675335 -0.1552349627 0.0713498592 -0.1532745510 0.2180224955 0.0379627906 -0.1983654350 0.1428650916 0.2645632625 -0.1350679696 -0.2722236216 0.1490026265 -0.1444996148 0.1846756190 0.0632178113 0.1620988399 0.0451816618 -0.1893307269 -0.1671667248 -0.3449299037 -0.0785626322 0.1389783323 0.0034925858 -0.0097514400 0.1387886852 -0.2134040445 -0.0533096641 -0.0192257687 -0.0283086617 0.2219508290 0.0132941278 -0.0801737234 -0.0776644424 0.0822764039 0.1025649905 -0.1510268748 -0.1783466339 0.2860836089 -0.0526289940 0.0690608099 -0.4049778283 -0.1026843414 -0.1736629903 0.1319372207 0.1686449945 0.0671601444 -0.0266369805 -0.0717007518 -0.1504323035 0.2455584556 -0.0195416808 0.0390921757 -0.0577454418 0.2364455462 0.0214668270 -0.0950357467 -0.0693242475 -0.3492655754 -0.0158933718 -0.1110205278 0.1000960767 0.0720203668 0.0753461719
-0.0230392311 -0.2768846154 -0.1776265651 0.1256667376 -0.2235219181 0.3071519434 0.2786680758 -0.0869546235 0.2554780841 0.3139252961 -0.2051755339 -0.1946469396 0.0782162771 -0.0171082076 0.2056130916 0.0041616075 0.0849969536 -0.1321461797 -0.2640842795 -0.2541928291 -0.2490845025 -0.0887460932 0.2578369677 0.1417900026 -0.0090576308 0.0885174572 -0.2650497258 -0.0306206513 -0.1162082180 0.0372052267 0.1664982587 0.1137548611 -0.0581051186 -0.0880508944 0.0896203592 0.0479383767 0.0422287099 -0.0194750819 0.4246196449 -0.0484582558 0.0793678090 -0.3553767204 -0.1338042915 -0.2480829656 0.1765286177 0.1960134059 0.0729332641 -0.0721020028 -0.1214010492 -0.0378488749 0.3165718019 -0.0132953366 0.0481167212 0.0488009639 0.3019379973 0.0162077006 -0.2185633481 0.0628474429 -0.3166048229 -0.1002993360 -0.1173004806 0.2577129900 0.0268738922 0.1451450735
-0.0114123430 -0.4703725278 -0.2218142450 0.2855273783 -0.0628672615 0.2468501180 0.2800295055 0.0359984301 0.2103827596 0.2877546251 -0.3384198844 -0.1037908494 0.0886032730 0.0370866284 0.2059519142 -0.1544593126 0.0565035045 -0.2728744745 -0.3624974191 -0.2235661745 -0.1673161238 -0.0519503839 0.0427767411 -0.0689325407 0.0676830634 0.1576941758 -0.2789467275 -0.2190835178 -0.1286620796 0.2410425544 0.1030056253 0.2869759798 -0.0866794959 -0.2482911199 0.1054444909 -0.1278639138 0.0221645311 -0.0812221542 0.3669217825 -0.1586797982 0.1217826754 -0.2859786153 -0.1824537069 -0.0225661602 0.0454925001 0.2004784346 0.1935125887 0.0833344162 0.1042968705 0.0953412130 0.2790134549 0.0528584942 -0.1151951328 0.0409085974 0.1972278953 -0.0087788440 -0.0288952179 -0.0936697498 -0.2831334770 0.0635606870 -0.0907415077 0.1927558929 0.0318144821 0.1148197055
-0.0340178609 -0.1777862906 -0.2102483809 0.1911723614 -0.0756559372 0.2100227624 0.0653712824 0.1355607510 0.0585336871 0.3174199760 -0.0193245020 0.0509318002 0.2538334429 -0.0507628210 0.1371718645 -0.0560579486 -0.0285729710 -0.2124410719 -0.1407319903 -0.0791491196 -0.0795216635 -0.1569515318 0.0646910816 0.0142109292 -0.0213589724 0.1008286700 -0.3271709681 -0.1397281885 -0.0658806413 0.0957464054 0.0207065493 0.3323337734 0.0245685466 -0.1548553407 -0.0027741836 -0.0927892178 0.0303454883 0.0786467120 0.1351225525 -0.0609072186 0.1550960988 -0.2880809009 -0.1182176322 -0.1132435575 0.0430634581 0.1668803990 0.4022520483 -0.1638614386 -0.0218857881 0.0039177779 0.2521554530 0.0578078851 -0.2157551497 -0.0320563205 0.2468022406 -0.0715819448 -0.1044122204 0.0311156716 -0.1600051373 0.0267755277 -0.1306277663 0.0567418709 -0.0424244106 0.0870550275
0.1048377529 -0.1763351858 -0.3089244962 0.0506193303 -0.1413334310 0.1844446361 0.0288354754 0.1047717109 0.2544713318 0.2235269397 -0.1565532684 0.1080868393 0.1656217575 0.1059433445 0.0617641732 0.0656177849 0.0327448659 -0.4094220102 -0.1628257036 -0.1084599420 -0.1980235279 -0.1823956817 0.1691772193 -0.0890672281 -0.0509863980 -0.0144500621 -0.2668464184 0.0114883203 -0.2482447773 -0.0212262198 0.0435539484 0.2276210487 -0.1475878805 -0.1745964289 -0.0236984100 -0.1652025133 -0.1149305254 0.0633177683 0.1573797017 -0.0751055181 0.0178935826 -0.0874033496 0.0449046977 0.0636914074 -0.0580138676 -0.0595993251 0.4255729020 -0.2161533237 -0.0818665251 -0.0583217964 -0.0137882279 0.1101662368 0.0207487345 -0.0431634709 0.1749128997 0.1254833788 0.1461946070 0.0599515066 -0.1717500985 -0.0632582977 -0.4222488701 -0.1855532378 -0.0689472184 0.1133733094
-0.1055960506 -0.1068498194 -0.2120082527 0.1623429805 -0.2324237525 0.1996016055 0.0904719830 0.0351318344 0.3720757365 0.1668849885 -0.1929202527 0.1785724163 0.1618874520 -0.0638236776 0.1168046445 -0.1700750887 0.0062333196 -0.3194848895 -0.0342257321 -0.1496472955 -0.1974588186 -0.2133137733 0.1695095152 0.0254167579 0.0762162954 0.0422375947 -0.2324203104 -0.0533108041 -0.2078556567 -0.0086276326 0.2374406159 0.1136052907 0.0727815107 -0.2855283022 0.0388633348 -0.0540405139 -0.1550671011 0.0273562204 0.3152185082 -0.0033761447 0.2033790052 -0.2107514441 -0.1146929488 0.0574712753 -0.0712671578 0.1322248429 0.2959351540 -0.2457804233 0.0404799096 0.0114974892 0.1026991010 0.2031206638 -0.0530256853 0.0538747758 0.1766115725 0.3012470305 0.1298846006 0.0055444608 -0.3648640513 -0.0180584844 -0.2413211018 -0.1115764156 -0.1478983462 0.0065626898
-0.1104703099 -0.3349653780 -0.0471959785 0.0704234391 0.1295099705 0.1447073370 0.1558051258 0.0058198017 0.4342802465 0.2395484746 -0.1777807623 0.1584411860 0.1327940077 -0.0142767392 -0.0109903775 -0.0365465283 -0.0178644229 -0.1488247961 -0.1391748041 -0.1411447674 -0.0353095382 -0.2704524994 0.2094566673 -0.1454306692 -0.1356359124 -0.0557013862 -0.1789253652 -0.0465628058 -0.2200316042 0.0446309000 0.0917887762 0.0501290001 -0.2028307766 0.0757841617 -0.0887165368 0.0915952995 -0.2367882133 0.2694944441 0.1036403626 -0.1299655437 0.2948788404 0.0990964547 0.0932423621 0.1537045389 -0.1698925942 -0.0097567542 0.1596476585 -0.0546108596 -0.0019707468 -0.1692471355 -0.0369144343 0.2427370548 0.0265862085 0.1007059216 0.3062651753 0.2166597396 0.4283000827 0.0948456824 -0.3073839545 -0.0765577480 0.1207746267 -0.2658984959 -0.2168473154 -0.1013857797
0.1385531873 -0.2851496637 -0.1283514500 0.1502169967 0.1451814622 0.0718071610 0.1892793328 -0.0041073901 0.1324604750 0.2749230564 -0.2004277110 0.2300146520 0.1431717426 0.1054112464 -0.0546740033 -0.0927827433 -0.0580179915 -0.0481603444 -0.1423658878 -0.0249922499 0.1702670604 -0.1753858626 0.0174368285 -0.1059652418 -0.1139980406 -0.1265100092 -0.1437923312 -0.0449878275 -0.1992951781 0.0820874795 0.0139518306 -0.0508666374 -0.0575393513 0.1998556852 -0.1614089757 0.0682422295 -0.1507145613 0.1228331476 0.1485126913 -0.1023907065 0.2933205366 0.0697888806 0.0961317122 0.0867930576 -0.1873503625 -0.1568303108 -0.0503644310 -0.0476036295 -0.0689087138 -0.1755159497 -0.0074031004 0.1891091317 0.1450573802 0.2986378670 0.2299021333 0.4050714970 0.3757854104 0.2429385185 -0.1534421742 -0.1343689114 0.0242025126 -0.0561407916 -0.0990248844 -0.0124238767
0.1445860118 -0.3055076003 0.0909884050 -0.0278492868 0.0162119865 0.2321500033 0.2402525246 -0.1855536550 0.1398731619 0.0665000454 -0.1141455323 0.0317818969 -0.1451439857 0.2268260568 0.1153058484 -0.1652576476 -0.1168526933 -0.0456182882 -0.1737887263 -0.1438291818 0.0883892700 -0.0917655826 -0.0721926540 0.0409705564 -0.0250692442 -0.0846782625 -0.0344088301 -0.0856783986 -0.0906322524 0.0703857467 -0.1110002175 -0.0526340120 -0.0291371346 0.2528598309 -0.0674772486 0.0351679921 -0.1367989331 0.0259894151 0.1532961130 -0.0800111592 0.2061332613 -0.0334131643 -0.0239170697 0.0927676782 -0.2846631110 -0.0950149745 -0.2099255919 0.0846337453 0.1532973498 -0.2538970113 0.0220626369 0.1478136182 0.2146491557 0.1219415963 0.1224568933 0.1942889839 0.3849675059 0.1878414154 -0.1568364501 -0.1242634133 -0.1797530055 0.0229072161 -0.2638309896 -0.0217830203
0.1852961928 -0.1645579338 0.1071398482 0.0700193718 0.0023385922 0.2259687632 0.2004269809 -0.1565199643 0.1784523576 0.0544518456 -0.1301133037 -0.0604456477 -0.2012175769 0.1308141202 0.1062875167 -0.0383690968 -0.0416889675 0.0801417530 -0.0883376300 -0.0431706049 -0.1418474168 -0.2334436923 -0.0884137228 0.0792537928 -0.0620879121 -0.1389791816 -0.1392825097 -0.0630678833 0.1627453715 0.0127762966 -0.1606681943 -0.1704117656 0.1151453704 0.1849328876 0.0757504404 0.1786234975 -0.0086862361 -0.0600454099 0.1589664966 -0.0936311707 0.0760622546 0.0731909573 0.1199153513 0.0870356634 -0.1421082616 -0.0971087292 -0.0347475186 0.1989180893 0.1741522253 -0.0096666552 0.0400663689 0.0154994512 0.2901845276 0.1560865194 0.0576382205 0.1806553602 0.3237121701 0.2593041062 -0.2983562052 -0.0029188050 -0.0594580844 0.1771431267 -0.0003069553 0.0150685254
0.1137159318 -0.2565228045 0.0410296358 -0.0095712654 0.0517692938 0.0558468029 0.1927555203 -0.0590871871 -0.1118032858 0.1474505365 -0.2448184639 -0.3614897728 -0.1539661884 0.2447536290 0.0628985763 -0.0995773971 -0.2437486500 0.1286845803 -0.0045400793 -0.0669915006 0.1355228424 -0.2886261642 -0.0996368155 0.0340130404 -0.1004538313 -0.1413814723 -0.1119497940 -0.1156229377 0.0670438260 0.1529898494 0.0074653956 0.0779846460 0.0348671898 0.2105035931 0.0437017530 0.0829611570 -0.2351967543 -0.0168156400 0.0223816093 -0.0922721475 0.0855681598 0.0413540043 0.1129875183 0.0366254374 -0.0860746354 -0.2244616896 0.0725108236 0.1017812639 0.0219959170 -0.1653973460 -0.1400832087 0.0612723753 0.2616965473 0.1992244720 0.2137824893 0.0674864054 0.3002097607 0.3278592527 -0.4667882025 0.0489909574 0.0811026543 0.0660076812 0.0233379677 -0.0750491470
0.0312224962 -0.1275449842 0.0726641640 0.0093237404 0.0960548073 0.1406535059 0.2119067609 -0.0655022487 -0.0033930191 0.0896637365 -0.2109909058 -0.4358097613 -0.1615621299 0.0528182574 0.0197755415 -0.0165229309 -0.1321566105 0.1107587069 -0.0748877078 -0.1383289695 0.1322330683 -0.1424941123 -0.0769956931 -0.0200140718 0.0999805331 -0.0856565684 -0.1496089995 -0.1632575989 -0.0807699114 0.0515774153 0.1245684475 0.1342166215 -0.0167490188 0.1765799224 -0.0454419963 0.1324224025 -0.1619805992 -0.0758141205 0.1259294003 -0.1825220138 0.1057103127 -0.0107328501 -0.0094001181 0.0185699090 0.0010946876 -0.0717900470 -0.1412647814 0.0391450226 0.1044588387 -0.2780452371 -0.0060410700 0.0267302915 0.0408580229 0.3221465945 0.2158886045 -0.1716677994 0.1956503540 0.1197254062 -0.3711220622 0.0671365410 0.0809560493 -0.0448205397 -0.0035191625 0.0161496513
-0.0112380031 -0.1010413542 0.0020151900 0.1945063323 -0.0364911854 -0.0239664782 0.0981049091 -0.2017894983 0.0635655671 0.2015499473 -0.0839056149 -0.4116764367 -0.2337748706 0.1264360100 0.1480147243 -0.0511443429 -0.0728799254 0.1919374913 0.0183104668 -0.1497653425 0.0324619673 -0.2079799622 0.0953222066 -0.1109948009 0.1415161192 -0.0058025131 -0.2277084589 -0.1290816367 -0.0498171002 0.2306820899 0.0342454948 0.1335803866 -0.1013603061 0.0823362842 0.0351728313 -0.0235235784 -0.1324019581 -0.0611939989 0.1704803407 -0.0941479728 0.1509920657 -0.2345248908 -0.0391656421 0.0620961525 -0.0286529083 0.1286716163 -0.0679221302 0.0306459796 0.1291647851 -0.2457595766 0.1508209854 0.0472583845 0.1477076411 0.3743338585 0.1374889314 -0.2117560506 0.0564845055 -0.0326341987 -0.3178740740 0.0560578480 0.1132720932 0.0637269467 0.0489711985 0.0524930097
0.1334713399 -0.0818135515 -0.1881871670 0.2240892649 -0.0979323983 0.0289673340 0.1961735189 -0.0702101514 0.1365180910 0.1249677390 -0.1932962686 -0.1934921592 -0.0732433870 0.2678647637 0.1853779554 -0.0513857529 -0.2098166794 0.1402722895 -0.0738243461 -0.0768653154 0.0256977566 -0.1254927367 -0.0290499628 -0.0657088906 0.0429885797 -0.0709919557 -0.1899150014 -0.2227322459 -0.0827569067 0.2357302606 -0.0051809866 0.1253972948 -0.0401603952 0.1897189468 -0.0674919710 -0.0739817172 -0.1446000338 -0.1542799622 0.2236899287 -0.0997322351 0.1515970379 -0.1961066574 -0.0927430093 0.0396339446 -0.0415393859 -0.0906014219 0.1054736748 0.0093581788 -0.0318160914 -0.2193640918 0.1165472865 0.1138546988 0.1117651090 0.2686159909 0.1198165789 -0.1599418968 0.1565246880 0.0546052009 -0.1564757675 0.1156240255 0.0034954620 0.1553357989 0.0500098243 -0.0254431013
0.0853236243 -0.2411305457 -0.2037719488 0.1582982540 0.0588778295 0.1001092643 0.2005895227 -0.1129649058 0.1819079667 0.3002402484 -0.1142944619 -0.0271822959 -0.0563275889 0.2003526390 0.2149561197 -0.0237307400 -0.2263605148 0.0892245844 -0.3206726015 -0.2513669729 -0.1304266453 -0.1039274633 -0.0297940411 0.0244202614 0.0822513849 -0.0288742632 -0.1399751157 -0.1788669080 -0.1793942451 0.2574940026 -0.0530360416 0.1399268806 0.0734906793 0.2979889810 -0.0028562257 -0.0500889719 -0.1041728035 -0.1443353742 0.1755689681 -0.1127742156 0.1354511082 -0.3035134375 -0.0233149957 -0.1089721099 -0.0940716192 -0.1539544612 0.0873077288 -0.0898773521 -0.0770657659 -0.1876243204 0.2481767684 -0.0282656439 0.1586439908 0.3260432780 0.0793448165 -0.0550641939 0.1318395585 0.0890209153 -0.2864068747 0.0903011113 0.0099909641 0.1798028499 0.0540993512 -0.0574490987
-0.0506882370 0.0119751142 0.0264523737 0.0231293291 -0.0624898151 0.0619391426 0.0485484339 0.0286730211 -0.0448663272 0.0806427523 -0.0165403541 0.0623367131 0.0534135140 -0.0488710217 -0.0736759454 0.0309644174 0.1281130016 -0.1365207136 -0.0323869400 -0.0837321207 -0.0165290218 0.1192276105 0.1447101831 0.0231244061 0.0028090982 0.0217750166 -0.0381177440 0.0311962776 -0.0156404451 -0.0685303509 0.1450936198 0.0656863004 -0.0368684232 0.0361097567 -0.0834350809 -0.0769188702 -0.0484788567 -0.0008226429 0.1189986244 0.0165740307 0.0016960326 -0.0429020971 0.0590487793 -0.0600004680 -0.0209143069 0.0063963942 -0.0640150905 -0.1036815718 -0.0150389038 -0.1210175976 0.1362287402 -0.0203536637 -0.0762243420 -0.0168022104 0.1458001435 -0.0213307310 0.0522612892 -0.0134641342 -0.1420565993 -0.0028854446 -0.1421236843 0.0256052520 -0.0179844722 0.0410539545
-0.0348551981 -0.0050912965 0.0196185783 -0.0397842005 0.0614503697 0.0891134068 -0.1144843996 0.0352188647 0.0597200319 0.1204742938 0.0631056502 -0.0033572807 0.0615993142 0.0057108146 0.0140257757 0.0507821143 0.0533370078 0.0058492119 0.0996368900 0.0775903091 -0.0266478248 -0.0321419537 0.1341962665 0.0483924039 -0.0885498449 0.0463471040 -0.0276654996 0.1153011322 0.0441366062 -0.0079714069 0.1377277523 0.0483852737 -0.1276580989 0.0135916518 0.0073100724 0.0640993938 -0.0156209357 -0.0030502158 0.0798001289 0.1155619845 -0.0824793279 -0.0216895360 -0.0044152518 -0.0669047609 -0.0362760946 0.0036319408 -0.0041352385 -0.0151800467 -0.0404690467 -0.0902703851 0.0055354466 0.0299938619 0.0041708108 -0.0438876227 0.0261073932 0.0479462110 -0.0729766861 0.0537837334 -0.0900159404 -0.0371897221 0.0017560739 -0.0712603331 0.0768333003 0.0350179784
-0.0274913870 0.0774143413 -0.0784001574 -0.0170824379 -0.0155958757 -0.0554475039 0.0083519518 -0.0788528696 0.0677903220 -0.0539871976 0.0421046242 0.0301690027 -0.0255507864 -0.0097007975 0.0124301538 0.0449913219 0.0515094921 -0.0462346189 0.0371556655 -0.0519025028 -0.0427023731 -0.0194173977 -0.0233168267 -0.0250351988 0.0223315507 -0.0587838739 -0.0331989154 -0.0369226076 -0.0365583301 0.0706542358 0.0638286993 -0.0420442373 -0.0288537294 0.0567112342 -0.0503478162 -0.0627268851 -0.0170961767 0.0295844823 -0.0325691551 0.0361763313 0.0557501689 -0.0089866668 0.0041880757 0.0075903088 0.0370555520 0.0200606734 0.0233376026 0.0536479875 -0.0836782679 -0.0174412802 -0.0278700814 0.0278140455 0.0431114659 -0.0393104292 -0.0574722514 -0.0417437330 0.0587502047 0.0007720888 0.0449376032 0.0629098639 -0.0111043081 -0.0161274299 -0.0513246022 -0.0121125430
0.0492176339 -0.0486370809 0.0369672254 0.0674284622 -0.0595794097 -0.0448153242 0.0427091345 0.0269393027 0.0360879898 -0.0782764554 -0.0803848952 -0.0233150013 -0.0508983396 0.0766196325 -0.0265541263 -0.0052499026 0.0376417115 -0.0007066876 0.0812359527 0.0449066982 0.0497236326 0.0037172958 0.0405803770 0.0774932131 0.0271511003 -0.0144859850 -0.0211085975 -0.0786803365 0.0357689559 -0.0090959072 0.0022998825 -0.0634200573 0.0562667772 -0.0049708560 0.0070148408 0.0249910951 -0.0284997411 0.0157522261 -0.0220949464 0.0054897740 -0.0414857082 -0.0655885637 -0.0139767975 0.0750312731 0.0273320302 -0.0170831606 -0.0071485415 -0.0516686440 -0.0733866990 0.0224286020 -0.0156681538 0.0612410828 0.0545814410 0.0821069852 0.0118559450 -0.0461253226 -0.0008883253 -0.0697597936 0.0034779608 0.0761517957 0.0115850642 -0.0096397325 0.0182060674 -0.0780583397
0.0385580361 -0.0650983006 -0.0123688206 -0.0341340713 0.0649035051 0.0764962211 0.0535400882 0.0686160251 -0.0782357082 0.0205134451 -0.0224995315 -0.0761409849 -0.0697339475 0.0129369572 0.0106514320 -0.0259698927 0.0137826651 0.0192713141 -0.0432458967 -0.0732418075 0.0124277845 0.0294262916 0.0525892004 0.0220595747 0.0669224635 0.0091515183 -0.0719751418 -0.0034494400 -0.0599344969 0.0817829892 -0.0483511016 0.0446825549 -0.0546645448 -0.0571190901 0.0755582675 0.0833171830 0.0237279311 0.0139657483 -0.0009663776 0.0670612827 0.0285006240 0.0606827810 -0.0744459331 0.0060625151 0.0689738020 0.0680968389 -0.0044115484 -0.0789239630 -0.0576208979 0.0230655223 -0.0788713247 -0.0502329618 0.0044915676 -0.0795483291 -0.0511293896 0.0648764744 -0.0632539093 0.0011871010 -0.0675642788 -0.0056945309 0.0390383452 0.0587827489 -0.0699514598 -0.0488375910
0.0454400852 0.0273143426 0.0709528998 -0.0310868286 -0.0516730957 0.0489178672 0.0320830271 -0.0821819827 -0.0381050557 -0.0552418418 0.0440426096 -0.0284564644 0.0819444582 0.0551781282 0.0811843947 0.0095011517 0.0520846173 -0.0347774290 -0.0637489408 -0.0109367296 0.0537611023 -0.0535053983 0.0055815428 -0.0529393926 -0.0217332803 -0.0393015258 0.0625540540 0.0443433598 0.0054783821 0.0164692402 -0.0338847712 0.0645804480 0.0395473540 -0.0104563385 0.0683951750 -0.0502115414 0.0414023176 -0.0551248640 0.0088870153 0.0642281994 0.0057398751 0.0267657489 -0.0066582486 0.0124703422 0.0372782797 -0.0169391260 0.0551663563 -0.0015401691 -0.0044073388 -0.0291438811 0.0723584369 -0.0512779355 -0.0002171695 -0.0813619271 0.0190284550 -0.0291762091 0.0771634504 -0.0839296579 -0.0625234097 -0.0186312273 0.0470600948 -0.0490953326 0.0074002743 -0.0692706779
-0.0024575307 -0.0435522273 0.0757176653 0.1005577222 -0.0272726770 0.0577729940 0.0988250151 0.0759373829 -0.0710006803 0.1390074193 -0.0102849398 -0.0609876849 -0.0626501665 0.0751525015 0.1103737652 0.0507167652 -0.0651116371 0.0583214387 -0.0867667198 -0.1571452320 0.0169954784 0.0268466063 0.0475640744 0.0668411478 0.0430267192 -0.0346184485 -0.1199847013 -0.0244424753 -0.0656462014 0.0052267481 -0.0393035449 0.0901840702 0.0674464256 -0.0237604566 0.0010412080 0.0460651144 -0.0579550564 -0.0395800397 0.0704473108 0.0167992916 0.0491666272 -0.0634524152 0.1167859882 -0.0082474612 0.0340695977 -0.0725162700 0.0333151333 -0.0504964180 0.0149551323 -0.0500483029 0.1043838933 0.0991524383 0.0776288360 0.0800134093 0.1097993031 0.0786381215 0.1202560961 -0.0203554183 -0.0575782321 -0.0190940239 -0.0745375827 0.1562478691 -0.0296855886 -0.0397488885
0.0754248127 -0.0065875077 -0.2004707903 0.0862727240 0.0073482916 0.0079690423 0.0845364332 0.0787533447 0.0872826949 0.1210509241 0.1231068596 0.1170513928 0.0518466234 0.1882325709 0.1143448502 -0.0418314151 -0.1942174137 0.1387188435 0.0008847453 -0.1540028751 0.0289333686 0.0827399939 0.2092222124 0.0041264854 -0.0678948388 -0.1200009584 0.0172768440 0.1729203612 -0.1091549620 0.1294934750 -0.1123922169 -0.0583164617 -0.0383094847 -0.0541913807 0.0538895838 -0.0603377223 0.1407822371 -0.0923577473 -0.0278552305 0.0493882410 -0.0745453387 -0.2050801218 0.0658917353 0.0405356959 -0.0340280496 0.1049980447 -0.0091129225 0.0466246940 -0.0924312994 0.0844355822 -0.0147606945 -0.1462040991 0.1256447881 0.1553155929 0.1080982164 -0.0671151280 -0.0078682974 -0.2042771429 -0.0831725448 -0.0961818174 0.0018264933 0.2107369751 0.0773551241 -0.0434713289
0.1181503609 -0.1015369520 -0.0143283559 0.0718065128 0.1338848919 0.0359836146 0.0098619778 0.0007703088 0.0609949529 0.0861591324 0.0287302956 0.1714424789 -0.0535812788 -0.0213659871 0.1693672538 -0.0112802619 -0.2133436203 0.0601009689 -0.1418950856 -0.0387794301 0.0033035916 0.0064914608 0.1463924050 -0.0548722483 -0.0111267166 -0.0663444325 -0.0758704245 -0.0035426884 -0.1126623079 0.0971215144 0.0953745395 0.0995339677 -0.1157483980 -0.0115334420 -0.1071509644 0.0372800007 0.0013310260 -0.0837840140 0.1116218492 0.0911032632 0.0345087834 -0.1134292707 -0.0186769851 -0.0399165303 -0.0790432394 0.1141323224 -0.0408313796 -0.0374637283 0.0184005052 -0.0299111400 0.0717372522 0.0040808120 0.0656650215 0.1417577863 0.1937596947 0.0568759553 0.0273154620 -0.0374224000 -0.0362808332 -0.0102314213 -0.0261129010 0.2150075138 0.0952590331 -0.0972146615
-0.0141007053 -0.0381728858 -0.1214390323 0.1872396022 0.0923510417 -0.1665369272 0.1778822541 -0.1214910373 0.0633400232 0.2028607130 -0.2303453684 -0.2203754783 0.0090104342 -0.0600271262 0.0758235827 -0.1109359413 -0.1163420007 -0.0026291476 0.0119099868 0.0105153006 -0.1721127182 -0.0997637212 -0.0722252056 0.1147049516 0.1818745434 -0.1310529411 -0.1476551145 -0.1301198304 -0.1023592502 0.1297845393 -0.0012989083 0.0070402985 -0.1143814474 -0.0711932555 0.0323704407 0.1067892238 -0.0208851993 0.1565639973 0.2227333486 0.0537477918 0.1847957373 0.1122584119 -0.1041515544 -0.0249649268 -0.0281169806 0.0722819194 -0.0254413914 -0.1213024408 0.0389052890 -0.0626581460 0.0694435835 0.2055586874 -0.0569947772 -0.1003674790 0.1145192012 -0.0444807298 -0.0116914073 0.1070179194 -0.1579314768 -0.0892202407 0.0470588468 -0.1462659687 -0.1346784830 0.1067247316
0.1629510671 -0.1101634204 -0.2249911129 0.1231518462 0.0523457192 0.0647983477 0.2466813177 -0.1237144396 0.2608696520 0.1862188727 -0.3536457121 -0.0759768933 -0.0172927752 0.0711760819 0.0667195618 -0.0226585940 -0.0111458572 0.0883068964 -0.0489932969 -0.2266931236 -0.1668978184 -0.1137237325 -0.0654197037 -0.0016292839 0.1275862157 -0.1053223535 -0.2251591086 -0.2134809643 0.0230438821 0.1695799232 -0.0526887774 0.1054720059 -0.0435917675 -0.0911680534 0.1014239788 0.1355970949 0.0114751179 0.0190363694 0.2959008813 0.0603302419 0.0816993639 -0.0274968185 -0.1793649495 -0.0174325276 0.0262553263 -0.0086664977 0.1727821529 -0.0271803252 -0.0464810096 -0.1188597605 0.1778365970 0.1843404174 -0.0216745660 0.0554634966 0.1071247682 -0.0338424928 -0.1046386883 0.0644446835 -0.2885464728 -0.0247892775 -0.0996704027 0.0365484729 -0.0926468894 0.1135757938
0.1227743924 -0.2278300226 -0.2480739355 0.2024724782 0.1239926815 -0.0154904881 0.0993508995 -0.0701065585 0.0942155719 0.0000358366 -0.1739338189 -0.0176310241 -0.1189618185 -0.0558233634 0.0541868098 -0.0271144677 0.0686867759 0.1013999283 -0.0282334127 -0.1396767646 -0.1432389319 -0.0895327628 -0.0613849983 -0.0084662270 0.1483790576 -0.1002603397 -0.1344707012 -0.1653842926 -0.1342387497 0.1494804770 0.0395641625 0.1962198466 -0.0701093301 -0.0018065396 0.1828723848 0.1394844502 -0.1226376519 -0.0001655931 0.2023645341 0.0244401768 0.1551664323 -0.1126906425 -0.1181539968 -0.0773424730 0.1612065583 0.0717662722 0.1981217563 -0.0118737631 -0.0745561346 -0.0451178439 0.1416638047 0.0150527898 -0.1952112019 0.0006331321 0.0567749739 -0.0761905834 -0.0889757425 0.1554367393 -0.3215331137 -0.0262937583 0.0143890586 -0.0408316292 -0.0939904079 0.0801807344
0.1208601072 -0.2427426279 -0.3089946806 0.2450338155 -0.0719093457 0.1276646554 0.1937753558 -0.0768715218 -0.1003888100 0.2803318799 -0.0154381059 -0.1141389459 0.0960248634 0.0296170134 0.1913416088 -0.1463390738 -0.0517719127 -0.3028686941 -0.1579006612 -0.0938286632 -0.1084255353 -0.0981256440 -0.1246019304 0.0507792532 0.0994820222 -0.1528085172 -0.2117769420 -0.1449185461 -0.2855979800 0.2582905293 -0.1436909884 0.0236732811 -0.2028086931 -0.0208251961 0.2134237587 -0.0121242693 -0.1032957882 -0.0593637675 0.0480403416 0.0279760491 0.1241603270 -0.1680128127 -0.0465449244 -0.2318563312 0.1805534810 -0.0101353694 0.2901977897 -0.1411094815 -0.1250810474 -0.1416441649 0.1843515486 -0.0289769024 -0.1595165581 -0.0124419061 0.2237341553 -0.0862000659 -0.1039456278 0.2251244783 -0.2869606316 -0.1512399465 -0.2731051743 -0.0274083130 -0.1480360031 0.1435407698
0.1278125793 -0.2657352686 -0.2779670656 0.0995242521 -0.1196312308 0.2813157141 0.0673031136 -0.0873428360 0.0792020485 0.2063742876 -0.0359319784 0.0226001609 0.2056077123 -0.0581195727 0.1317321807 -0.1274707913 0.0749983937 -0.3108235002 -0.0585641786 -0.1962885559 -0.2994956970 -0.0224977769 0.0087456712 0.0698477626 -0.0750117972 0.0729832798 -0.2353455424 0.0235142782 -0.1790366024 0.0884273648 -0.0971812382 0.1877309233 0.0982581377 -0.0176873468 0.3523265421 0.0489549376 -0.1294414848 -0.1521252692 0.1775874048 0.0740337670 0.0057330220 -0.1580325216 -0.0280563608 -0.2151738107 0.2365255356 0.0554579720 0.0015832875 -0.2775782943 -0.2717528939 -0.1340447664 0.1444596350 -0.1300176829 -0.1424534023 -0.2605811954 0.2186067998 -0.0651059002 -0.2537667453 0.0330389515 -0.2157416791 -0.1785060912 -0.0956352204 0.1717174649 -0.0313609950 0.0982587561
0.0684854239 -0.2953678668 -0.2934122980 0.1169436201 -0.1008951589 0.0417352505 0.1127067432 -0.0328650624 -0.0317022689 0.1486420333 0.1016059443 -0.1667799801 0.1955180764 0.0103501594 0.0775277913 -0.1431948245 0.0298816524 -0.1490533799 -0.0777810961 -0.0943143889 -0.2018102854 0.0641550422 0.0900223553 0.0091060167 0.0433081836 0.0985537022 -0.2445077896 0.0350482725 -0.2017160207 0.0086356634 -0.0558446236 0.1210053563 0.0595155731 0.0742729828 0.3662458062 -0.1240612715 -0.1357779950 0.0035461800 0.1314911693 -0.0028999634 0.0118499976 -0.0238656960 0.0475771464 -0.1362649947 0.1459675431 0.0433807932 -0.1241785437 -0.2330941856 -0.2067503631 -0.1222592443 0.2562731206 -0.1176844910 -0.2008187026 -0.0945654884 0.2063480169 0.0589282401 -0.2303076833 0.0523178689 -0.2270794958 -0.1537019163 0.0248568561 0.2468106896 -0.0469145365 0.0548205487
0.0086135548 -0.2628663778 -0.3224347830 0.2704777718 -0.0165473111 0.1023453549 0.1576551348 -0.1138692573 -0.1736454219 0.2445400953 -0.0647149161 -0.0239028595 0.0602953434 0.0729109421 0.1230760813 -0.1514131129 0.0419986397 -0.1482303590 -0.0539326034 -0.0629694909 -0.2013319433 -0.0123966336 -0.0327003822 0.0175661072 0.0610174648 0.0208548438 -0.3133701086 0.0694563091 0.0117452219 0.1005319133 0.0107007483 0.1602789909 -0.1152079254 0.0376506485 0.3320125639 -0.0031488752 -0.1438013464 -0.0409457013 0.0175770745 -0.0996158421 -0.0579828843 -0.2100787908 -0.0007052873 -0.1724193245 0.1383280158 0.1805187911 -0.0581001714 -0.3220349550 -0.2968465388 -0.0555610880 0.2603904009 -0.1359082162 -0.1158224121 -0.1681647748 0.1607204229 -0.0356151536 -0.2289419472 -0.0393274464 -0.1961712837 0.0117361145 -0.2053582370 0.2455677241 -0.1084936410 0.1189619750
-0.0415777043 -0.2679766119 -0.2514020205 0.1709094942 -0.0007739851 0.1530124098 0.1331747174 -0.0289463047 -0.0956736282 0.1312608868 -0.1519093663 -0.0063500111 0.2455586642 -0.0790434256 0.1718944609 -0.0878297985 0.1008336246 0.0614988394 -0.1635533571 -0.0674049258 -0.1549855173 -0.0446780622 0.0912656188 0.1568005830 0.0632306635 -0.1490148604 -0.3907576799 0.0175512992 -0.1640455127 0.2260896564 -0.1207918152 0.1919949055 -0.0053210710 -0.0211815834 0.2366125137 0.0359514654 -0.2082848996 -0.0724777579 -0.0725315660 -0.0955499783 -0.0922304168 -0.0510899313 0.1437536627 -0.0562131144 0.1628500223 -0.0089952769 0.1023866609 -0.2294033915 -0.2908902466 -0.1148159280 0.2213069201 -0.0647261441 -0.2011434585 -0.0182183739 0.2495713383 -0.1273029894 0.0435467772 0.1105694026 -0.2487211823 -0.1282196045 -0.1562475264 0.1431372613 -0.0486353040 0.2351753563
0.1827887148 -0.1293923557 -0.3198285997 0.2322300822 -0.0058045443 0.2359592021 0.0504337735 0.0034832284 -0.0105226161 0.2257912606 -0.0792014822 0.0722788572 0.0988227576 -0.0942646191 0.0145875234 -0.1032921299 -0.0115181226 -0.3312199116 -0.1248406172 -0.1736182421 -0.3153060973 -0.0513596721 -0.0030994676 0.0666214898 -0.0389896296 -0.0560713559 -0.4996238947 0.0439835750 -0.3236393034 0.1235422119 0.0196572151 0.0408760607 0.0028302481 -0.1134416014 0.1382367164 -0.0060451217 -0.1103080362 0.0652605146 0.0640472099 -0.0662940070 -0.0047212564 -0.0752441511 0.0774529278 -0.0088803247 0.1398922652 0.1694560200 0.0820235386 -0.2690313756 -0.2937511504 -0.1836119294 0.1896101087 0.1145915091 0.0104317022 0.1012664959 0.1485614926 0.0017768214 0.2189623266 0.1280922443 -0.2842440009 -0.2527005076 -0.1016384214 0.1077462658 -0.0106170792 0.1231573969
0.1478861570 -0.0483058617 -0.2876811326 0.1366369277 -0.1413883865 0.0741137564 0.1239604354 -0.1207959354 -0.1349989027 0.1326514482 0.0229061339 0.1676396877 -0.1073630750 -0.1105997637 0.1123034209 -0.2489948124 -0.0121767167 -0.2748728991 -0.0329148881 0.0102605438 -0.1521792114 -0.0515565649 0.1119097099 0.1186207980 0.0572693013 -0.0217331443 -0.2857347727 0.0004449069 -0.3100270629 0.1373224258 0.1571355164 -0.1360132247 -0.0347350612 -0.0653231889 0.0533315539 -0.0553128421 -0.1518732458 -0.0647045821 0.0661072955 -0.1688513309 0.2774423063 -0.1179313287 -0.0963092372 0.0863688812 0.0464116037 0.1448373049 0.2181259394 -0.0763406008 0.0109181954 -0.0192386117 0.1350476891 0.1920550466 0.0447412580 -0.1133594960 -0.0793380365 -0.0196388047 0.3053087592 0.0755493194 -0.1638945490 -0.1106591374 -0.0284259170 0.0734214336 -0.0537418015 0.1378552020
0.0588053763 -0.0795627385 -0.1608214974 0.0465205722 -0.1065420210 -0.0415173583 0.0936117768 -0.0423078910 -0.0944618285 0.1414815784 0.0926066786 0.0691718608 -0.0260236617 -0.0192814618 -0.0141457664 -0.2821498215 -0.0274688788 -0.2379027009 -0.1058295667 0.1426940858 -0.0885148197 -0.1311049014 0.0358753689 0.1668956578 0.0351956785 -0.0007766450 -0.1046590060 0.0396876484 -0.3392553926 0.0330761559 0.0105349747 -0.1322767586 -0.0311532561 0.0081925737 0.1574936658 -0.0282839593 -0.0663752928 0.0383531153 0.0672566220 0.0361539945 0.1935496777 0.0774555504 -0.0418296792 0.2117320448 -0.1077261195 0.0208588559 -0.0389365591 -0.0030665160 -0.1135945693 -0.1411322355 0.0988667458 -0.0131165339 -0.0104646254 -0.0461864062 -0.0887615383 0.0338587724 0.2299338877 0.1035607830 -0.0748556480 -0.0238886215 -0.0270939916 0.0911678299 -0.0630207509 0.0903519094
0.1367924362 0.0291869584 -0.0486120544 0.0994116589 -0.1299409270 -0.0340966098 0.0144154644 -0.0377838761 0.0267304108 0.1904590577 -0.0407588370 0.0438197739 0.0881959274 0.0396953449 0.0527393594 -0.4808362424 0.0304999128 -0.3487581313 -0.0332253166 0.0667673573 0.1111039445 -0.2239831984 0.1297940016 0.0587243252 -0.0001731517 -0.0019239003 -0.0609768406 0.0233887415 -0.3284440637 0.0249240492 -0.0042438135 -0.1321440041 -0.0370680057 -0.0133891162 0.0689443871 -0.0675863847 -0.2372040302 0.1226203218 0.0025630053 0.0478153750 0.2072051167 0.0918864310 0.0674934760 0.1897929758 -0.1742750257 0.1655784994 0.0100670671 -0.0564725213 -0.0210653171 -0.1552358717 0.0708010122 -0.0981337950 0.0960743949 -0.0453263968 -0.0542061515 0.1465823650 0.2634939253 -0.0219070148 -0.0922532454 -0.1686453819 -0.0470615402 -0.0389551334 0.0550051332 0.0664262250
-0.0028757707 0.0811710879 -0.0591957532 -0.0090719350 -0.0682270899 -0.0589068271 0.0617621616 -0.0654222667 -0.0289725065 0.1046815291 0.0395364128 -0.0694014281 0.0491464920 -0.0718147382 -0.0610517077 -0.3054500818 -0.0909957886 -0.1906619817 -0.0760317668 0.0068791043 0.1584375352 -0.1689027846 -0.0205547530 0.1137425303 0.0054657338 -0.0516960956 -0.1068593711 0.1600819379 -0.1071462259 0.0151710873 0.0650100857 -0.1865669638 -0.0386051945 0.0230395924 -0.0624371581 -0.0966169760 -0.1650321335 0.0749199167 0.0929422379 -0.1174099669 0.1263386756 0.1473524719 0.1082447618 -0.0365703404 -0.1321336627 0.1278912574 -0.1088476852 0.0418077670 -0.0908827558 -0.0565087385 -0.0484974571 -0.0275415741 0.0492736697 0.0735421255 0.0316801965 -0.0371442847 0.0919418707 0.0889919624 -0.1435945779 -0.2070097923 0.0325165838 0.0176538695 -0.0867654011 0.0872952342
0.0906413272 -0.0431413054 0.1283838302 0.0160189047 -0.0118172076 0.0389988348 0.1704370379 -0.2875760496 -0.0387192741 -0.0121887345 -0.0370477550 -0.1713914126 -0.0249341056 0.1257386953 0.0354929678 -0.2567045689 -0.0812140554 -0.1214212477 -0.1188580319 -0.0426180325 0.1865753978 -0.0601030402 -0.1403413713 0.0137483897 -0.0112070609 -0.0357476287 -0.1153104454 -0.1011170074 0.0197177604 0.1340725273 0.0307384431 -0.2762745619 0.0025807957 0.2178923041 -0.0630780086 0.0470325351 -0.0783745870 -0.0417745374 0.0649435222 -0.0801320970 -0.0343543030 0.0800918937 -0.0545519739 -0.1626914591 -0.0846959054 0.0136492020 -0.1001746282 0.0075030737 0.0545429774 0.0315453559 0.0312348492 -0.1231342852 0.1556291282 0.0242378581 0.0436428264 -0.0795687363 0.1184928119 0.1704804450 -0.2786964476 -0.1045542136 0.0502922349 0.0217536390 -0.0918743163 0.1146848798
0.1473075897 -0.2076095045 0.1591068953 0.1160734370 -0.1171295717 0.0978701338 0.1101117879 -0.1987092793 0.1380655468 -0.0072185602 -0.1031721383 -0.2435980141 -0.1247826740 0.0409025364 0.0653176531 -0.2446588874 -0.0913980678 -0.1648520827 -0.0723841116 -0.0638553500 0.1787842661 -0.2768856585 -0.0798759013 0.1307541132 -0.0238051899 -0.1439798772 -0.1194004789 -0.0927080438 0.0782971457 0.1526338607 -0.0783848166 0.0306285489 -0.1098160148 0.0767895728 -0.0287939459 -0.1850346327 -0.2021613121 -0.1011802927 0.1052549109 -0.0376102850 0.1231236979 0.0274842363 -0.0836329013 0.0234012809 -0.0860393122 -0.1455360055 -0.1007069573 0.0478153303 0.1280810535 -0.1355017126 -0.0294294357 -0.0794333145 0.0198237840 0.1185733974 -0.0234082341 0.0202134922 0.2141071409 0.0835975185 -0.2861266136 -0.1046564877 0.0080594588 0.0704982504 -0.1089341119 0.1076426208
0.0749670789 -0.0049321759 0.1069552451 0.1169502288 -0.1172077134 0.0199461989 0.1288734674 -0.2520301044 0.0769021884 0.0341472439 0.0497156344 -0.1146346182 -0.1754006892 0.0253844243 0.0088422857 -0.1109240055 -0.1944761723 -0.1081941724 -0.0198113527 0.0986916646 0.1913540363 -0.1722463071 -0.1669313610 0.0943658203 0.0828295723 0.0232286677 -0.1980703622 -0.1244971976 0.0642241687 0.1946185529 0.0054058870 0.0073999893 -0.0829830095 0.0961562544 -0.1123702228 -0.0696953908 -0.0338921547 -0.1499916017 -0.0093363691 -0.0929115266 0.0757786557 0.0123018064 0.0158786289 0.1441805959 -0.0995453671 0.0757878125 -0.2660255730 -0.0466842540 0.1460856199 -0.0778705701 0.0600926653 -0.0936199352 0.0153691908 0.1020800024 -0.0019578990 0.0266754329 0.1544914991 0.1336902976 -0.1582898647 -0.0042621037 -0.0060017635 -0.0173974670 -0.1144682169 -0.0158740617
0.0234993752 0.1292319596 0.0560075827 -0.0376376808 0.0462977774 -0.0379416235 0.0947458968 -0.3577957749 -0.0433546267 -0.0180458035 -0.0501932539 -0.1921589673 -0.2241203785 0.0967700928 0.2209379375 -0.1087971479 -0.1010017544 -0.1407532990 0.1597497910 -0.0339606181 -0.1410593987 -0.2186873704 -0.0785203502 0.1362686753 0.1356151551 0.1597741842 -0.2158077657 -0.0694862083 0.0758274794 0.0334248245 0.0021876383 0.0596729256 0.1371014863 -0.0246094447 0.0345130563 0.0060021332 0.0138537679 -0.1778036952 0.0959335119 -0.0941495001 0.0089739123 -0.0434004292 -0.1187639534 0.1515754908 -0.1634594947 0.0161752459 -0.3362198770 0.0537620820 0.2365888953 -0.2379069626 0.0295764189 -0.0522857830 0.1330776364 0.0564436093 -0.2036668509 -0.1589253843 0.0671076998 0.0294658095 -0.1693672091 0.0794462040 -0.1874455661 0.0197041519 -0.2302939743 0.1359120309
0.0657971576 0.1399734467 0.1227425784 0.0059412238 0.0526105836 -0.1000859663 0.0530716367 -0.3188810349 -0.0055662263 0.0866179466 0.0053820284 -0.3323130310 -0.1467979550 0.2212386876 0.2087116539 -0.0044400394 -0.1566537768 -0.1530281305 0.0951936841 0.1104550734 -0.1715072542 -0.2380015701 -0.1090465337 0.0647638142 0.2127279490 0.1557564884 -0.2085470706 -0.0239658430 0.0630355775 -0.0938429683 0.1121120453 0.1703601480 0.1256656945 -0.0833386034 0.0155470073 -0.1027331352 0.1365099549 -0.0400667638 0.1007172018 -0.1737146527 -0.0120039815 -0.1029683053 -0.1115298346 0.3044861853 -0.1913923323 0.0981473327 -0.1787919253 0.2277251333 0.2318114787 -0.1388180405 0.0861214027 0.0016885902 0.1475621462 0.0904119760 -0.1693914384 -0.0825422630 0.0301465746 0.0455298312 -0.1630058587 0.1939900964 -0.0855493322 0.0179717317 -0.1881874800 -0.0279195812
0.1190368459 0.1003848314 0.0308933370 -0.0413500294 -0.0053543290 -0.0970900431 0.0929803848 -0.1967760026 -0.0011481260 0.0551351197 0.0028922807 -0.1914075464 -0.0845989659 0.2542149127 0.1574669778 0.0310429856 -0.2759442925 -0.1017283276 0.0143074859 -0.0755497962 -0.0327480324 -0.1677075028 -0.1180400476 -0.1072801128 0.1607135981 0.1328075677 -0.1186721548 0.0120104738 -0.0525002107 0.0366310291 -0.0076819267 0.1305882633 0.1266960204 -0.0335507765 0.0020170161 -0.0276025236 0.1261072904 0.0683196858 0.0079193152 -0.0142710349 -0.0426712781 -0.0571599193 -0.0884672105 0.2649257183 -0.0188666787 -0.0087717334 0.0445479602 0.1986544132 0.0721124113 0.0210711639 0.0764171705 -0.0473475270 0.1740560383 0.1845378280 -0.1089445651 -0.1256942004 0.0240180418 0.0028929249 -0.3019163609 0.0122374119 0.0265842490 0.1322397739 -0.0202108882 0.0282012373
-0.0398271605 -0.0737016648 -0.0482708588 0.0524577424 0.0218102019 0.0913595855 0.0938293412 -0.0652481839 -0.1103225201 0.0383247845 -0.0074910531 -0.1570175290 -0.0122914715 0.0277744103 0.1257064790 -0.0831159651 -0.0270295274 -0.1171409562 -0.0851964280 -0.0701701567 -0.1207502186 0.0325469486 -0.0215315409 -0.0276218131 0.0355795808 0.0966292471 -0.1139421538 -0.0524365231 -0.0255338550 0.0112317177 0.0310384370 0.0958046392 0.0668193400 0.0264087804 0.0444455706 0.0082334727 -0.0625147521 0.0463756137 0.0507588051 0.0762283728 0.0970954522 -0.1012469605 0.0119947474 -0.1017899662 -0.0358799398 -0.0082061542 -0.1141487062 0.0056806649 0.0885026753 -0.0451151840 -0.0130333975 -0.1437474191 0.0494271591 0.1427565366 0.0550014675 -0.0492950082 0.0294537488 0.0479458049 -0.0588816926 -0.0383476019 0.0221548509 0.1311801672 -0.0368895456 -0.0894369632
0.0685338676 -0.1622412354 0.0830509886 -0.0615090467 -0.0742541626 0.1443453729 -0.0809031799 0.0183057543 -0.1540282220 -0.1586001664 0.0380581319 -0.0210468229 0.0038340488 0.0158075150 0.0769925043 0.0192289054 0.0189973507 0.0602006689 0.0201515183 0.0657353997 -0.0396731645 -0.0764179081 -0.0843845159 0.1594757587 -0.0568897873 -0.0012694426 0.0143272690 0.0447861180 -0.2127564996 -0.0501192622 -0.0449199602 0.0067314352 -0.0402760357 0.0704491213 0.0429877527 -0.2050739527 -0.1360145062 -0.0685344860 -0.0618494637 0.0585979782 0.0883381963 -0.1594543159 0.1064476445 -0.0296313725 0.0226153135 0.0087186843 0.0857767910 -0.0991113409 0.1117322296 -0.0216932558 -0.0126441885 -0.0640853792 -0.0960330442 0.0006181831 0.0763416067 0.0369580165 0.0580853671 0.0165374763 -0.0031560720 0.0732735097 0.0139684686 0.1384474933 -0.0432809293 0.0273747128
0.1776914448 -0.2115219086 -0.1687296629 0.0551952384 -0.0121192932 0.1998339295 0.0692841262 -0.1492632329 0.1113823503 -0.0805187300 0.0533311106 -0.2080105245 -0.1939577460 0.1354615092 0.1382704526 0.0557994843 -0.0512805022 0.0316146016 -0.0782378614 0.0630612224 -0.1226884574 -0.1090902239 -0.0880751386 0.1669560224 0.1300891638 0.1078188419 0.0769654289 -0.0300241895 -0.1439208090 0.0853799507 0.0652330294 0.1188374758 0.0954776630 0.0417894162 0.0342612304 -0.0730517879 -0.2189743072 -0.1533793956 0.1658621281 -0.1017984226 0.0763270035 -0.0230360907 0.0057158470 0.0488100722 0.0832115412 -0.0280416701 -0.0618128888 -0.0431697778 0.0681383982 -0.0553149916 0.1016543582 -0.1216526106 0.1694741398 0.0334154777 -0.0520520657 -0.0269889459 0.0899879932 0.0096589336 0.1250876039 0.1455663592 -0.0639830828 0.1641585678 -0.1064657271 0.0042433641
-0.0794710591 -0.0367198512 -0.0763971061 0.0829302743 -0.0741912797 -0.0794198364 -0.0252708234 0.0353761241 -0.0449008979 -0.0332552493 0.0189092234 0.0463307872 0.0412124023 0.0670674369 0.0540679023 -0.0210330859 -0.0596424192 -0.0778119490 -0.0096619129 0.0640181378 0.0682131574 -0.0214360654 -0.0200156495 0.0557059273 0.0278761610 0.0401075855 0.0241565779 -0.0321119465 0.0691401586 -0.0135085955 0.0600575283 0.0808370635 -0.0470730104 -0.0387553126 -0.0391349904 -0.0258937441 -0.0442896672 -0.0290223695 -0.0233048126 -0.0014309660 -0.0547109321 0.0469214097 -0.0330656730 0.0567810312 -0.0421164520 0.0541552529 -0.0352296829 0.0711622462 0.0697157010 0.0216672793 -0.0396394059 -0.0724389106 -0.0204894617 -0.0426910818 0.0406504720 -0.0574333295 0.0140615031 0.0606239960 -0.0365586914 0.0547127798 0.0564191118 0.0736689791 -0.0353825204 -0.0267672688
-0.0536903664 -0.0559345558 0.0460520461 0.0208607987 0.0292235017 0.0027856454 -0.0484417304 -0.0489052534 0.0109349489 0.0701626912 0.0711665377 0.0632039681 0.0120609403 -0.0360476375 -0.0819933861 -0.0649076030 -0.0816014782 0.0622710213 -0.0473825373 -0.0180617943 0.0127225891 0.0697127506 -0.0573507622 -0.0839308798 -0.0631969497 -0.0809457675 0.0005218089 -0.0789651200 0.0310753956 0.0232196599 -0.0545299798 0.0438008383 0.0446872935 -0.0394808538 -0.0753348023 0.0234232768 -0.0540718064 0.0205270872 -0.0375039950 0.0004616603 0.0467886552 -0.0487268865 0.0341888815 -0.0154089630 0.0136257336 -0.0461428091 -0.0182689577 -0.0124512091 0.0730301663 -0.0533627123 -0.0168689936 0.0517209843 -0.0474974886 -0.0742136016 -0.0401542336 -0.0122212395 -0.0425782353 -0.0716318488 -0.0394179225 0.0647838488 0.0036291927 -0.0049308464 0.0258340389 0.0601841584
-0.0649573356 0.0418086872 0.0154719371 -0.0048474041 0.0803597420 0.0632779747 -0.0723565519 -0.0519867763 -0.0229588076 -0.0062817801 -0.0576710813 0.0250471085 0.0412961952 0.0271989070 -0.0113465013 0.0049265074 -0.0320078991 -0.0795502961 0.0125944503 -0.0466078222 -0.0264922008 -0.0557629727 0.0079422146 0.0666430891 0.0778742433 -0.0472865403 0.0505642369 0.0630143285 -0.0143300807 0.0369087048 0.0104642510 -0.0014584702 -0.0560799874 0.0706014782 0.0732323974 0.0742659792 -0.0380861126 -0.0041054557 -0.0418739915 0.0463727638 -0.0077944472 -0.0077502485 -0.0556912683 -0.0632569566 -0.0166535676 0.0003434563 0.0554647110 -0.0856522396 -0.0856048465 -0.0310235769 0.0656734779 -0.0407059789 -0.0072961221 -0.0728401989 -0.0634350553 -0.0421353839 0.0635870099 -0.0557863526 -0.0045519355 0.0241477918 0.0168888550 0.0662065595 -0.0058309981 0.0834479257
0.0132912286 -0.0256497283 0.0635728985 0.0782376751 0.1305844337 -0.0623397194 0.0174791254 -0.1287012696 0.0329337567 0.1308379471 -0.0599537753 -0.0772595778 0.0724541992 -0.0552013144 -0.0103660468 -0.0827970654 -0.0464564189 -0.0705798119 -0.0316709317 -0.0193509385 0.0323800556 0.1325689554 -0.1598927677 0.0880221054 0.1065307334 0.0034217401 0.0962813571 -0.0846239999 0.0258098170 -0.0078877565 -0.0379043557 -0.0184105467 -0.0293956026 0.0115104010 -0.0163575243 0.0323764384 0.1520929933 0.1141669676 -0.1406985968 -0.0411580764 -0.0778298154 0.1321029067 -0.1304080635 0.0468629077 0.0093497233 0.1303213537 0.1658973545 -0.0296631213 -0.0136092305 0.0031189881 0.1459552497 0.0580935553 -0.0005631129 -0.0260742810 -0.0511500649 -0.0417560339 -0.0714722201 0.1028361022 0.0189515967 -0.0098558767 0.1234000772 -0.1147567406 -0.0509911180 0.1045437306
