0,1,2,3,4,5,6,7,8,9,10,11,12,13,14,15,16,17,18,19,20,21,22,23,24,25,26,27,28,29,30,31,32,33,34,35,36,37,38,39,40,41,42,43,44,45,46,47,48,49,50,51,52,53,54,55,56,57,58,59,60,61,62,63
-0.039352585,0.047886156,0.046329685,-0.07005314,0.015858874,-0.027193192,-0.007966682,0.07292748,-0.007591434,-0.062148567,-0.034091193,-0.08077636,-0.046005536,-0.040185537,-0.024243638,0.06826147,0.055478804,0.058254577,-0.015155837,-0.067474075,0.06642414,-0.040158305,0.03588102,-0.07896441,0.060366236,-0.041095745,-0.01848457,-0.08183888,0.06219127,0.05707795,0.003266022,0.04057631,-0.02353859,-0.03295427,0.030725978,-0.019619063,0.019404039,-0.0791416,-0.049046602,0.05520641,0.0410622,0.059992544,-0.022451743,0.009833917,0.070853345,-0.038590543,-0.018569417,-0.060928196,-0.041461784,0.016080163,-0.03702894,-0.024260946,0.05185557,0.018526942,0.078231074,0.08163238,0.036574155,0.039388984,-0.027912319,0.030157246,-0.012245223,0.006077416,0.019558959,0.059430383
0.06893011,0.034607626,-0.004236087,-0.06588317,0.022505492,-0.042184178,0.035324924,-0.03164425,0.032181434,-0.00068222,0.059410803,-0.058500763,-0.07170817,0.05247224,-0.070767686,0.011154808,0.038971663,0.009350121,0.08237048,-0.046455804,0.04227478,-0.047983296,-0.021792661,-0.04271577,0.021145798,-0.08053807,0.021596827,-0.07260011,-0.021694716,-0.05133467,0.03937707,0.02623722,0.03198839,0.064353816,-0.045306146,0.057793997,-0.009859867,-0.07605357,-0.043774,0.042991377,-0.02664018,0.008011662,0.07913994,0.07606957,0.03886517,0.03155282,-0.032807488,0.065916635,0.0032501,0.02421783,-0.0561343,-0.0816605,0.022475928,0.001175873,-0.039232977,-0.004401766,-0.041838314,0.07304912,0.001719639,0.051092975,0.05444508,-0.030314658,0.053806685,-0.010084704
-0.035757545,0.047511972,-0.032393135,-0.025647491,0.043869756,-0.053434223,-0.05264876,-0.013998076,0.078456394,-0.06693626,0.053666897,-0.08066757,0.011838593,-0.001174688,-0.064568155,0.004827023,-0.07919336,-0.03821991,0.07095032,-0.010187067,0.068207376,0.034273148,-0.012702033,-0.042480066,0.057006158,0.028452054,-0.046002667,0.06224697,0.06735905,-0.047385305,-0.08195839,0.053746916,0.072265394,0.08003869,0.009547256,0.000809006,0.028175011,0.023111843,-0.035513178,-0.06086251,-0.045912944,0.02360762,-0.025721252,-0.046064254,0.07012411,0.003490232,0.001705498,-0.07177067,0.056951918,0.015716389,0.027989365,-0.014820583,-0.079395495,-0.002287909,-0.051420465,0.017294839,0.039162546,-0.07424996,0.055359356,0.07555259,-0.0778905,-0.047413602,-0.032294706,0.01782751
0.03502077,0.046572275,-0.001158685,-0.03181698,0.05653321,0.042320363,-0.036610533,-0.007306375,0.035202026,-0.0195155,-0.035772666,-0.08348227,-0.074980095,0.041128047,-0.04473709,-0.012557961,-0.009540074,0.039150655,0.039967924,-0.06673327,-0.026401851,0.010175914,0.004605681,0.02617728,0.07753699,-0.06244325,-0.013934396,0.06054101,-0.05593413,0.08100156,-0.013715901,-0.050458055,0.017974831,-0.024249472,-0.022475027,-0.036380768,0.014764503,0.036001675,0.021922156,-0.022587933,0.07771469,-0.002092958,-0.015634023,-0.004676834,0.04869274,-0.051705122,-0.076845005,-0.035003766,0.015549868,-0.06329626,-0.06474562,-0.022836372,-0.04381826,0.037449308,-0.073980846,-0.083939925,-0.02071923,0.003617741,-0.06394848,0.061366446,-0.015911922,0.061333485,0.010835014,-0.002157994
0.05833734,0.08301439,0.040598042,0.03775107,0.04257477,-0.027197104,-0.0613632,0.011496462,0.007219397,-0.033534653,0.007182635,-0.004649036,-0.000594646,0.046892233,-0.044493224,-0.016415216,-0.08304845,-0.080684535,-0.021826215,0.044186674,-0.05750663,0.07503613,-0.02071751,0.005786367,-0.081945956,-0.02172947,0.068755336,0.064510815,-0.02023302,-0.050066605,0.027608648,-0.07692071,-0.000831574,0.00798513,0.021202005,0.008937128,-0.012597427,-0.02880241,-0.040217426,0.058447592,-0.056266982,0.07326936,-0.07442877,-0.021569915,-0.05810328,0.048133723,0.01645007,-0.04015241,-0.007643379,-0.008650467,-0.004465275,-0.03645186,-0.013284206,-0.054837577,0.05221846,0.081192665,0.04762981,-0.07245776,-0.05283924,0.00779479,-0.077717066,-0.01684288,-0.061760105,-0.005794108
-0.023109019,-0.04658508,-0.06166164,0.07010833,-0.012344755,-0.04237885,-0.025876015,0.05538886,-0.08386081,0.001934245,0.026586033,0.034648813,-0.054274157,-0.029927883,-0.08353269,-0.008091338,-0.027443837,-0.031162273,0.004711509,-0.06567584,0.076388426,-0.046009485,-0.061320506,-0.078916386,-0.051381096,-0.06868835,0.08336913,-0.025814667,0.06678655,0.004045166,0.071382664,0.000334591,-0.00563962,-0.011832796,0.035314538,0.004769228,-0.025161102,0.06657656,0.058623664,-0.012330078,-0.006775565,-0.009527519,-0.035518732,-0.055096366,0.046321712,-0.035111118,-0.000877135,-0.004982129,-0.013755649,0.037540175,0.035178043,-0.050776407,-0.022101104,0.001509644,0.0470277,-0.018869877,0.045396455,0.03304614,0.02404213,-0.04542828,-0.07493728,-0.012988158,-0.04388492,0.004760623
0.01325278,0.017609157,0.044173025,-0.013316408,-0.07129297,-0.05003414,0.02356787,-0.009549379,-0.07234757,0.05436737,-0.04399011,0.033681594,-0.048982706,-0.0442501,0.024356984,-0.04192942,0.036642946,0.001179859,-0.005841352,0.025653526,-0.0505471,0.018684149,0.036007866,0.056816198,0.051039807,-0.04308907,0.017950706,-0.07582955,0.011119187,-0.013152145,-0.034237314,-0.08408825,0.031955563,0.043106876,-0.050003897,0.001576565,-0.04482028,0.009175003,0.006772295,0.08211795,-0.057195015,0.027496785,-0.039748847,-0.021538451,-0.013248906,0.065068655,0.006970175,0.004509516,0.054957204,0.036207676,-0.029385783,0.07229564,-0.059460543,-0.06920524,-0.004026741,0.027952328,-0.009444438,0.048932783,-0.004586443,-0.03087132,0.037197918,-0.04144229,0.061407827,-0.029781524
0.06564196,0.07977242,0.07114559,-0.015877828,0.002490044,-0.017223224,0.005856633,0.07415021,0.035119623,0.011831097,0.08114485,-0.037854854,0.013341241,-0.0724046,-0.041722097,0.003405139,0.057422377,-0.016397849,-0.08002144,-0.08315009,0.06349877,-0.078280926,0.019810848,-0.055849962,-0.01570189,-0.032146662,-0.002313457,-0.05592461,0.03645914,-0.040139534,0.019521803,0.05420395,-0.004031308,-0.06761329,0.023124076,-0.019570611,0.074134745,-0.07326072,0.04770764,0.007258743,-0.027538136,-0.033450585,0.001426861,-0.03043234,-0.04412275,-0.0798903,-0.08062255,0.040771462,0.015000269,0.02082929,0.009188056,-0.034603693,-0.06969331,0.034386218,-0.006916508,0.015678003,-0.07233166,0.02363383,-0.04887012,0.011983708,0.06299015,-0.06387657,-0.057359584,0.06281834
0.04233665,0.016903251,-0.07292793,-0.004252292,0.026432596,0.050983585,0.012429528,0.07108229,-0.05629229,-0.07539631,-0.012919664,-0.034998734,0.052505262,-0.041024048,-0.051779807,-0.012561768,0.07825356,0.04042852,0.017654218,-0.01792179,-0.029599465,-0.03198811,0.010359652,0.005214579,-0.053124942,0.03226635,-0.06141719,-0.06893494,0.07868522,0.08106973,-0.01360853,-0.008334681,0.000194728,-0.072197534,0.035042696,-0.058787048,0.044170536,-0.004066005,-0.07229324,-0.049911223,-0.07772227,-0.015089311,0.07832108,0.008075357,-0.06597678,0.07264764,-0.070574865,-0.05244075,0.07820005,0.05176743,0.06942897,-0.009470649,0.055585347,-0.07202061,0.0398411,0.07492932,-0.06747345,-0.03061584,0.053711705,-0.07883358,0.078889914,-0.043322425,0.022882216,0.053557225
-0.021891452,-0.07799136,-0.07013745,0.0640664,0.02316796,-0.064732164,0.05749034,-0.0166369,-0.000825956,-0.054755613,-0.019005232,-0.008483253,0.021738075,0.06380964,0.056529783,-0.05817329,0.060953148,0.03377507,0.007451952,0.068524905,0.050046973,0.06867007,0.07242618,0.016028821,0.011853635,0.06683964,-0.002128013,-0.06379129,-0.04801468,0.052774988,0.04759393,0.06350919,0.06847521,0.05317042,-0.05953697,0.005589426,0.0402281,0.003347084,-0.000764772,-0.013342641,0.054051958,0.07325811,-0.023206927,-0.07171257,-0.073249266,0.055990644,-0.036842126,0.07404395,-0.009919152,-0.07767114,-0.030210495,-0.06938844,0.055265523,-0.013788141,0.009262636,-0.011332996,-0.0732771,0.04975424,0.069943614,-0.043999776,0.050187133,0.05123753,0.010604501,-0.018087722
0.014724895,-0.07204431,-0.047034144,-0.051445913,0.07708491,0.0715824,0.032933153,0.05279518,0.009386517,-0.06463534,-0.03312778,0.02446384,-0.072914995,0.009013295,-0.036040496,0.014213942,0.040642925,0.06462105,0.012874484,-0.040591225,-0.03152434,0.053985693,-0.000172228,0.073195405,-0.06918114,0.023015164,0.050372563,-0.06411879,0.022168308,0.005479969,-0.081914075,0.04102335,0.04575742,-0.05353845,-0.07751945,0.04259225,-0.075724006,-0.06339146,0.03055042,-0.08043337,-0.037951376,0.05079656,-0.039170947,0.029579714,-0.045354776,-0.052343886,0.030935697,0.023422055,-0.04680153,-0.025240518,-0.024709951,0.02611585,-0.008437082,0.021555014,0.07852819,-0.002461821,0.034846134,-0.050456714,0.06397476,0.039784625,0.079590745,-0.024051093,-0.04521297,0.026877187
0.071477644,0.000437297,0.015720896,-0.076094955,0.03220366,-0.07823813,0.01911854,-0.03322278,-0.08105157,0.0656471,-0.070074715,-0.04367607,-0.049267422,0.004267633,-0.038364224,0.019721381,-0.05648999,-0.007108696,0.039798163,0.017923072,-0.00876049,0.032667406,-0.034091152,-0.011834264,0.036393605,0.059091635,-0.04853296,-0.042517167,-0.043080486,0.015875481,-0.06676289,0.019098066,-0.045324557,-0.022041503,0.0370168,-0.05491641,-0.009022884,-0.05542815,0.07395331,-0.03477743,0.08156013,0.071772195,0.009072423,-0.011975408,-0.025329523,0.03894054,-0.010210946,0.027808897,0.080884166,0.07980693,0.015225604,-0.028346281,-0.05363415,0.081334285,-0.06786384,0.007575192,0.049241833,0.06486245,-0.07799084,-0.014156826,-0.020348176,0.002722636,-0.06179568,0.043728076
0.007443723,0.09927883,-0.005327337,0.001935967,0.08883754,-0.11850766,0.10315123,-0.10582961,0.000806239,-0.08177832,-0.000295082,0.11821073,0.12872855,-0.06718912,-0.050445773,-0.019797496,0.024424795,0.043458577,-0.011090579,-0.02269454,-0.05989573,-0.10367162,0.12902467,-0.068642035,-0.035967495,-0.07115465,-0.012755611,0.033492275,0.047582287,0.08812662,-0.020039009,-0.0925824,0.015437864,0.11757431,0.057830963,-0.09713408,-0.038553473,-0.06765555,0.008103607,0.003854908,0.009961665,-0.001275007,0.057547897,0.055159748,-0.0394612,0.03752377,-0.018597802,-0.067625865,0.01760437,-0.07706519,0.01808985,-0.026981266,0.06756358,-0.045798432,-0.093736574,-0.045130167,0.002348686,-0.11698223,0.037025683,-0.04755972,0.00801037,0.014374341,-0.02099408,-0.02495735
0.019877117,0.09808358,-0.06982617,0.10688763,0.021051498,-0.04986897,0.07930476,-0.048142474,-0.014044359,-0.008065091,0.05982172,-0.016201347,0.08853985,-0.021374986,-0.05405298,-0.030027896,0.01788196,-0.003467939,0.07673931,0.040181194,-0.08819157,-0.098677896,0.009092598,0.05168374,0.0334374,-0.052952245,-0.04657143,-0.026583105,-0.008776254,0.09384722,-0.022627905,-0.09662417,-0.09594656,-0.002074425,-0.005611974,-0.09363559,-0.057471976,-0.06147737,0.020111993,0.038205978,0.020766437,-0.016780825,-0.08632817,0.02226432,0.029831635,0.048482545,-0.10837267,-0.024414595,-0.05078694,-0.089434154,-0.07327121,0.03579645,0.10082221,0.055005115,-0.09628993,-0.029157216,0.009326211,-0.040585693,-0.024190279,0.029245932,-0.003606563,-0.025170328,-0.03904752,0.058348276
-0.067523085,-0.029761381,-0.038080003,-0.10692362,-0.009715319,0.005529004,0.12318527,0.05017625,-0.027679747,0.05706999,0.019154714,-0.047599506,-0.045532495,0.068597466,0.036778174,0.013515435,0.09255489,0.02202778,-0.09423919,0.09823624,-0.09893567,0.0982509,-0.10785129,0.05129714,0.08670276,0.084825665,0.005105846,-0.034728978,0.07604909,-0.06492752,0.07912811,0.02721436,-0.022261338,0.049949918,-0.029840443,-0.001852365,-0.054305345,0.002183847,-0.000300345,-0.09711991,-0.010335386,-0.023183307,-0.038318004,-0.033892825,-0.017241927,-0.012235235,0.0540825,0.055756368,-0.02463963,-0.039701764,-0.043816917,0.03624173,-0.039933205,0.101219684,-0.03463426,-0.05853576,0.02356005,0.039405145,0.09818398,0.005985491,0.123667054,-0.05370716,0.037697885,0.05921587
-0.06113167,-0.003794361,-0.025706315,0.07706646,0.037337117,-0.07414044,-0.03034773,0.016030435,-0.054901734,-0.009352643,-0.073907,-0.019240355,0.045050684,-0.072073996,-0.038954645,0.053235777,-0.007048332,-0.016667083,0.014142379,0.079072595,-0.010831572,-0.039188825,0.059092186,-0.061518192,-0.04617283,0.020276202,-0.08236771,-0.03430788,0.06353094,0.039248742,-0.029256087,0.07375983,0.027712254,-0.034869026,-0.014049195,0.073199995,0.007574149,-0.021322839,0.078315854,-0.06817445,-0.08050765,0.032093298,0.07668984,0.05104993,0.07899915,-0.052132852,-0.007415832,0.005163323,0.039189342,0.06800903,0.08361203,0.010435771,-0.022818487,-0.019027099,0.011717518,0.011452001,0.052054204,0.051706433,0.069132626,0.07835714,0.001273379,-0.06809729,0.005698969,0.021505855
0.051100932,-0.051977206,0.050031967,0.07090678,0.038443424,-0.02523382,0.0757209,0.07658436,0.041142993,-0.034380764,0.026804611,-0.07340281,-0.052471615,0.053356268,0.05483862,-0.072505854,-0.037687156,0.07778046,-0.003326364,0.022027262,-0.03489922,0.040328972,0.021020256,-0.0652879,0.021895103,0.068100624,0.05766139,0.039410062,-0.06774012,-0.043845955,0.053269334,-0.041843005,0.08374796,-0.06280676,0.060346566,-0.06615265,0.02329743,-0.018207893,-0.07198473,-0.023137454,0.07538871,0.05262045,0.03494551,-0.061355904,-0.025293924,0.06143827,-0.009880208,-0.06555551,0.009622902,0.035704277,-0.001748353,-0.066010654,-0.034322806,-0.002831355,-0.050727293,0.009869494,0.042582043,0.082235135,-0.04341115,0.056387745,-0.04741617,-0.026049107,0.009183526,-0.053390928
0.08338394,-0.049377926,0.07043821,-0.02303987,-0.058204517,-0.06787932,0.018297113,0.04050702,0.00336349,-0.074108854,0.05894748,0.08093425,0.010528699,-0.06894523,-0.07033007,-0.02271859,-0.015227214,-0.009980679,0.054829918,0.037119262,0.007513084,0.036634497,0.024712741,-0.048192367,-0.029655479,-0.005887322,-0.037336215,0.000794232,-0.0630543,-0.009132385,-0.023089506,0.021699063,-0.05901082,-0.046386555,0.06346334,-0.04647869,-0.03787605,0.05153034,0.036073208,0.08011825,-0.048198685,-0.028097484,0.055604212,0.07381781,0.014791302,-0.009783082,0.019926526,-0.008048624,-0.08022171,-0.08012196,0.008919865,-0.001825385,0.008497387,0.008613087,-0.06346314,-0.058913067,-0.037809167,-0.022950545,0.05452446,-0.04378818,0.019981474,-0.048301905,0.009726509,-0.029516298
-0.022917476,0.07420666,-0.016797617,-0.013564646,-0.06371721,-0.037565604,-0.040286817,0.015001677,-0.0174122,0.002107315,0.009704806,0.017958172,-0.079278395,-0.002184205,-0.059639275,0.01932364,-0.026027448,0.020585425,0.051266097,0.042503215,-0.030121632,-0.00797765,-0.053741083,0.053090684,-0.046030484,0.014336377,0.05905483,0.014970548,-0.039031066,-0.06210176,-0.069965936,-0.002148926,0.052166887,-0.07225549,0.025521688,-0.02210971,0.05663725,-0.02828632,0.010057226,-0.034128614,-0.05193559,0.001183495,0.009907939,-0.011017472,-0.018070415,0.04837794,0.008722946,-7.82E-05,0.03254445,-0.04952282,0.08346773,0.004063778,0.07704895,-0.006309271,-0.08371944,0.043773852,-0.017191038,-0.004169285,-0.038069136,-0.039655432,0.015462913,0.02522672,-0.030463707,0.07590669
-0.06728698,-0.014380597,0.05322852,-0.040083118,-0.043413755,-0.028450426,-0.063639775,-0.04618711,-0.058691226,0.054011114,0.08205765,0.016758554,0.005774193,0.014015421,0.04585869,0.07319536,0.06778238,-0.0709327,0.082409345,-0.021223828,-0.046854716,0.035784215,-0.066307686,-0.04580561,-0.0455014,0.000563338,-0.05240002,0.08131289,-0.082020804,0.07482187,0.027727671,0.015214115,0.019513376,-0.076010026,-0.022046376,-0.023523752,0.027369231,-0.00679297,-0.016995281,0.0530136,0.04473015,0.027917832,0.02849663,0.04704947,-0.057947032,0.032170825,0.07740285,-0.07023682,-0.054406337,-0.0330248,0.021848314,0.057148673,0.047454827,0.001077481,-0.01681593,-0.054413803,0.009715132,-0.010174148,-0.043218944,0.033276245,-0.023764648,-0.047034845,-0.05337009,0.04994122
-0.06571106,-0.07569964,-0.000422277,0.006670281,-0.006406114,0.04150661,0.03572251,0.009187833,0.00691583,-0.041995622,0.009831108,0.015865192,0.03825725,-0.0773905,-0.013681732,0.0397989,-0.024602756,0.00213214,-0.016144276,-0.079635225,-0.027177189,-0.013258651,-0.028083704,-0.028421968,-0.06343007,-0.027991973,-0.07298661,-0.04582011,-0.010875747,-0.059475124,0.068739735,-0.0597371,-0.056314472,0.004140832,-0.070294596,0.020389773,0.015560202,-0.022496965,-0.06268064,0.02281265,0.015212089,0.035765164,0.013761185,0.03232483,-0.01727508,-0.048931208,-0.001209401,0.0545898,0.020365983,-0.014824651,-0.06461446,0.026219212,-0.02856915,-0.009235844,-0.05200372,0.05542838,0.025168665,0.003706202,0.058217503,0.06376677,0.05440829,0.014280707,0.048224695,-0.024363242
0.01471553,-0.026765183,0.07895806,-0.023050416,0.049710028,-0.079287075,0.060690902,-0.042473547,0.04366789,-0.0754749,0.051045366,0.014258824,0.022440314,0.081755824,0.08392938,-0.003805958,-0.061752185,0.027090535,0.012331277,0.0171502,0.033646703,-0.006678678,-0.042248514,0.04335057,-0.07295041,0.030510515,0.006514937,-0.002558589,0.00286404,0.029099882,-0.030815408,0.018315047,0.071733244,0.039090484,-0.05979592,0.00827428,-0.061548486,-0.08158243,0.03609079,0.013356805,0.03792326,-0.0658219,0.013542913,-0.0765987,0.07595939,-0.08361291,0.075110756,-0.07909842,-0.049714044,-0.027772736,0.035857134,-0.01479391,0.083902396,-0.05399014,-0.060730673,-0.041234624,0.026163884,0.037199184,0.04154796,0.045036204,-0.033941425,-0.035105184,0.03828705,0.03347908
0.047159545,0.0645761,0.019019306,-0.079396576,-0.046603248,0.043355472,0.06131866,-0.052149598,-0.034584038,-0.046771526,0.078050725,0.06372162,0.05256892,-0.009577923,-0.06226041,0.082103886,0.03541764,0.020800851,0.07209239,0.0602841,0.03830065,-0.054385766,-0.04376692,-0.05321595,0.06610919,-0.06382605,0.04263515,-0.066259414,0.025432065,-0.009398609,-0.03070027,-0.05022093,-0.061654195,0.031623714,0.04953616,0.06998683,-0.030341912,-0.07365742,-0.018355392,0.01916156,0.026735023,0.035182253,-0.007425502,0.021396458,0.04367862,0.07413777,-0.042885814,-0.003460832,0.014217429,-0.03598591,-0.015386604,-0.06327619,0.07726356,-0.017464966,-0.064455144,-0.008705661,0.050840355,-0.019929253,0.07986287,0.0477966,0.052201904,0.06196236,0.038077123,-0.08308318
-0.07141762,-0.03722367,-0.02010353,0.05381135,0.059926905,-0.054638755,-0.023188435,-0.012662225,0.025928818,-0.002586946,0.059594654,0.058407895,-0.010020025,0.013893388,0.077146865,0.07267284,-0.08288486,-0.010798216,-0.033493962,0.067548,-0.04784849,-0.011861339,0.059323676,-0.042242095,-0.049202707,0.08073517,0.039709054,0.018458813,0.005304389,0.02452761,0.018109202,-0.030339405,0.069194116,-0.015238039,0.08054686,-0.020544395,0.05329474,0.037001744,-0.048046328,0.007845171,-0.017991498,-0.056953877,0.0409083,0.038935624,0.046190895,-0.05448999,-0.031818505,-0.013540603,0.068138905,0.030272163,0.052223764,0.03205491,0.00455147,-0.053059883,-0.08003793,0.06875465,0.03264583,-0.0382891,0.054632924,-0.028812274,-0.010872759,0.054579057,0.02149012,-0.009742752
-0.08279273,0.06958444,-0.050362457,-0.005702734,-0.024825487,-0.0413863,-0.02153933,-0.06441622,-0.08402925,-0.04154409,-0.02292684,-0.017312065,0.036849886,0.028329276,-0.03098118,0.07750171,-0.005561888,0.019486785,0.007407993,-0.027369473,0.04287126,0.004207812,-0.031928346,0.075368054,0.039819963,0.06691364,-0.05760169,0.027164817,0.0403092,0.01486107,0.047260918,-0.05718278,0.009787716,-0.04746071,0.018216357,0.064002864,0.07872955,0.022435397,0.02442918,-0.060636915,0.038455434,0.018812865,0.042488582,0.03211323,0.04869803,-0.03763367,-0.07252567,-0.08122224,-0.014501371,-0.030974623,0.009461522,-0.05869682,0.024886876,0.025751896,-0.020791925,-0.051439438,-0.02233418,-0.051473852,-0.00692267,-0.018863983,-0.080715396,-0.03418539,-0.027497564,-0.007470563
0.03832361,-0.049804512,-0.03891563,-0.015427515,-0.014423117,0.011444315,-0.04074982,0.07874688,-0.007055573,-0.07898172,0.0372943,0.027174562,0.05716955,-0.011995681,-0.000419043,0.045775466,-0.082211,-0.03267665,-0.027679663,-0.079860225,-0.028938983,-0.0224806,-0.014396966,0.0233377,-0.05491852,0.07227408,0.02822429,0.016415015,-0.04728246,-0.07600678,-0.00721354,-0.06394098,0.07208251,-0.025994278,-0.004197963,-0.073998936,-0.011571705,-0.022275522,0.04701533,0.05459819,0.07896053,-0.050534565,0.06441147,0.033460468,-0.014921859,-0.016370855,0.073362835,-0.007547416,-0.060354326,-0.023791984,0.066968076,0.045717455,-0.004845478,-0.04586788,-0.025657557,-0.009260893,0.065005444,0.032901704,0.074408375,0.045929708,-0.014696762,-0.03879524,-0.036847442,0.025657542
0.057711042,0.019635387,-0.060596325,0.01972796,0.037711643,0.045900993,0.004100457,-0.07286311,0.006493859,-0.04274956,-0.001189046,0.020519622,-0.006118313,0.026464544,0.014245667,-0.06128228,-0.047284648,-0.03299919,0.06598965,0.027792953,0.066347815,0.0482165,0.07937034,0.04736898,-0.058324542,0.04680995,0.052066334,0.06618998,0.049210645,0.035644032,0.028781027,-0.043638732,-0.00911139,-0.06098948,-0.056111157,-0.033345535,0.044687234,0.079296924,0.007854477,0.065190636,0.06712935,-0.032685373,0.05968181,0.022977963,0.08100254,0.023468517,-0.048786532,-0.07371951,-0.061118413,-0.059298784,-0.034485612,0.035756566,-0.05951784,0.054188766,-0.0792806,0.030448407,0.049429424,-0.01903756,-0.027439825,-0.027297258,0.06438539,0.059926458,-0.06630412,-0.05354996
0.033862226,-0.07191584,0.020670779,0.058620594,-0.03011375,-0.0794639,0.069927074,0.005313531,0.056343667,0.001045935,0.05572527,-0.014168702,0.017490573,-0.030910086,-0.025197461,0.049708895,-0.059457876,0.013156496,0.010762312,-0.051296525,-0.00035762,-0.060066238,-0.07172262,-0.00580319,0.003864378,0.066539906,-0.063059375,-0.049347624,-0.015138246,0.002300359,0.027848326,0.051887132,0.056533106,0.07100057,0.02069699,-0.009174518,0.03264071,0.06278298,-0.009969831,-0.020258792,-0.0341961,0.028172247,0.051490717,0.07675401,-0.07989522,0.05855287,0.015503362,0.04718385,-0.07982176,-0.046016045,-0.004584923,-0.038916674,-0.016639106,0.03558471,-0.06846714,0.047717325,0.06265471,0.019220658,0.04998628,-0.007975943,0.000244953,-0.020330846,-0.003361605,0.048740007
0.0159273,-0.05191012,-0.02879282,-0.06011407,-0.029499352,0.06955593,0.027485609,-0.009361208,-0.013564147,-0.018019378,-0.02281275,-0.025899962,-0.042518772,0.023498803,0.06713801,-0.07261999,-0.045739125,-0.06097903,-0.07831637,0.025359847,0.035040647,0.033875503,-0.07379,-0.08115474,0.08110858,0.02869983,-0.005000375,-0.082893126,-0.063506134,-0.025587827,0.07075582,-0.023582071,0.007121794,-0.076935336,0.059532903,-0.068369314,-0.027140912,0.001596943,-0.02032353,-0.030951075,-0.07652514,0.003461756,-0.08095249,-0.04527229,-0.036033697,-0.015754312,0.05159641,-0.08183044,-0.071817756,-0.005957432,0.009313136,-0.030833036,0.07951502,0.050059445,0.017108828,-0.005554691,0.016021818,0.007158831,0.015818909,-0.009559326,0.004213125,0.074949406,-0.06559923,-0.08254221
0.05589854,0.053849794,-0.002159275,0.057293706,0.03146819,-0.01478406,0.020586886,0.038420677,-0.048336763,0.008708946,0.06360877,0.062378578,0.06574654,0.08274127,0.059443496,0.06781087,-0.016322844,-0.0541871,-0.054250374,0.015087031,-0.05487193,-0.004245035,0.0599368,-0.037094057,-0.038997054,-0.042610824,0.053943373,0.07113152,0.049565963,-0.07320717,0.061766468,-0.04545786,0.049343087,0.027298778,0.02682539,-0.06763198,0.005208507,-0.007413849,0.032810338,0.032663293,-0.002450571,-0.017743185,-0.012728386,-0.06298257,0.022649802,-0.06692161,0.051843144,-0.08357774,0.043424286,-0.03747945,-0.032242324,-0.079147674,0.044396438,0.030758113,0.000481553,0.019038841,-0.001677081,-0.012789428,0.040481508,-0.02006121,-0.06633486,-0.060947426,-0.058592312,-0.05601692
0.056570895,0.048210062,-0.020900026,-0.042927627,0.015734613,-0.030653726,0.05440826,-0.02649992,0.045237623,-0.01093176,-0.050311778,-0.027959906,-0.07748464,-0.06341472,0.052340172,0.084024675,0.012395956,0.020126835,-0.026330154,-0.009093396,0.07402184,0.0770245,0.034136876,-0.03727256,0.055394538,0.051781856,-0.002370752,-0.07943374,0.030100115,0.017230824,0.050424658,0.002110206,0.02594763,-0.07165417,0.019548275,0.018187776,0.033528738,-0.07290543,-0.07770175,-0.041139524,0.07475629,0.018066242,-0.05617138,-0.049424775,-0.05952494,-0.004702628,-0.082449414,-0.01978971,0.049790613,-0.042226072,-0.06905314,0.04274086,0.03530278,0.06889815,0.043992035,0.02246993,0.00836657,0.059211142,0.040213034,-0.060680516,0.001312986,-0.07043167,0.037361167,-0.05219793
-0.02867793,0.026093587,-0.08384703,-0.07219795,0.047409646,-0.045003176,0.032524034,0.02693332,-0.05099677,-0.07849616,-0.020153247,0.002436437,-0.06786121,0.067051195,0.054232813,-0.008327,0.03542301,0.07196743,-0.013314001,0.038222574,0.040921025,0.041846715,-0.038187522,0.016656354,-0.042007316,-0.026005328,0.06299769,0.06711248,0.068948634,-0.007839508,0.059741937,0.052305736,0.005059198,-0.014394373,0.04491899,-0.01218839,-0.028599452,-0.03270527,0.081093274,0.0451226,0.061878286,-0.06357661,0.07679572,0.06715336,-0.02676386,0.031502485,-0.017606027,-0.021989338,0.021957092,0.075658225,-0.058215663,-0.003738187,-0.054059893,-0.053129956,0.015957065,0.027880833,0.04652732,-0.013653368,0.0716595,-0.030389484,0.052067064,-0.009461381,0.03762769,-0.015189484
-0.015591639,-0.025668614,-0.10259763,0.07704914,0.061630957,-0.031349674,0.08716696,-0.063819095,0.030577179,-0.07558449,0.002300522,-0.05179391,-0.047421966,0.06780309,0.017670315,-0.009609311,-0.030807877,-0.005105606,0.09624814,-0.024115708,-0.031325877,-0.060159724,0.047424063,0.065598235,-0.05232527,-0.004196903,-0.084464505,0.022786172,-0.03351216,0.07866659,0.04361052,0.03763748,0.008405575,-0.04785306,0.000947648,-0.0436352,0.033003345,-0.02162031,-0.06850035,-0.03826802,-0.07826635,-0.015010246,-0.021308674,-0.03379518,0.03181585,-0.057451554,0.029948357,-0.064030245,0.021602008,-0.10023753,-0.045251645,-0.029354503,-0.000476151,-0.06384835,0.02605449,0.08027178,0.037832975,0.074774355,0.07394682,0.085677676,0.028518185,0.04916343,-0.0786899,-0.05522708
0.09347903,0.078090735,0.01014207,0.07259746,-0.002059043,0.026066564,0.059180126,-0.06054294,-0.041067515,-0.032503758,0.04804594,0.019306142,-0.05591082,-0.08913392,-0.015039158,0.037313342,-0.08652172,-0.03196495,0.003955517,0.044302925,-0.054497276,-0.029051527,0.09276992,-0.10700739,0.053181663,0.050371148,0.022582194,0.12318499,-0.04816842,0.023646766,-0.006827845,-0.10226337,-0.06801,0.007794846,-0.0143086,0.05004689,0.061732613,0.047240324,0.08720223,0.057935547,0.070192985,0.000675363,0.035579495,0.083624765,-0.02943648,-0.031096881,-0.002790946,-0.06083769,-0.050937932,-0.05966565,-0.10168648,0.008494322,-0.01841182,-0.078396976,-0.08715673,-0.053948782,-0.027258316,-0.050229702,0.028264698,0.049242087,-0.011062501,-0.035774127,0.03406825,0.016229166
0.011095786,0.16806893,-0.16909894,0.045614216,-0.020949677,0.02420468,0.11634218,-0.0756595,-0.049961127,-0.063038364,0.13969351,0.21612966,0.106800735,-0.110625714,-0.03728964,-0.022067273,-0.006773751,0.042236034,-0.019593745,-0.083955534,-0.15753467,-0.09319046,0.14422423,-0.034914006,0.18524118,-0.1364223,-0.09863195,0.073716275,-0.013901315,0.18030863,-0.057992116,-0.14597836,-0.16099085,-0.00200439,0.10103597,-0.047386933,0.03423206,0.052297406,0.1547321,-0.06350245,0.04022272,-0.19191974,-0.01837642,-0.0168056,0.06744707,0.10704534,-0.07202204,-0.08321626,-0.0775164,-0.15753104,-0.04064492,0.055018526,0.08997845,-0.09117203,-0.13461924,0.03049904,-0.13800043,-0.09509316,0.154838,0.012380027,0.027639063,0.11973606,-0.15585399,0.021428326
0.019287258,0.1874642,-0.14517473,0.050515924,0.054404635,0.0541562,0.17783664,0.027441183,0.0759959,-0.19484732,0.07328216,0.13153748,0.102623,-0.22949553,-0.03972913,-0.004046074,0.0241665,-0.02957036,0.0725391,-0.056400184,-0.19255483,-0.1346058,0.044809956,-0.12457048,0.16917694,-0.0200456,-0.093268216,0.21569529,0.15468778,0.1432794,0.034152336,-0.08003157,-0.21035828,0.16561729,0.12799916,-0.114196956,-0.009647681,0.021988621,0.09182585,0.047458302,-0.03198455,-0.1395187,-0.17005144,0.021275965,0.1376001,0.15131614,-0.17162777,-0.043593645,-0.1809549,-0.13454552,-0.14188325,0.041842066,0.11245724,-0.015207221,-0.063262336,0.06826679,-0.055161122,-0.04207975,0.014137742,0.06430046,0.18918285,0.073178954,-0.07209605,-0.000158699
0.09678442,0.042368047,-0.1145219,0.04387016,0.022231888,0.056112587,0.004143958,-0.014944775,0.06888176,-0.12701775,0.10298693,0.043806743,0.116224475,-0.16056074,0.010481289,-0.030389514,-0.011318093,0.090523526,0.05561142,-0.044216238,-0.071879074,0.025223738,0.1361724,-0.060862564,0.01547729,-0.1560759,-0.11218851,0.1551161,-0.0320901,0.08032077,0.04111407,-0.028671538,-0.19206,0.1474236,0.0710835,-0.013336045,0.010733763,-0.002201044,0.04397936,0.03766525,0.05066789,-0.10477407,-0.14286682,-0.09762966,0.1475329,0.1682106,-0.14150421,-0.13239323,-0.09494372,-0.07601183,-0.047541678,0.106369264,0.12477181,-0.049351394,-0.054524083,0.14148517,-0.043176733,-0.014403826,0.007956165,0.072592355,0.12885046,0.11321891,-0.102676466,0.03999513
0.009507883,0.10572902,-0.022765499,0.062884994,0.006143743,-0.010803246,0.12666437,-0.081357054,0.09392357,-0.060720567,0.047427688,-0.000566615,0.051969428,-0.08819172,-0.009949341,-0.018555837,-0.06402653,-0.028295271,-0.003205857,-0.05543922,-0.058491968,-0.06829818,0.15577379,0.022131793,0.082037054,-0.17037521,-0.11073252,0.04911054,-0.1102595,0.08800222,0.02216983,-0.1277527,-0.17012554,0.1344808,0.07470149,-0.12072583,0.045718204,-0.026954316,0.035563774,0.019939473,-0.07821982,-0.099535935,-0.14465597,0.025549442,0.0780293,0.0402212,-0.07303612,-0.0694596,-0.007477046,-0.18902375,-0.04219809,0.09720907,0.114627995,-0.087048545,-0.08572282,0.07867354,-0.003446268,-0.069535665,0.04676021,0.11923145,-0.0453394,0.13909505,-0.13154507,0.05791482
0.09172276,0.1626311,0.008184383,0.16361934,-0.069468886,-0.071799085,0.12188183,-0.06941019,0.026139406,-0.21261497,-0.057090122,-0.023017677,0.06111224,-0.016963003,0.037672557,-0.073407166,-0.08976206,-0.023269065,0.123030655,-0.14787373,0.027582116,-0.05494815,0.121595584,0.03570909,0.09888929,-0.12784816,-0.06573668,0.09399754,-0.1485756,0.22472385,0.08007547,-0.07411734,-0.10848231,0.06786225,0.057296403,-0.13368165,-0.043431334,-0.019211227,0.014073866,0.032640915,0.061909754,-0.02503655,-0.004730028,0.10183457,0.08089175,0.098564215,-0.1568796,-0.036314327,0.0593711,-0.17616665,0.079807624,0.039748512,0.20117347,0.028689967,0.07982346,0.11370482,0.045031853,-0.15946232,-0.053124506,0.031186929,-0.08068567,0.08595718,-0.087031,-0.033837084
0.024311952,-0.04032843,-0.021105338,0.048481274,0.00732418,-0.03524449,-0.06990503,0.09015981,0.095979206,0.11255113,0.018668573,-0.113764286,0.01813828,-0.040731564,0.006087165,-0.085754044,-0.05691828,-0.09783741,0.12439124,0.025225876,-0.054981325,0.10019458,0.106201656,-0.13424523,0.050838005,-0.1890548,-0.059744928,-0.00971242,-0.05343057,0.09792399,0.123006076,0.032541394,-0.2174925,0.10988442,0.08317034,-0.116955936,0.013758831,-0.12375296,0.072818525,0.04119105,0.029463341,-0.17951638,-0.19164322,0.041442987,-0.010418085,0.13218185,-0.20513761,-0.113498904,-0.021029813,-0.06164149,-0.04030035,0.19428165,0.31389385,0.015374193,0.04205465,0.07901943,0.076219596,-0.16123587,-0.17432092,-0.015131117,0.048086107,0.04158231,0.009151133,-0.021232404
0.1530165,0.01723257,-0.026921982,0.112253845,0.0911689,0.030624015,-0.014568995,-0.021095427,0.08858459,0.058250435,0.0993343,-0.07056878,0.11153112,-0.049532905,-0.21954505,-0.09497219,0.001458657,-0.096901946,0.09297815,0.025650818,-0.2009842,0.13755238,0.20968267,-0.09557257,-0.100738175,-0.17260955,0.00363935,-0.06535854,0.034367215,0.11233936,0.13009751,-0.057630323,-0.09772643,0.10175341,0.004792526,-0.14031583,0.06651555,-0.036498573,0.12591483,-0.05345032,-0.018542873,-0.14964719,-0.21362852,-0.08889897,0.032982927,0.22417378,-0.22443902,-0.03144575,-0.076629,-0.096831754,-0.07181422,0.106032595,0.20498894,0.006891931,-0.02176132,-0.039871067,-0.04490282,-0.16858664,-0.052705426,0.00335666,-0.02983565,0.119019896,-0.11885171,0.021239052
0.25104982,0.12664452,-0.10166234,0.083357535,-0.028782649,0.005361256,-0.009638299,-0.01510195,0.08373729,0.047105223,-0.056764238,-0.031859186,0.008247323,-0.12295801,-0.10761133,-0.0850395,-0.078119226,0.009981288,0.07410216,-0.11845543,-0.13268067,0.023022095,0.241477,-0.14185062,-0.067705765,-0.24677487,-0.086843126,-0.015264023,-0.023441488,0.1923957,0.14793706,-0.00988591,-0.17689554,0.1782719,0.015235207,-0.15003422,0.013945905,-0.019911753,0.2151967,0.012233206,-0.10336011,-0.06361987,-0.30051383,0.095095575,0.033228863,0.21770576,-0.12550968,-0.17511578,-0.14452276,-0.10520813,-0.017480357,0.26735196,0.28440112,-0.09071598,-0.03391285,0.014682989,0.012866951,-0.057046123,-0.1572132,0.060231898,0.068610676,0.08888046,-0.013699226,0.12558122
0.3278908,0.18454996,-0.124167345,-0.006926789,0.058458075,0.04523563,0.05038089,0.091269985,0.16820799,0.05817877,-0.114672266,0.16876322,-0.072313085,-0.07853975,-0.06258506,-0.0774173,-0.014463821,0.06074308,-0.011265362,-0.036541812,-0.08592894,-0.14153023,0.07029926,-0.029598206,0.16416013,-0.085856766,0.06930284,0.14186059,0.005532056,0.34980324,-0.052261546,-0.13060184,-0.11036851,-0.07086043,0.15148449,-0.025584418,0.001914383,0.05112152,0.08327642,-0.118251026,0.08097826,-0.10943358,-0.23066483,0.16858551,0.13510606,0.08121433,-0.16963725,-0.05215046,-0.059994813,-0.23291835,-0.089924075,-0.038545262,-0.056164417,-0.08603801,-0.12203357,-0.066448204,-0.03533639,0.11602848,-0.06647665,0.12273813,0.06944473,0.10786503,-0.06687916,0.07644697
0.21195513,0.14718929,-0.12560894,0.09183943,0.09149903,0.19158272,0.030023705,0.17853637,0.118748054,0.08340604,-0.07866585,0.035119656,-0.14358164,-0.17909569,-0.021396924,-0.11482991,-0.004052134,0.00881705,-0.062113326,0.018088602,-0.3102752,-0.14745268,0.026069408,-0.061589107,0.16753381,-0.21466176,0.120404534,-0.053108297,-0.03706991,0.30760258,0.1154464,-0.000619639,0.11351868,0.059127014,0.037237503,0.024259392,-0.18200606,0.1046216,-0.016505515,-0.12012539,-0.104336455,-0.1277925,-0.09644869,0.0443194,-0.0853597,0.04517402,-0.15148996,0.003458173,-0.23345381,-0.17654514,-0.1720448,0.16680926,-0.066929914,0.004224661,-0.06433751,-0.013055453,0.012490673,-0.023957215,0.02407852,-0.01441904,0.12384134,0.3100854,-0.12058151,0.1052947
0.15774187,0.008761793,0.025280593,0.07658553,-0.003369189,0.15115108,0.15753692,0.2214423,0.13399059,0.21234545,0.19368474,-0.1560352,-0.15008989,-0.099500865,-0.022324849,-0.08320184,0.19476411,0.1256512,-0.14469528,0.058577135,-0.16944927,0.21572566,0.10453831,-0.1461111,0.117086664,-0.067491315,-0.16487503,-0.084092416,0.07969877,0.2515624,-0.000984535,0.054379154,0.20443638,0.12285376,0.023672502,0.065325886,-0.23636377,-0.089879036,-0.010717618,-0.1600193,-0.19432713,-0.24037926,-0.081888616,-0.12807077,-0.16572861,0.16562618,-0.16043131,-0.07737342,-0.15535583,-0.22856683,-0.0601514,0.13728155,0.14447813,0.002944737,-0.20638484,-0.13217132,0.11144834,-0.11042587,0.17954488,0.13398212,0.175586,0.1412738,-0.047847673,0.22260845
0.13196795,0.045338202,-0.122591525,0.2577972,0.011860247,0.110783786,0.11632447,0.1842118,0.05368729,0.10049353,0.023111643,-0.10061928,-0.049268674,-0.28576702,0.02583551,0.025106823,0.054547742,0.068773545,-0.090603106,-0.015834412,-0.27899906,0.18790196,0.089616075,-0.058852334,0.031536143,-0.19403118,-0.21350728,0.003722812,0.064226225,0.3506456,0.15218437,0.07799557,-0.026717164,0.18034868,0.05895705,-0.08937846,-0.21434212,-0.12906152,0.1240095,-0.11049571,-0.15918994,-0.13287064,-0.112296455,0.0244366,-0.14525735,0.24016543,-0.21043354,-0.12979887,-0.24526566,-0.21169211,0.103404835,0.24488628,0.18424629,0.009249798,-0.14443482,-0.066441216,0.004378351,-0.10116781,0.15956506,0.018533766,0.05761832,0.3014148,-0.0978126,0.14751044
0.19783649,0.069146454,-0.1769006,0.09498963,0.04735323,0.00126931,0.127964,-0.24150424,0.0555391,-0.23234035,-0.046532866,0.08493604,0.12877974,-0.23473132,-0.07919757,0.06285156,0.050478157,-0.027184598,-0.01710349,-0.099058405,0.011529772,-0.007291117,0.1045928,-0.1282424,0.051889114,-0.22920461,-0.18450685,0.17299451,0.101775795,0.13211405,0.27094015,-0.2629541,-0.17719814,0.14750686,0.12556507,-0.020065662,-0.022131313,-0.13390031,0.1372875,0.09662465,-0.07993269,-0.012790677,-0.068310544,0.1685256,0.09242152,0.15179482,-0.16308485,-0.1652426,-0.090223804,-0.15410738,0.010659765,0.05025416,0.11142632,-0.18386193,-0.06273431,0.23587856,-0.058317214,-0.11999426,-0.15174893,0.024768548,0.04397993,0.11003165,-0.051999036,0.034243174
0.09400963,0.22979362,-0.10193393,0.19428676,0.008873075,-0.078064546,0.11106854,-0.055396933,0.035169706,-0.15186076,0.16897158,0.14731373,0.2453755,-0.05079748,-0.094284266,-0.05786904,-0.1251818,-0.08297722,0.21732914,-0.19721521,-0.16437423,-0.050752122,0.11328423,-0.0591459,0.07487896,-0.18714774,-0.1515161,0.13215345,0.010739665,0.04673908,0.23036802,-0.1997434,-0.10434481,0.20771909,0.0853755,-0.096021295,-0.027866254,-0.18345137,0.13823393,0.074357376,-0.15464707,-0.15361963,-0.055117577,0.19509597,0.14276153,0.19732425,-0.12106366,-0.037158705,-0.101480044,-0.16558592,0.000321821,0.004590106,0.17662159,-0.12283919,-0.16017643,0.043774012,-0.19205673,-0.21274833,0.080326505,0.086309604,0.16992718,0.15403312,-0.12468535,0.21235186
0.15073162,0.15659137,-0.14650504,0.12971447,0.02087728,-0.04984288,0.18218513,-0.20070021,0.0258641,-0.14870708,0.10601702,0.22705346,0.22794493,-0.12832642,0.03269125,-0.010065232,-0.04136502,-0.04888006,0.25060755,-0.2307041,-0.12890874,-0.13199617,0.08095439,-0.008459808,0.24323218,-0.18001406,-0.1291771,0.22972375,-0.006449694,0.13396357,0.23234257,-0.0886392,-0.10514772,0.13533118,0.21357465,-0.20113806,-0.15531407,-0.0692826,0.27832377,0.049479388,-0.022880146,-0.13568462,-0.19356535,0.21491003,0.18755636,0.11869804,-0.082318515,-0.13313867,-0.12578721,-0.13311833,-0.12856387,0.031271495,0.15605704,-0.099781044,-0.09791236,0.09332404,-0.21904822,-0.20829016,0.06471452,-0.04454593,0.1768611,0.17357007,-0.060028534,0.19616494
0.030116031,0.05113785,-0.18647233,0.19155927,-0.006750621,-0.025430258,0.17653403,-0.028544454,0.08620992,-0.15228191,-0.073435515,0.13067137,0.121099755,-0.10382235,-0.103660986,0.023228642,0.016705498,0.036514316,0.06901505,-0.12951745,-0.16477264,-0.02054666,0.028916424,-0.05630254,0.016658742,-0.08456666,0.08529176,0.029183658,-0.0809375,0.0862611,0.2150031,0.039003763,-0.09155366,0.1321076,0.10822905,-0.061207682,-0.15530632,-0.04371074,0.20490038,-0.04479358,-0.018361123,-0.15054601,0.020653129,0.16076265,0.06174796,0.15444988,-0.1473447,-0.05483457,0.006169837,-0.1434301,-0.034767475,0.09499163,0.042657405,-0.1275171,-0.042194426,-0.008374343,-0.07350104,-0.06280934,-0.01478398,-0.07007567,-0.13343692,0.13713787,0.002381312,0.095981635
0.04766449,0.057030957,-0.05697207,0.15305316,0.016580686,-0.027592864,0.18128307,-0.10143141,0.15644683,-0.086122915,0.002275083,0.13794968,0.18905915,-0.17624274,0.06849565,-0.034647077,0.084407456,-0.06332892,0.12660493,-0.047526114,-0.123612165,-0.18987419,0.0857846,-0.11322334,0.05245367,-0.09513512,0.05818789,0.16718468,0.14284255,0.1280634,0.11780881,-0.067621924,-0.04002523,0.10941881,0.030099744,-0.16621462,-0.22368142,-0.012247711,0.17208436,-0.045715787,-0.0904119,-0.11178721,-0.1345802,0.18663603,0.09313319,0.10466987,-0.14924268,-0.011902028,-0.10891401,-0.05904004,-0.058054235,0.16296594,0.16505662,-0.000959894,-0.05306796,-0.1511329,-0.088787936,-0.13755652,0.028725373,-0.013561176,0.15030576,0.08045518,-0.10371194,0.11564747
0.10638354,0.063563064,-0.034845546,0.02916935,0.002960786,0.075701855,0.08355008,-0.030184029,-0.006154384,-0.01681354,0.035979707,0.05460712,0.18993638,-0.072457805,0.023295173,-0.06438557,-0.05565432,-0.044098686,0.076363795,-0.1850831,-0.085546605,-0.1364476,0.16601521,-0.07906342,0.118795335,-0.06803967,-0.003499326,0.14737998,0.11537523,0.06006769,0.03637959,-0.090344846,-0.09050227,0.20433654,0.028137175,-0.16153206,-0.15096855,-0.02747779,0.18416141,-0.085858084,0.060476754,-0.19776756,-0.15462025,0.103426,0.056821335,0.11603425,-0.14203683,-0.08532853,-0.05045549,-0.13567032,-0.097935244,0.029883768,0.07214418,-0.025478465,-0.039923634,-0.15133497,-0.053325735,-0.16519147,0.041780647,-0.004322205,0.117278494,0.08882911,0.002983922,-0.005261502
0.055628963,0.001568742,-0.0456711,-0.042517025,0.019726261,-0.04726425,-0.055945203,0.005380318,0.0784897,0.05064384,0.07850609,-0.035828035,-0.081348665,0.008602314,-0.06441626,-0.030870195,-0.032084573,0.017629214,-0.016253434,-0.009275034,0.06892484,-0.07398028,0.046721034,0.05919019,-0.005759373,-0.08324093,0.041011833,0.001352698,-0.019116148,0.03068497,0.011340477,-0.048901465,0.022342667,-0.03481224,-0.068537,-0.028870594,0.001369417,-0.041945726,0.013997875,-0.07029814,-0.024159107,0.051762514,-0.012415148,-0.055873625,0.07568062,-0.009039506,-0.016698912,0.06303982,0.024204269,0.029869303,-0.003374755,-0.03404208,0.02735293,0.084022336,0.07939487,0.031981632,-0.07393606,-0.06723091,0.06187012,-0.06625107,-0.06407298,-0.027513128,0.066678606,0.010551557
-0.01577174,-0.006511428,-0.06364702,0.00737077,0.03503868,0.015149757,0.055485122,0.023874186,-0.05593445,0.004384115,-0.039708395,-0.041374408,0.056259997,-0.029591583,0.023647748,0.03299111,0.072036974,0.032125585,0.010293692,-0.024375897,0.05634039,-0.013825864,-0.055155084,0.027130082,-0.07190463,0.031115785,0.05807326,-0.014078975,-0.015660673,0.04732824,0.07387478,0.04024785,0.048024334,-0.08129133,-0.025690187,-0.035789993,0.020620584,-0.057856623,0.064317174,0.054269426,-0.049077183,-0.040913727,0.077735804,0.08250921,0.019312829,-0.015957944,0.02951046,0.025786608,0.070722036,0.07315882,-0.08109548,0.036521755,0.022094347,-0.023772772,-0.042854607,-0.019077845,-0.02295199,-0.045592207,-0.07941258,-0.036372524,0.02583374,-0.019656025,-0.039610248,-0.005113028
-0.044578478,-0.003580518,0.04979057,0.051582433,0.04908932,-0.043154947,0.061140247,0.043205746,-0.016845532,0.06548219,-0.06319661,0.005889267,0.04282435,-0.073933415,0.015454531,0.06915336,0.0803413,-0.03903239,-0.03780181,0.074850075,0.041404374,-0.025501333,0.017262831,-0.03854921,-0.024746649,0.001792833,-0.003480867,0.00888966,-0.050288733,0.049949594,0.050025977,0.06465245,0.005671009,-0.04318856,0.021303028,0.081809886,-0.047175672,0.026525572,-0.027292926,-0.012061507,-0.0367885,0.042805113,-0.036545016,-0.042148802,-0.017857656,0.046440847,-0.018875055,0.072403096,0.05059933,-0.07195116,0.036569178,0.07090933,-0.076462165,0.012145393,0.039470904,-0.043981127,-0.014456824,0.002735451,-0.0692808,0.001130909,-0.06322104,-0.018064357,-0.019392885,0.062326185
-0.017847568,-0.06589718,-0.031913403,-0.023105789,0.05906523,-0.078526616,-0.054917216,-0.002459094,0.072921835,-0.06789043,-0.05236322,-0.004009008,0.051212512,0.011260115,0.006842025,0.07341362,-0.05699417,0.057852738,-0.044050314,-0.015245721,0.066439666,0.048887633,0.03421154,0.073040895,0.04699961,-0.03599002,0.05534663,0.08005915,0.036360532,-0.044730254,0.059869356,-0.044714026,0.077183224,0.005878255,0.030713007,-0.05325664,-0.011411585,0.009385757,-0.05584844,-0.06767121,0.00221473,0.029686823,-0.06967707,-0.04198247,-0.07662499,-0.036551774,0.00592494,-0.05090716,-0.0830385,0.0631131,0.047306232,-0.07745764,-0.04620616,0.060733058,0.069139175,0.073560216,0.052892633,0.001577526,-0.005804315,-0.023980718,-0.013200775,0.070608474,0.05901503,0.01206094
-0.003814019,-0.07166458,0.00336501,-0.019421205,-0.03179795,0.063938476,0.052263163,0.045677714,0.07757031,-0.026443023,-0.029809538,-0.0724832,0.052628018,-0.07185128,-0.07537768,-0.055918127,-0.06526411,0.0702756,-0.024983216,0.00411839,0.024082057,0.06698101,0.07423327,0.03954708,0.00220149,-0.031360935,-0.024362601,0.08189603,0.06286823,0.06625488,0.073449574,0.07741336,0.03197477,-0.08163882,0.057971783,-0.062002588,0.016231954,-0.041358303,-0.05382449,-0.060577437,0.044749208,0.029643223,0.07688334,-0.057453062,0.059557788,0.007761598,0.062157266,-0.051527858,0.03406205,-0.07138678,-0.026969142,0.011084653,0.007839173,0.04454597,0.05277536,-0.07926923,0.015949123,0.007746816,0.042654656,0.052842624,0.013477013,0.06023205,-0.035760254,0.018139929
0.002552532,0.027565472,-0.002246514,-0.004322164,-0.05246207,-0.07447383,-0.06520379,0.03417793,-0.03232583,-0.018458359,0.079384886,-0.072153896,-0.027260918,0.020716846,0.07935504,0.027798668,0.01944182,0.007870235,0.04886102,0.057777487,0.011277907,-0.06809306,-0.00797189,0.055326752,0.058622934,0.04822711,-0.06065166,-0.044793345,-0.066024035,0.06066764,0.05003079,-0.03174222,0.06067676,-0.0658787,0.050323002,0.06243547,-0.028286137,-0.06407407,0.02979865,-0.007072955,0.080423735,0.043235816,0.040043153,0.03668213,0.07645535,0.05535624,-0.059573874,0.0321223,-0.058973536,-0.07148848,0.006113559,0.017504968,-0.07862848,0.04027897,0.012161836,-0.02957207,0.03704019,0.05496476,0.018912539,0.019555494,-0.019917563,-0.07159607,0.056357674,0.04993228
0.085748985,0.00435834,0.009969031,0.103143185,0.07439909,-0.007173687,0.000641256,-0.0735573,-0.050602593,0.000766879,-0.0730203,-0.030932743,0.08789656,-0.06173085,-0.075020276,-0.0852015,0.032674424,-0.0511186,0.06767118,-0.116592966,-0.039552476,-0.056376234,0.04237076,0.041472584,0.014925997,-0.073544554,-0.08373232,0.11228228,0.00623481,0.11688655,-0.003021881,0.02623162,-0.089044996,-0.03827566,-0.030047687,-0.06812102,0.030912675,-0.002559632,0.012756058,0.06282783,0.05406829,-0.08031663,-0.03352835,-0.005323955,-0.051268045,0.12761134,-0.047825027,-0.050987903,0.028550457,-0.12508635,-0.015363651,0.058685225,0.027694728,0.003173642,-0.069026746,-0.050707057,-0.08216149,0.06988135,-0.006980511,-0.041905813,0.003701744,0.101513445,-0.0249391,0.10712982
-0.083739154,0.001810631,-0.061158992,0.16731536,-0.00361824,0.031324305,0.013841518,0.10243471,0.20842484,0.1775032,0.050154373,-0.07734989,-0.15981182,0.014341754,-0.025023568,-0.006549977,0.07621169,-0.0884324,-0.03389185,0.2190054,-0.10178636,0.01796987,0.1913149,-0.09082085,-0.08046908,-0.17682669,-0.022346236,-0.22848523,0.070722036,0.058271334,0.21841477,0.081165165,-0.04088262,0.1881598,-0.021899747,-0.037122093,-0.16122276,-0.11178974,0.042609457,-0.16499956,0.045870684,-0.15154116,-0.0668402,-0.011342782,-0.04565879,0.12575984,-0.096811794,0.013286293,-0.096908204,-0.13257958,-0.1815664,0.12999713,0.10181273,0.018108198,-0.004036971,-0.14810687,0.1238418,0.008162684,0.1314244,0.06943009,0.07349958,0.19491947,-0.039240215,-0.056955107
0.10866296,0.11607564,-0.08700681,0.15074918,0.030388303,0.07062732,0.11414067,0.10933758,0.2381348,0.12703457,0.09597659,-0.013370245,0.03291302,-0.12487914,-0.030459084,0.040365476,0.005683664,-0.086434714,0.12833448,0.00737408,-0.1806719,0.002178076,0.17972606,-0.12909374,0.060151596,-0.21076259,0.054928258,-0.10768011,0.02373719,0.17016411,0.20115453,0.07075605,-0.082570486,0.1997185,0.0757123,-0.160786,-0.098139346,-0.22620769,0.03376962,-0.145033,0.007487752,-0.14524533,-0.108339906,0.02001644,0.12713715,0.21889873,-0.107109845,-0.10258795,-0.1628982,-0.1542042,-0.08925885,0.24623913,0.16474551,0.021885127,-0.123425215,-0.053638175,0.04147981,0.022297177,-0.03589338,-0.04394079,-0.06365701,0.1211255,-0.063924015,0.0661533
0.09668229,0.10883379,-0.02096479,-0.001080225,-0.060274046,0.042026024,0.063864805,-0.06998555,-0.001983608,-0.12289631,0.053615022,-0.04087301,0.03282296,-0.04387001,-0.048458662,0.018180665,0.037907712,0.079132326,0.027939878,0.02117485,0.015630564,0.09111446,0.11571787,0.002358278,0.051927205,-0.09783578,-0.08112775,0.061242245,0.09841169,0.07209746,-0.025056189,-0.052850623,-0.03690707,-0.049494598,0.018739328,0.03670322,-0.00887292,0.057451624,0.03827356,0.035121776,0.003565045,0.018175248,-0.07612823,0.050345745,-0.06443358,-0.035290282,0.044772644,-0.027306175,-0.0013415,-0.13756706,0.064004645,0.028762879,0.08433609,-0.027488258,-0.018398182,-0.039164186,-0.05434661,-0.06529938,-0.024571303,0.052795313,0.041471627,0.067114,-0.0395156,0.04074865
0.018673874,0.103636295,-0.08020474,0.08347876,-0.07031688,-0.020442808,0.06515567,-0.07078056,0.000463753,-0.15398237,0.18682182,0.15265444,0.04160753,-0.096036784,-0.08773953,0.004497055,-0.09385707,-0.03011894,0.086792015,-0.119830586,-0.05648093,-0.070592925,0.12814648,0.004571293,0.09531701,-0.030420875,-0.24603188,0.107306816,0.1372431,0.107790776,0.08837403,-0.014752714,-0.17656952,0.07991809,-0.037696477,-0.14869227,-0.06771013,-0.005405042,-0.004962064,0.038084917,-0.09401467,-0.05337824,-0.02111418,-0.07209538,0.002669538,0.035018675,0.009103525,-0.0703981,-0.17101003,-0.14201932,0.044400495,0.1752849,0.16275594,0.02087263,-0.15547773,0.16537331,-0.10317312,-0.16634232,0.019788474,-0.018238772,0.11387028,0.09612128,-0.19535464,0.07828033
-0.004521509,0.10793157,-0.14519139,0.08032023,-0.03861747,-0.07981317,0.22390014,-0.022937914,-0.026179198,-0.10632433,0.19274534,0.101419926,0.029135522,-0.117178954,-0.072190545,0.03571451,-0.029327963,0.04755893,0.057779927,-0.07208539,-0.18061206,-0.055360828,0.2297078,-0.061172143,0.08144295,-0.20518027,-0.21542545,0.16004942,0.041831136,0.18330514,0.022033934,-0.09822194,-0.13948737,0.19235075,0.00512413,-0.12813585,-0.11320757,-0.04082744,0.12759544,0.11768498,-0.10477912,-0.0641288,-0.07117972,-0.0195157,0.059558213,0.16258292,-0.052043725,-0.061438665,-0.0773455,-0.18812905,-0.03875559,0.19006652,0.23853752,-0.06265859,-0.07048603,0.14717324,-0.18762459,-0.10956301,0.09081169,0.01293029,0.1685165,0.22645786,-0.095038086,0.044038113
-0.12288925,0.13952209,-0.17854656,0.122883305,-0.1403057,0.040977478,0.20340045,-0.035880506,-0.052718967,-0.18552418,0.07786597,-0.108498335,0.07752355,-0.29123095,0.121217586,0.08586336,0.07737577,0.13306357,0.107625075,-0.20793144,-0.14109758,0.13305332,0.1498412,0.07762714,0.22151448,0.09773674,-0.08049204,0.27861732,0.17810535,0.1539364,-0.063572675,-0.19688183,-0.21985759,0.2557694,-0.08202093,-0.029093958,-0.03067822,0.006661652,0.082678966,0.14026403,-0.10406117,-0.0767819,0.027470244,-0.044681214,0.045757927,0.24666882,0.15203263,-0.078984395,-0.14391416,-0.23880476,-0.13962798,0.18896496,0.08593136,-0.14697586,-0.15040186,0.23056498,-0.06276551,0.03660816,0.06703672,0.16196963,0.23044957,0.20375533,-0.23160757,0.06892865
-0.16414192,0.110176526,0.012013078,0.002923015,-0.058332894,0.04659938,0.24111544,0.034721468,0.07764756,-0.13017198,0.13435696,-0.062763646,-0.03513986,-0.25476,0.08606521,0.057627045,0.1674268,0.20138185,0.15646708,-0.044091713,-0.19817099,0.32754022,0.06103069,0.34187558,0.26038307,0.262783,0.062329184,0.12402329,0.09817083,-0.04722047,-0.09300783,-0.16483966,-0.24157718,0.085163236,-0.039040253,0.018829085,-0.13216452,-0.004052569,0.045131624,-0.007611006,-0.18968265,0.09534211,0.1438231,-0.17927602,0.11817347,0.04572524,0.17600851,-0.02085478,-0.12709753,-0.24666741,-0.2398609,0.044529382,-0.071137406,-0.0861831,-0.114137284,0.029948315,-0.07657059,0.06825043,0.15803619,0.04293251,0.13846803,0.048809722,-0.21134382,0.111908175
-0.003774957,0.14561884,-0.11145713,0.08061097,0.024401607,0.037040994,0.20805755,0.025122909,0.14664006,-0.17045459,0.06579426,0.05285097,0.038699105,-0.2687381,0.11713126,-0.01680951,0.04463292,0.067193344,0.14405574,-0.11565065,-0.26646718,0.39707774,0.12828419,0.27192566,0.1835552,0.14962934,0.017579652,0.24110441,0.13995683,0.120665625,-0.022067165,-0.2391678,-0.36683524,0.044267144,0.044304803,-0.0421509,-0.08542923,-0.06431002,0.16415156,0.03763586,-0.2527967,-0.06832091,-0.124462195,-0.14472196,0.08573582,0.13612677,0.20875981,-0.14798732,-0.044486437,-0.34689212,-0.24211931,0.13847886,-0.06724818,-0.07498839,-0.21607696,0.16410989,-0.09421426,0.005874873,0.18146873,-0.014910843,0.20889685,0.07898098,-0.22384891,0.07691427
0.039053164,0.27349848,-0.12574336,0.1305566,-0.001570182,0.08243215,0.2172382,-0.056048557,0.27434525,-0.19720821,0.04089328,-0.033929747,0.030706523,-0.37616512,0.22047068,-0.085773475,0.08599326,0.16617003,0.23055106,-0.15724295,-0.37135267,0.2700836,0.17921111,0.3110347,0.26012102,0.091386445,0.07649744,0.21297003,0.17347893,0.25255364,-0.13226657,-0.29078805,-0.2941565,0.15274167,0.086836874,-0.08877405,-0.023179905,-0.13291903,0.070097536,0.151091,-0.12767893,-0.028488997,-0.070263304,-0.16184217,0.18011867,0.21701866,0.2105769,-0.11921186,-0.07053255,-0.3275111,-0.1883382,0.21941665,-0.047956772,-0.088770375,-0.034774944,0.075898975,-0.028994275,0.07871906,0.060141932,0.15262726,0.110402554,0.23319769,-0.09159171,0.06938585
-0.100885406,0.18448074,-0.007370651,0.11934299,-0.144903,0.10816739,0.24623586,0.1220817,0.4758331,-0.13130893,0.109488085,-0.17273751,-0.08712259,-0.3962508,0.2089441,-0.06730969,0.17203084,0.04192197,0.1519117,-0.04415458,-0.1946832,0.27674013,-0.12793855,0.15052223,0.19217485,0.056000326,0.116480105,0.2416752,0.002628163,0.21828501,-0.15867758,-0.09526733,-0.21073231,0.09031542,0.002209081,0.023928529,-0.013421449,-0.037978083,0.069190055,0.09361009,-0.22891468,-0.03555415,-0.035624843,-0.2771753,0.09392348,0.12253481,0.15421237,-0.09260071,-0.0502886,-0.23517457,-0.18267687,0.13161354,-0.11859444,-0.19154152,-0.109155715,0.054694913,-0.010020711,0.11109479,0.0987434,0.07382931,0.02799549,0.09894403,-0.2375264,-0.10031477
-0.011839789,0.11703936,-0.00481232,-0.00307968,-0.014315695,0.13789102,0.07211958,0.21629861,0.35289818,-0.09636589,-0.15330693,0.03711825,-0.103938185,-0.43888354,0.007376516,-0.13444063,0.11991975,0.123486176,0.1715073,-0.112638205,-0.15129106,-0.1080851,0.23729202,0.21255934,0.17739792,0.043912493,0.23656319,0.06061271,-0.051197663,0.21514072,-0.041601602,-0.16411772,0.04898795,-0.10408753,0.054053437,-0.08333895,-0.15779151,0.08426372,0.058716394,-0.073629215,-0.33639374,0.1454381,-0.05042254,0.049785633,0.107622586,-0.074863665,0.03890194,-0.022599066,0.079963885,-0.21061419,-0.1352124,-0.1627177,-0.047086783,-0.15825331,-0.034201965,0.22130397,-0.17641662,0.25749674,0.06892259,0.1634049,0.042775568,0.12602736,-0.2747141,0.009876346
-0.054565374,0.23664789,0.014917342,-0.005803748,0.20567851,0.031656533,0.051479112,0.035819266,0.19384049,-0.18325765,-0.04296965,0.1284998,-0.004803258,-0.34831592,-0.041704994,-0.16797023,-0.044679236,-0.045147844,0.27396405,-0.15194272,-0.2610596,0.20495003,0.16952132,0.3492065,0.22780344,0.14096756,0.19456056,0.21501774,-0.16922481,0.29212508,-0.08920226,-0.26713887,0.15598397,0.10522559,0.025350478,-0.18370655,-0.15076679,0.109586425,0.23553465,0.035152275,-0.32332912,0.053958114,-0.046684537,-0.09622096,0.17868185,0.039535694,0.046960723,0.03607807,0.023602184,-0.28164122,-0.10639907,-0.14584155,-0.059375383,-0.32077217,-0.15979071,0.2702809,-0.19979917,0.2074935,0.056352317,0.09880337,0.14773357,0.25910005,-0.25716847,0.062249426
0.15632649,0.24605243,0.034633156,0.046732817,0.259964,0.10196428,-0.091580704,0.14369525,0.23131537,-0.12805738,-0.13542058,0.13538806,0.017965253,-0.20822395,-0.08073648,-0.3174048,-0.006868964,-0.033767864,0.19619797,-0.14582188,-0.32600096,-0.08974173,0.10809955,0.14282466,0.40994555,-0.025725976,0.17327379,0.12182461,-0.15098107,0.3269756,-0.006609751,-0.34877497,0.23426278,0.038454738,0.19088769,0.001727121,-0.11137158,0.1416143,0.15861018,-0.004505178,-0.096039295,0.10468056,0.02829423,0.0984348,0.28983968,0.015106662,-0.005125537,0.1586738,-0.09091786,-0.37613606,-0.110482596,-0.23866327,-0.09436885,-0.30848798,-0.1977332,0.052947003,-0.24458484,0.14533497,-0.04353423,0.004080904,0.17007504,0.1697872,-0.13092275,0.10600279
0.22369972,0.11174633,-0.035661604,0.119732074,0.1826183,-0.053696007,-0.063511156,0.12143873,0.16254416,-0.09647174,-0.13670303,0.07631873,-0.044295967,-0.059174027,-0.036874425,-0.107557565,0.02124443,0.039379608,0.13008802,-0.18206471,-0.06404553,-0.10824944,0.1039949,-0.070504434,0.25436562,0.00542807,0.014624276,0.078276925,-0.25349024,0.47458112,0.068888,-0.37189817,0.13973574,-0.005464601,0.23379897,0.033100333,-0.20413774,0.2473334,0.2255195,0.021908358,-0.13361154,-0.12314701,0.022349644,0.29871568,0.13659093,0.016404545,-0.11858846,0.17924052,-0.17947482,-0.23032701,-0.31344664,-0.22182237,-0.11839302,-0.08611392,-0.30989656,-0.104966305,-0.13894957,0.043251514,-0.03844947,0.29763824,0.19715971,0.12137534,-0.24843177,0.2018649
0.28124496,0.07786828,-0.091983154,0.13623644,-0.03099355,-0.18041566,0.015207583,0.043138124,-0.09346734,-0.15475783,-0.026251178,-0.114236884,0.05719259,0.09109043,-0.1388942,-0.17641385,-0.20050497,0.09765087,0.07249962,-0.16833559,0.06298342,-0.1790565,0.057796277,-0.021130214,0.12723634,0.019218061,-0.11763849,0.35267597,-0.09429357,0.36009094,0.001970358,-0.3105231,0.2865824,-0.08574541,0.3133791,-0.11540049,-0.10756771,0.17050208,0.11589561,0.18355697,-0.14653715,0.013246242,0.13788825,0.2428158,0.10953807,0.08068196,-0.1827381,0.10163617,0.03123757,-0.15945297,-0.20429684,-0.057562843,0.10186209,0.035327807,-0.18828969,0.07292407,-0.18606035,0.12327981,-0.17045441,0.36197412,0.25759432,0.12342904,0.001008364,0.31246552
0.20690154,0.11351579,-0.10358443,0.06704876,0.001780517,-0.18193948,0.14924806,-0.08997988,-0.07016316,-0.001116408,0.06330352,0.081021205,0.09988173,0.00710384,-0.116658494,-0.14797406,-0.08198109,0.061124135,0.017937137,-0.17834255,-0.04161778,-0.23298256,0.1995507,-0.09699727,0.102542885,-0.07642655,-0.12165414,0.18865778,-0.08121323,0.44909188,0.124243416,-0.37493172,0.2313192,-0.04126276,0.32520363,-0.13309844,0.07060202,0.2175057,-0.06793377,0.019887283,-0.003396036,0.030820696,0.03728374,0.30365968,-0.09065279,-0.05301332,-0.22196388,-0.12184822,-0.08142917,-0.1361312,-0.079797976,-0.0635273,0.045644894,-0.02709546,-0.16632567,-0.111310415,-0.1762979,0.10224631,-0.13909698,0.22163321,0.27749914,0.0247956,-0.019716939,0.18304984
0.14713693,0.08901297,-0.11882169,0.23893796,-0.021148516,-0.19850357,-0.001447675,0.007382529,-0.05730372,-0.10442571,-0.004934828,0.039762486,0.032871787,-0.003259207,-0.09368287,-0.08096331,-0.18306486,-0.08984565,0.131977,-0.23192215,-0.022374839,-0.16728191,0.18223354,0.003511839,0.13318606,-0.17295112,-0.048167367,-0.065000355,-0.023873556,0.43993115,0.23662086,-0.24207482,0.024901345,-0.034014337,0.2772682,-0.24145505,-0.08840259,0.0720508,0.13602573,0.059895076,-0.0912334,-0.049129333,0.15595266,0.24910797,0.10296014,-0.015600737,-0.051648434,-0.20640707,-0.06143334,-0.3130886,-0.18435632,-0.057049237,0.030620905,-0.026637305,-0.08837363,0.11695637,-0.122777626,0.10689269,-0.2062095,0.23435591,0.19096768,0.015403682,0.015226486,0.17683771
0.10057936,0.06627995,-0.19204758,0.08290408,0.12631819,-0.10528888,0.15115355,0.025727982,0.25013578,-0.14299722,-0.1473691,0.08534735,-0.011938476,0.018174741,0.05078422,-0.0774068,-0.12897538,-0.0114803,0.04720431,-0.2354487,-0.053749543,0.08245072,0.06047037,0.07127675,0.16608037,-0.033535343,-0.03265977,0.055030547,0.054529853,0.18473707,0.29277217,-0.3052861,-0.005205061,0.026435802,0.055863652,-0.23875824,-0.06735951,0.135308,0.17867938,0.07409465,-0.099518046,0.040838655,0.17608614,0.0938795,0.094394796,-0.005232264,0.009048624,-0.07236964,0.103415936,-0.33245912,-0.2776185,-0.007710254,0.0722687,-0.030356169,-0.044539392,0.06721535,-0.17324203,-0.052738834,-0.016831433,0.22050442,0.17304438,0.066372156,0.028865654,0.1159542
0.07811996,0.14118142,-0.04646989,0.057946835,0.1876107,-0.09277948,0.09930399,-0.056210514,0.17404862,-0.14545391,-0.16401757,-0.051304035,0.059027284,-0.0809604,-0.001079779,-0.17160223,-0.10458563,0.056443423,0.089632496,-0.08263377,-0.1372316,0.08850164,-0.05906723,-0.00076329,0.07206445,0.051436476,-0.040943827,0.16621512,0.10019301,-0.07174976,0.23981963,-0.20187403,-0.18428843,0.11602933,0.106572725,-0.06261654,-0.15761638,0.000878222,0.20824118,0.016940357,-0.15515153,0.013681206,0.21255071,0.04915144,0.062074635,0.001814553,0.020571826,-0.1593344,-0.001529266,-0.1006222,-0.27642268,0.22114159,0.017731518,-0.07766561,-0.029843759,0.023313355,-0.19287767,-0.115113735,-0.076417916,0.052356396,-6.58E-05,0.00346755,-0.08308549,0.19028738
0.1579712,0.025020538,-0.07763459,0.22861387,0.18631609,0.034134656,0.13473289,-0.105112255,0.080212094,-0.06386957,-0.103660844,-0.04234331,0.13333087,-0.041811094,0.09180215,-0.05079981,-0.09760827,-0.14716938,0.16066201,-0.144234,0.04868235,0.09624487,0.07972747,0.058806177,0.07637947,-0.06870143,-0.12954092,0.2111647,0.15466061,0.13313404,0.28001812,-0.03088684,-0.21858406,0.09489045,0.13238244,-0.11132293,-0.17722116,0.12584795,0.16780151,0.03987901,-0.06924079,-0.09773391,0.041709214,0.033664368,0.15302579,0.14153972,-0.14961793,-0.003752234,-0.077214986,-0.028146822,-0.17845601,0.08169548,0.18515405,-0.007177047,-0.010012596,0.100651115,-0.05210586,-0.08204845,-0.06412432,0.07330443,0.00758936,0.034895066,-0.041565076,0.10394384
0.06595644,0.12322494,-0.24356568,0.15562597,0.07534479,-0.018280193,0.31117824,-0.07451255,0.22073056,-0.089611985,0.23667972,-0.03271134,0.18136215,-0.22238795,0.036179036,-0.05656535,0.030722164,-0.037543535,0.1967867,-0.24373718,-0.043087035,0.05586363,-0.039360315,-0.07522209,0.19577636,-0.027117126,-0.10487631,0.16078682,0.11225945,0.06857569,-0.002632416,-0.18822664,-0.2780629,0.014469699,0.0986349,-0.09662049,-0.19170438,0.11806802,0.14127475,0.003794726,-0.1423812,-0.23202334,-0.07592504,0.19424196,0.094837725,0.21700029,0.03207126,-0.17339683,-0.26253507,-0.11525687,-0.20598862,0.26984286,0.14490987,-0.15041412,-0.09416419,-0.054281488,-0.051759902,-0.045337714,0.09968509,0.12367005,0.16999504,0.17208268,-0.13657448,0.15533207
-0.0848891,-0.062047523,-0.064237095,-0.041453693,-0.03209783,0.14490406,0.12376185,-0.07053574,0.073994346,0.106589936,0.17270482,-0.114297636,0.02818801,0.027045388,0.015454089,0.07134481,0.06157453,0.10401361,0.02977925,-0.018005008,-0.19021475,0.20880665,-0.022974443,0.14094155,0.13772473,0.05461273,0.11634635,-0.046169296,0.09048194,-0.042704795,-0.04997258,-0.070423335,-0.1801986,-0.070873305,-0.015958687,0.07205118,-0.011331163,-0.0588862,-0.002283955,0.024492765,-0.15094984,-0.066525385,0.15001626,-0.06936031,-0.009716901,-0.026980463,0.06542499,-0.030136911,-0.08201647,0.04081236,-0.006002249,0.060110234,-0.069730476,-0.027205734,-0.1737837,0.05623671,0.11336436,0.045527123,0.06387641,-0.05075285,0.15749863,0.041619383,-0.024714993,0.09406468
-0.094992,-0.11495428,-0.005074367,-0.010951025,-0.083797716,-0.011125836,0.120756626,0.027749848,0.037618656,0.06871363,0.04011138,-0.14351293,0.07996237,-0.021877468,0.03768332,0.03243398,0.0732424,0.012160089,0.000420376,-0.06736362,-0.15271324,0.07111621,0.020508096,0.08826031,0.14942744,0.14873852,0.09601731,-0.042815413,0.023820212,0.0664138,-0.12692612,0.07068064,-0.02563492,-0.12041709,0.005339267,0.12394598,-0.046378866,0.05356538,0.007903853,0.005053358,-0.033574,-0.15456012,0.19540742,-0.16478528,0.001172844,-0.003100874,0.12971695,-0.077363566,-0.061902735,0.035020713,0.03780202,0.100031845,-0.000419409,0.045533895,-0.03491597,0.05021142,0.14243269,0.0480914,0.10560804,0.075212084,0.009929846,-0.07213779,0.025585094,0.10661242
0.06177125,0.034872912,0.011954568,0.003678188,-0.053767778,0.010369159,-0.06982132,0.03811019,-0.06508986,-0.030012432,-0.035141643,0.035017386,0.02454622,-0.06050648,-0.06584554,-0.07199215,0.06328922,-0.033667635,0.010022692,0.011592761,0.036360733,0.07172356,-0.000835121,0.014079914,0.009757251,-0.009327918,-0.04536645,0.044840507,0.011139266,0.06766803,-0.06628227,0.010807499,0.026124492,-0.06882721,0.05767525,-0.058512937,-0.048697747,0.031295896,0.08359075,-0.01217293,0.08001905,-0.06874128,-0.00542859,-0.061358027,0.07596066,0.020628743,-0.0327982,-0.055868596,-0.025924169,-0.000845693,0.071332656,-0.009391889,0.025075428,0.024926305,-0.08180429,-0.07822439,-0.067377865,0.053105704,0.056807853,0.023149908,-0.007082485,-0.04226592,0.056426875,0.080492385
0.030523024,-0.00795459,-0.07793677,0.004325554,-0.026006531,0.001125336,0.071878664,-0.03655111,-0.015753105,0.03177671,-0.04401564,-0.063114405,0.04323431,-0.059185453,0.042688496,0.022523843,-0.012208805,0.06032049,0.07280477,0.021694154,0.019014634,-0.05700205,0.06602778,-0.055624146,0.07078283,-0.040919963,0.06910104,-0.029056944,-0.000175722,0.06593447,0.030430838,-0.01576221,-0.014060982,0.041528605,-0.009161361,0.046102785,-0.08077589,0.037113167,0.023031265,-0.05461176,0.021531187,0.015918314,0.036244914,0.010841273,0.04181733,-0.00225582,-0.06376017,0.06042885,0.050274573,-0.004169069,0.04080052,-0.023182519,-0.060541198,0.04820908,-0.027511682,-0.006946251,-0.010872774,0.05254089,0.020280331,-0.015009977,0.010770358,-0.066887066,0.036009997,-0.05590365
-0.073308945,0.06426083,0.024871752,-0.07146335,-0.06893721,-0.000803337,0.049623795,0.04743985,-0.05409822,-0.06310261,0.04482042,0.07240971,0.045606025,0.026678227,-0.035340466,0.06232182,-0.003496327,-0.020673044,0.0700488,-0.0764461,-0.02358149,-0.047854926,-0.06164114,-0.04510319,0.021506138,0.0611671,0.04019908,-0.058091424,0.057215907,0.060346805,-7.42E-05,0.070522256,0.06533683,-0.061751943,0.050489224,0.079972066,-0.04686446,-0.020671159,-0.02315456,0.05679562,-0.04785204,-0.08295977,0.01742766,-0.05755472,-0.03272803,-0.002340615,-0.04067221,0.052319475,0.030410603,-0.03150852,-0.06750634,-0.016723357,0.044765748,0.06452369,-0.04158418,-0.03146927,0.02111537,-0.037970427,-0.07560336,-0.010650709,-0.06184853,-0.024425656,-0.06215721,-0.075855345
-0.028921094,0.01129964,0.045033984,0.025550246,0.03282267,-0.067339964,-0.06285027,0.009496175,0.050850682,-0.001278713,0.05258978,0.001362041,0.003443383,0.06756622,-0.054194644,0.02803088,0.048968934,0.039804354,-0.07634994,-0.00060387,-0.053458072,-0.05714159,-0.01980301,-0.04114887,-0.057121877,0.001966149,0.003750905,0.004011296,0.06031943,0.04824645,0.04423637,0.07305922,0.011089549,-0.016985089,-0.029578127,0.07026961,0.059938394,-0.06444464,-0.037911527,0.004933618,0.053333484,-0.020228729,0.03777688,0.038156778,-0.021036938,0.06350491,0.006486535,-0.041711587,-0.01781179,0.05992145,-0.06719708,-0.009675846,0.079076625,-0.054960173,-0.002196461,-0.055968307,-0.008730844,0.029052831,0.033302777,0.018315367,-0.022272915,0.06660352,0.034679256,-0.06001945
0.103159465,0.030282684,-0.06513674,0.024758939,-0.028578794,0.061481882,0.14851962,-0.094689965,0.05195372,0.04413176,-0.018193796,0.074017145,-0.02130043,-0.1217485,-0.07922759,-0.08164757,-0.038794983,0.082517795,0.025887478,-0.121700734,-0.0923394,-0.037628137,-0.000291321,-0.05377918,0.11031963,-0.06785585,0.028438466,-0.017838536,-0.07533645,0.13493893,-0.047937207,-0.03760728,-0.09849369,0.065439716,0.123491146,0.03125759,-0.0670411,-0.038072728,0.03865158,-0.06082161,0.023962408,0.020706803,0.07745713,0.05413635,0.032098815,0.0649341,-0.08936891,-0.06708626,-0.026652586,-0.12508245,-0.019485157,0.05583042,0.070088,0.043374993,-0.110275276,-0.014564465,-0.018581668,-0.02875612,0.052247982,0.07603408,0.015324361,0.035790656,-0.08918064,0.14335665
0.009000711,-0.056086995,-0.11334675,0.17124455,0.03000337,0.006303823,0.013910641,0.20103839,0.12591049,0.18248639,0.107196726,-0.0923441,-0.18154408,-0.13642658,-0.06449901,0.007705416,0.070478566,-0.03609973,0.023753239,0.19412488,-0.18115522,0.023947058,0.10985802,-0.20942365,-0.018315386,-0.121004395,0.06191077,-0.1571951,0.009559772,0.16846853,0.1492328,0.059951447,-0.11630288,0.09221508,0.10928558,0.023310827,-0.097041555,-0.13882312,0.039091937,-0.1658541,-0.090101786,-0.21779901,-0.12992932,-0.045084216,0.014320484,0.16216311,-0.1390195,0.062624045,-0.11774302,-0.19948399,-0.18742134,0.20425646,0.17246127,-0.06105824,-0.10809176,-0.23740618,0.22307236,-0.074801736,0.14844969,0.02334831,0.017501196,0.11199325,0.035014752,0.08347112
0.021521643,-0.020090632,-0.058353845,0.20946898,0.04785475,0.0717522,0.07187802,-0.040118873,0.09405894,0.061879393,0.06854178,-0.059088346,-0.025929723,-0.07343759,-0.09580847,0.017674685,-0.08780173,-0.10510543,0.07551207,-0.02536463,-0.13965662,0.15456195,0.044602904,0.043934174,-0.050022036,-0.030436857,0.016676482,-0.02174185,-0.014411247,0.16235115,0.20421162,-0.029897844,-0.14898148,0.16033308,0.073627084,-0.07190459,-0.22280496,-0.1864161,0.029981844,0.040375073,0.007132977,-0.014572719,-0.14407174,-0.009976216,-0.026555816,0.09661845,-0.2214846,-0.057115547,-0.18038015,-0.22435078,-0.18976791,0.17437594,0.18099323,0.012451331,-0.027878627,-0.09627104,-0.01088206,-0.072426565,0.1526315,-0.06607264,0.06000126,0.20580736,-0.009965114,-0.021739213
-0.07271456,0.061376564,-0.045081705,0.050455492,0.15760347,-0.053109072,0.023763498,-0.14657328,0.017603483,-0.037371222,0.12551384,-0.032875627,-0.062429223,-0.13100302,0.09901067,-0.18760996,0.1069552,-0.09174065,-0.042156484,-0.051419895,-0.006135936,0.023144701,0.005475732,0.01774877,0.090146005,-0.022213044,0.10316907,0.035838325,0.19199519,0.018892735,0.06155885,-0.010539914,0.045987926,-0.1378604,0.029070856,-0.057193372,-0.04398603,-0.10597686,0.097954266,0.19088513,0.002446512,0.0344503,-0.050645534,-0.05482339,0.027651588,0.059045807,0.08202556,0.03004021,0.009592895,-0.002630089,-0.075352445,0.12229367,0.07048434,-0.060105465,0.064382434,0.10168116,-0.07637061,-0.02675236,-0.08442243,0.008925075,0.038606472,0.1904434,0.034764804,-0.11331308
-0.03072415,0.13501619,-0.18274792,0.117514804,0.13535407,-0.013072615,0.1202643,-0.004290698,0.039389033,-0.22374529,0.17037633,0.09833119,-0.022249058,-0.37417138,0.117487356,-0.11891681,-0.004246774,0.07541849,0.022156555,-0.17288543,-0.088089585,-0.09226819,0.076566316,0.011060232,0.147634,-0.018727258,-0.03901286,0.12834501,0.21979347,0.18789792,0.043584716,-0.12347528,-0.11099346,-0.12211037,-0.036523122,-0.092487596,-0.020562131,0.047235813,0.08982835,0.07609954,0.05265152,-0.034402523,0.048575856,-0.002723079,0.093193136,0.12332364,0.15823758,-0.040168952,-0.11858567,-0.28678745,-0.13352688,0.11304992,0.075070605,-0.051500425,-0.26417613,0.187312,-0.16677715,0.015595807,0.07880889,-0.019772049,0.13327219,0.17319177,0.013671054,0.022077933
-0.13482545,0.09518511,0.023939218,-0.057555154,0.050160117,-0.055793952,0.11285589,-0.109401815,0.036854364,-0.11141893,0.04676168,0.025792113,0.030777054,-0.34067118,0.13598768,-0.07306736,-0.005493136,0.007051668,-0.036436517,-0.14997597,-0.091298245,-0.000949333,0.03944938,0.012271268,0.03774834,-0.09446999,0.11845084,0.000114244,0.07024722,0.021083739,-0.004621788,-0.10687693,-0.062289797,-0.0707629,-0.07325674,-0.1196034,-0.1550677,0.008777834,-0.022690702,0.06212464,0.012879897,-0.1565782,0.046968214,-0.02739878,0.29245818,-0.02421541,0.20650981,0.04769389,-0.22244501,-0.30347914,-0.11915086,0.18542352,0.074967735,-0.081164055,-0.16771872,0.23217914,-0.06877571,-0.09003164,-0.07450486,0.06692405,0.077337876,0.2195196,-0.16855279,-0.098482236
-0.08894823,0.06319007,-0.119435385,0.025404904,0.20214444,0.080630094,0.18161586,0.044752676,0.20126313,0.07687132,-0.037312254,-0.09756346,-0.15453185,-0.30283073,0.3815013,-0.021362215,0.20178393,-0.017756412,-0.084198125,-0.14093643,0.003243273,0.026881047,-0.098873645,-0.03111608,0.21754104,-0.12615842,0.02903323,0.030695023,0.00092963,0.10259546,-0.03250442,-0.114229806,-0.062103186,-0.029571854,0.006914575,-0.10425702,-0.10001539,-0.09305302,0.07369108,-0.031257015,-0.07340345,-0.088040926,-0.027992595,0.00809624,0.19182263,0.028792994,0.1778508,0.04086862,-0.256763,-0.18422194,-0.045881923,0.24730805,0.13673574,-0.079018846,-0.2894025,0.023291979,0.02920426,-0.20418793,0.060865507,0.011323135,0.08094671,0.24328238,-0.15667178,0.03912795
-0.04044624,0.049992405,-0.043370884,-0.028699322,0.07074914,0.015073009,0.35397217,0.0791106,0.22270718,-0.044074822,-0.06387247,-0.2556764,-0.05501592,-0.39292073,0.326657,0.06417976,0.251289,0.10807649,0.07709001,-0.21600465,-0.09712706,0.000820835,0.004326838,0.06923421,0.24361905,0.027915971,-0.16485046,0.1295951,0.17432486,0.102609985,-0.16968457,-0.109926775,-0.15872186,0.04497082,-0.01915408,0.030406153,-0.28923777,-0.003987736,-0.03719377,-0.14887697,-0.23298605,-0.15599255,0.055790525,-0.063570276,-0.021877145,0.07385221,0.2110095,-0.07454683,-0.24335055,-0.3784958,0.039458968,0.17774497,0.03771184,-0.093657784,-0.2937759,0.06397031,0.025434952,-0.19077271,0.24516371,-0.057844892,0.13075393,0.065323375,-0.10075769,0.02356021
-0.07060536,0.13572033,-0.043225642,0.00440066,-0.03623921,-0.005403473,0.25800765,0.04282171,0.12777072,0.06978321,-0.23007064,-0.09792489,-0.16850685,-0.48026597,0.36474696,0.032346934,0.22336662,-0.026149003,-0.03165069,-0.18967415,0.014011323,0.057678446,-0.08702387,0.046069924,0.13724273,0.11577821,-0.074578136,0.023993328,0.023720462,0.07736878,-0.15147272,-0.1023338,-0.2489449,-0.035367172,0.107567005,0.08338833,-0.19537464,-0.028809194,0.06789918,-0.087716594,-0.3146127,-0.072263435,0.13037185,0.009855277,0.10521819,0.056005128,0.14939183,-0.074609764,-0.15478408,-0.20222294,0.1650611,0.27624047,0.111350924,-0.22847895,-0.14035565,-0.07740063,0.05357725,-0.14544164,0.1992549,-0.0848483,0.06503866,0.09932094,-0.027937176,-0.031052511
-0.087759465,0.14420876,-0.101921685,0.105464645,-0.0535707,0.078393914,0.24877442,0.036110755,0.18299147,-0.00805001,-0.17268233,-0.16031507,-0.20352243,-0.38829768,0.4100476,0.058826886,0.09990124,0.072625704,0.21810406,-0.11169099,-0.017407436,0.14930055,-0.07300938,0.16781595,0.15510292,0.027675197,-0.046124533,0.10500217,-0.053915292,-0.020010257,-0.12606163,-0.1118945,-0.2270211,0.001823579,-0.036674358,0.1543104,-0.19967888,-0.14886495,0.04603147,-0.01665853,-0.1492151,-0.15420091,-0.008081982,-0.103587165,0.090780295,0.1385447,0.11634228,-0.033721022,-0.14723374,-0.21592093,0.049142957,0.10325865,0.1676581,-0.19862723,0.026611717,-0.040121812,0.15501781,-0.007928295,0.11993742,-0.03862202,0.09162754,0.13339263,-0.012668948,-0.11806196
-0.049205918,0.01442244,0.07019626,-0.000858001,0.07772331,0.09918332,0.11871443,0.13254148,0.19858928,-0.008145732,-0.27343765,-0.11274983,-0.2008566,-0.43997714,0.37357438,-0.04674011,0.1221772,0.17879349,0.013870775,-0.048234906,0.03762821,0.061233602,-0.086467065,-0.01974944,0.2401833,0.059426963,0.10042484,-0.021885633,-0.13312516,0.17289914,-0.22850388,-0.09512056,-0.07573743,-0.15511215,0.06868277,0.058259282,-0.094097406,-0.11868081,0.014500773,-0.015181934,-0.07419542,-0.19008505,-0.217397,-0.02171977,-0.043697283,0.049379345,0.12869403,-0.16433242,-0.11568697,-0.18392804,0.06609956,0.116624944,0.043800816,-0.25163627,-0.112618595,-0.046566628,0.058849555,-0.030415347,0.15912719,0.11894,0.19631681,0.16009632,-0.1580006,0.025376396
0.017929701,0.110023014,-0.10218327,0.062166616,-0.080281384,0.18173636,0.17641,0.11066446,0.25031275,0.15460111,-0.28602102,-0.075686075,-0.24337915,-0.4981747,0.32617328,0.034775794,0.19639999,0.01025712,0.16156316,-0.16404383,-0.15218988,-0.048292343,0.20848715,0.098242424,0.11584698,0.14333348,0.06294953,0.110410646,-0.09112684,0.31707984,-0.16972512,-0.045957327,0.016879568,-0.0513232,0.15063138,0.015247067,-0.28672656,-0.10047196,0.08892489,-0.07153863,-0.124659434,-0.092357375,-0.22253811,0.037297204,-0.037358835,0.15533966,0.017206606,-0.14648739,-0.18410303,-0.2665997,0.045586895,0.12291704,0.10568735,-0.40346453,-0.2682572,-0.026146973,-0.049667474,0.10082783,0.11409253,0.0642702,0.07386942,0.15267159,-0.09831713,-0.12210785
-0.06185468,0.022651542,0.00986643,0.08946762,-0.07851477,-0.080882385,0.103502795,0.056929167,0.3220934,0.1092725,-0.16866942,-0.06536855,0.047549102,-0.47392535,0.30125082,-0.05705552,0.11856068,-0.13118817,0.109627895,-0.0674614,0.007751082,0.07395683,0.2457546,0.09950104,0.01661079,0.07675582,-0.013372312,0.121216245,-0.12651351,0.30735996,-0.21594442,-0.021464318,0.17975071,-0.027137991,0.06237688,-0.04035388,-0.31349778,-0.031359755,0.062951125,0.09333322,-0.1907855,-0.07220631,-0.012447599,-0.05435896,0.054544687,0.13846438,0.107136294,-0.10923897,-0.19535817,-0.053239446,-0.047756877,0.11187923,0.050881945,-0.35788384,-0.19172657,-0.10152749,0.079919,0.0425615,-0.022511428,0.06155206,0.1138341,0.06409488,-0.1277347,-0.09628038
0.13304664,0.010162897,-0.032043897,0.012361706,-0.06376955,-0.015928537,0.014478685,0.010748813,0.30041966,0.15405978,-0.15346853,-0.020075092,-0.006971106,-0.22034101,0.25425258,-0.010541569,-0.11172479,-0.12966788,0.06127427,-0.046457216,0.08311297,0.06501299,0.14062297,0.026932664,0.07511587,0.090223156,-0.00546411,0.13203526,-0.14502299,0.39703354,-0.19270884,-0.04102971,0.21572043,0.08121245,0.10544953,0.13064235,-0.34865013,-0.015696306,0.007253266,0.058197953,-0.07022073,-0.040603198,-0.1543224,0.02147152,0.13060436,-0.06905754,0.025493328,0.06521956,-0.11995935,-0.059727907,-0.11829348,-0.000283737,0.13218834,-0.20434862,-0.07568185,-0.17965968,0.0823572,0.019861419,-0.039679103,0.20187023,-0.014540901,0.06368049,-0.1450187,-0.000597578
0.107027955,0.003154987,-0.0373347,0.04671756,0.017293513,-0.05385822,-0.002524809,0.045059964,0.21209495,0.112196125,-0.32597086,-0.03908344,-0.17696571,-0.13266745,0.06561997,-0.004669716,0.052615885,0.01095511,0.14861396,0.006913488,0.067198515,0.13864975,-0.015425855,0.043749966,0.0323302,0.08243378,-0.045158513,0.12751605,-0.19170846,0.20834951,-0.27221805,-0.041657735,0.2310848,0.052686643,0.08445698,0.095957406,-0.27198476,0.07417788,-0.0138443,-0.06664966,-0.11999033,-0.034995068,-0.28430638,0.082952,0.08819611,0.07786255,0.010528789,0.20405997,-0.13458467,0.01329443,-0.07660328,-0.000903294,0.13103719,-0.12070034,-0.13173379,-0.22723271,-0.086727224,-0.123604506,0.06473418,0.116444685,-0.059017237,0.010717989,-0.07860664,-0.03305696
0.006168952,0.0725912,-0.019007523,-0.004154658,0.010754908,-0.081795745,-0.048778858,-0.005471175,0.19073148,0.13452436,-0.23166916,-0.015646659,-0.050584286,0.11640239,0.16863602,-0.028973496,0.028700301,0.07299142,0.14474437,0.022736926,0.044629954,0.039233133,-0.000269964,-0.03708828,0.12340967,-0.007599426,-0.19183663,0.111332074,-0.24656875,0.14665024,-0.117176354,0.050136074,0.22112979,0.01962821,0.01899298,0.13360946,-0.112397745,-0.1184688,0.00558366,-0.02873662,-0.079362705,-0.085938774,-0.1978155,-0.040930558,0.09569739,0.004631924,-0.08432275,0.16428109,-0.14468251,-0.042263955,-0.05710785,-0.003909225,0.10594405,-0.04321603,0.024360724,-0.10726932,0.07963678,-0.1228096,-0.0499856,0.20122759,-0.08967563,0.0883731,-0.13064513,-0.003401754
0.056561533,0.1105844,-0.061654832,0.066872604,0.1455077,-0.28802747,0.14856888,-0.004052854,0.24368511,0.06548163,0.039979942,0.095530674,0.031702057,0.10091249,0.06724638,0.0658205,-0.10645082,0.002779757,0.034377363,-0.16362748,0.03185015,-0.09553036,0.001243069,-0.078033656,0.13771285,-0.054772455,-0.28550085,0.18626244,-0.1561606,0.07163402,-0.054538485,-0.08371618,0.07385433,0.089083135,0.14124294,0.008765671,-0.1111051,-0.033845063,0.12986885,-0.13174161,0.056029066,-0.016793797,-0.023861174,0.052272093,0.045028113,0.055650756,0.08862088,0.056771513,-0.103326075,-0.004666813,-0.060069595,0.02241139,0.13667907,-0.10591953,0.029501071,-0.1683672,-0.20063943,-0.11452657,0.039529387,0.25034872,0.044850525,0.09421235,-0.055847745,0.04549984
0.11043352,0.1383285,-0.08699324,0.1425274,-0.04871555,-0.17582682,0.093008704,-0.12057882,0.00555148,-0.028035061,0.09725796,0.028629677,0.10164962,0.26615545,-0.036087878,0.121220745,-0.07779937,0.08716263,0.008979904,-0.08584707,0.10234459,-0.08368964,0.15565339,-0.015512898,0.10984745,-0.007062049,-0.35887998,0.12501802,-0.19562948,0.15749,-0.025429575,-0.09970295,0.16088878,-0.008544596,0.16737853,-0.1209655,-0.058978416,0.07184343,0.16151698,0.050564155,-0.06530311,-0.051345382,-0.12735689,0.06801591,0.14686899,-0.0458666,-0.03481141,0.06521708,0.07432855,-0.022704193,0.13935296,0.009572841,0.11131533,-0.13334985,-0.0312002,-0.06974276,-0.094746515,-0.020581197,-0.07469195,0.23155777,0.11127291,0.09787404,0.017985158,0.022814414
0.17299739,0.053356607,-0.040150452,0.08471563,0.16133074,-0.20032263,0.08661659,0.05698457,0.086047575,-0.04057708,-0.13921854,0.08058757,0.12573452,0.0789471,0.037708465,-0.032531824,0.003135353,-0.28100634,0.013040556,-0.02970239,0.10414845,-0.08252529,-0.04553355,-0.08236091,0.01285868,-0.09780368,-0.20892581,0.076292776,-0.21261507,-0.010882933,-0.004381909,0.069291316,0.068889625,-0.115674965,0.13657084,-0.037776522,-0.056988556,-0.017140172,0.200344,0.10235979,-0.06370499,-0.01675115,0.003206193,0.118736684,0.08320172,-0.09803896,0.07480031,-0.007996293,0.056744903,-0.18806268,0.15102394,0.09697388,0.22599879,0.0674428,0.01959927,-0.15145661,0.019501086,-0.20070453,-0.11836989,0.26179397,-0.002947515,-5.32E-06,0.01114428,0.005200516
0.038009863,0.01606187,0.0396737,-0.07562591,0.060767967,-0.23681074,0.15873802,-0.2186046,-0.036806382,-0.074965745,0.057156105,-0.13306935,0.06283233,0.07793562,0.036437098,0.016418677,-0.11507713,-0.19981003,0.061217565,-0.11683074,0.10799993,0.008112369,-0.072488405,0.13312833,0.039319515,0.17504182,-0.093786746,0.30014282,0.013912968,-0.036370188,0.063186765,0.022119403,0.113172695,0.25607803,0.06451392,-0.12064812,-0.1920794,0.14922735,0.07382368,0.10473061,0.045150843,0.2235965,0.20030102,0.08656676,-0.10247816,0.02387903,0.035882346,-0.17665116,0.07642527,-0.04508703,0.12506424,0.16994008,0.14232485,0.13232438,0.10561375,-0.010710884,-0.017868355,-0.12828179,0.03202179,0.15155406,0.026914624,-0.13928322,-0.0406607,-0.069669776
-0.07771567,0.10565586,-0.07714248,-0.022164214,-0.05436894,-0.21471214,0.06432823,-0.20520882,0.01844211,-0.09807728,0.10836337,0.057536423,0.03010899,0.12503543,-0.010620988,-0.122372545,-0.11504095,-0.06059653,-0.049317893,-0.1288812,-0.000453431,-0.00426227,-0.025905095,0.15794322,-0.06342845,0.14047644,-0.08002727,0.1847004,0.05585146,-0.1637683,0.3404093,0.018635863,0.000364988,0.26352477,0.05848599,0.017224656,-0.053296726,0.18953757,0.08124258,0.11405725,-0.05098132,0.17875682,0.2411755,0.068244465,-0.0688859,0.062490277,0.09231785,-0.13921747,0.16282871,0.1294536,0.16560613,0.047085654,0.21596412,0.10241051,0.19360724,0.099273115,-0.060557187,-0.1413792,0.024209244,0.01418708,-0.052658938,0.007662403,0.017764948,-0.010907111
-0.05700609,0.13801323,-0.07754038,0.029535744,0.053969514,-0.09058715,-0.03333575,-0.10748851,-0.068141,-0.06089338,0.18667118,0.1761651,0.03217699,0.15541832,-0.045675296,-0.08310749,-0.08926885,-0.083067134,-0.075192854,-0.14161201,0.021788584,-0.105810724,-0.0839659,-0.02102645,0.08461199,-0.12754835,-0.18024053,0.06788523,0.00623033,-0.19880514,0.39200178,-0.03327269,-0.2147682,0.32972106,0.15962535,-0.023052799,-0.037225068,0.018746259,-0.01185171,0.012003754,-0.012206983,0.15738106,-0.068702966,0.14622521,-0.16814308,0.1017042,-0.09967155,-0.2693917,0.1762204,0.121362135,0.10283395,0.10223339,0.197443,0.053961113,0.18184637,-0.05385832,-0.099275365,-0.102972426,0.024772309,-0.06287589,0.022981087,0.10270127,0.124963135,-0.09796074
0.014452416,-0.08529599,-0.095305,0.18700925,-0.03487486,0.06544812,0.21616504,0.032407075,-0.006023265,-0.002335159,0.19850525,-0.120027825,0.13218933,0.07084732,-0.018303558,-0.013489616,-0.06471095,-0.02537624,-0.013034515,-0.018193258,0.028120417,-0.059489783,-0.11523073,0.056920536,0.017842598,0.06062763,-0.045259703,-0.035247605,-0.02922196,-0.120599955,0.06955975,-0.056487434,-0.24847148,0.043800365,0.07716853,-0.097525746,-0.16059434,0.1095865,-0.052399654,0.0781667,4.58E-05,-0.10100121,0.16263948,0.055290274,0.014248562,0.03192407,0.06336652,-0.255259,-0.042143535,-0.15003616,-0.015139917,0.21145928,0.037020866,0.06404777,-0.10875993,-0.041663215,0.013591901,-0.07836273,0.04352283,0.15274659,0.007298492,0.036643676,0.022855412,0.1571135
0.1365414,-0.10433978,0.10377786,-0.013816592,-0.029814493,0.01569751,0.13838542,0.1313229,0.02865818,0.15657832,0.05705429,-0.15063511,-0.03933016,-0.017717805,0.12302269,0.15855014,-0.003739501,0.13884616,-0.040390193,0.039743047,0.077927865,-0.007558025,-0.057199106,-0.011678521,-0.11577464,0.048728768,0.09818124,-0.08553981,-0.062447846,-0.013278301,-0.005042506,0.16445088,-0.1216931,-0.08725387,0.023316372,-0.05169548,0.08751549,0.0682058,-0.007447279,0.020369068,-0.07329664,-0.24662456,0.1587819,0.09847128,-0.080686346,-0.005014568,-0.0721401,-0.117209025,-0.20010746,0.15991718,-0.07959914,0.19561447,-0.081670225,0.009820276,-0.10439276,-0.06299593,0.17054962,0.14362922,0.05094688,0.06783236,0.11104408,-0.07000563,0.03589545,0.18656859
0.10261797,-0.011441862,-0.15968736,0.10772406,-0.09276842,-0.10419082,0.09587361,-0.09991541,0.14353138,-0.078722745,0.021062508,-0.12093637,0.1534652,0.06354853,0.059233803,0.11431933,-0.032336257,-0.07252873,0.000415295,0.030542903,-0.121611014,0.061902314,-0.01796225,0.10255731,-0.12917754,0.099966,0.047532,0.1377496,-0.018689089,-0.02192691,0.17179659,0.078904964,0.053331796,0.12280267,0.123978876,-0.21771938,-0.04630507,0.12715511,0.11462504,0.16753699,-0.23651968,0.001210555,0.14792007,-0.16081154,0.12031891,0.044010684,0.1915843,-0.12807156,-0.16458204,0.08575228,0.015163799,0.19536127,0.14209421,0.04366563,0.058864012,-0.053011358,0.058542542,-0.07620556,0.080988646,0.014677613,-0.0168161,0.0540567,-0.07868866,-0.06304252
-0.06684379,0.040569767,-0.033099506,0.058103673,-0.049165126,0.022360332,-0.071424544,0.03730549,0.02240467,0.005215526,0.024897344,0.013603874,-0.01283554,0.06371603,0.037515648,-0.045331877,-0.052172337,0.03043294,-0.041644987,-0.03631591,0.0343493,0.004852697,-0.062759876,0.036525384,-0.046722796,-0.07891947,-0.048795998,-0.08224203,-0.06679927,-0.08105266,0.05597285,-0.067119345,-0.054864474,-0.004266091,-0.080615446,0.08009625,-0.06472524,0.051055245,-0.07829242,0.024657987,-0.060155623,0.074846976,-0.022957262,0.004782565,0.0705447,0.021214142,0.007850081,0.08100254,0.018862419,-0.013729982,-0.07352881,0.06299604,0.012915134,0.007870398,0.01908902,0.06679646,-0.06777126,0.046831556,-0.06362779,-0.035096418,-0.030302525,0.0384792,-0.063954964,0.049421407
0.04971657,-0.040781446,-0.04777609,0.003181994,-0.083284535,0.06201137,0.0523028,-0.06994506,0.07792846,-0.08373805,-0.046130717,0.01932434,0.055763252,0.030921653,-0.07071952,-0.03548075,-0.037120346,0.03120888,0.08055725,0.07834781,0.001340501,-0.069688156,-0.02500341,0.039376512,-0.047309496,-0.057329584,-0.073488,0.004919879,-0.07137669,0.03604076,-0.034270562,0.021048047,0.033348367,0.020317212,-0.004035443,-0.027373046,-0.061705373,-0.08296007,0.06791728,0.082275234,0.06908854,0.07984819,0.06329007,-0.006828189,0.062329136,0.07918645,0.066435374,0.025092453,-0.072721705,0.07977425,0.067100175,-0.0233006,-0.008609898,-0.0801978,-0.02139283,0.059465997,-0.010910302,0.012441218,-0.040742822,-0.053960823,0.07739041,0.076064415,-0.01564198,0.004104793
0.0655313,0.08075272,-0.06577123,-0.074387796,0.053169012,-0.0272074,-0.059975468,-0.022415105,0.02304891,-0.044303786,0.07268403,0.035134964,-0.03298987,-0.019183494,0.09255716,-0.073412135,0.07482058,-0.03978615,0.05250808,0.059390455,0.032807134,0.07476737,-0.06258618,0.027291363,0.060842607,-0.034295034,-0.055232733,0.029280402,-0.059585884,-0.044756442,0.054258622,-0.019171951,0.032339893,-0.08658464,0.03843712,-0.018657466,0.08379579,-0.031922992,0.045167945,-0.017696504,0.067398064,0.036982346,0.035041362,-0.06082464,-0.055653132,-0.040335786,-0.013198482,0.102069326,-0.04734915,0.03538181,0.057310395,-0.008108809,0.09231405,-0.08268549,0.09875636,0.08690207,0.039888605,0.03853912,0.002093322,0.06853846,0.05105181,-0.003344844,0.06956036,0.04287545
-0.03160724,0.004956946,0.005328636,-0.090861216,0.04529431,0.050268386,-0.05901602,0.015149868,0.046605233,0.099859394,-0.019469012,0.017763807,0.014154279,-0.060379583,0.06931639,0.0107634,-0.007172169,-0.011367756,0.004546265,0.03012689,-0.027025165,-0.04372959,-0.077887304,-0.09678317,0.12113245,-0.093011074,-0.004468277,-0.062486444,0.033789814,0.0772384,-0.011956615,0.022574699,0.056163773,-0.10048616,-0.08685457,-0.01800423,-0.077206254,0.06922851,-0.03207739,0.013469098,-0.0339313,-0.049786136,-0.06450607,-0.060530894,0.024803326,0.03312015,-0.030672854,0.03798455,-0.018253122,0.09408086,0.04515116,0.051031277,0.097156346,-0.07660929,0.0791055,0.0608034,-0.021017052,0.046017077,0.002424527,-0.08095955,-0.06985561,0.10069196,0.09501773,-0.069356464
0.009717388,0.13275187,-0.078362085,-0.084636696,0.138172,-0.037406985,0.14767247,-0.07065023,0.12776342,0.13307887,-0.023449734,-0.09860653,-0.094956644,0.24784768,0.11992668,-0.12120801,0.046721738,-0.19220823,0.12837121,0.08507046,0.053525105,-0.20572749,0.005811724,-0.0923274,0.049994886,-0.12650305,0.09114346,-0.048612572,-0.2078786,0.01400714,-0.045038704,0.007991253,-0.10789316,-0.06891257,0.09445352,-0.04455986,0.04333687,-0.13331722,-0.065024056,-0.005149957,-0.03735452,-0.1803056,-0.124852486,0.048602622,0.2267703,0.085796565,0.21731728,0.18744586,-0.07292105,0.16838516,-0.0658168,0.13647369,0.13028811,-0.018960392,0.07952719,0.029364053,0.171209,-0.20436384,-0.105364606,0.18181951,-0.008861553,0.08098902,0.15454127,-0.19461578
-0.09578751,0.26733965,-0.09578591,-0.04816841,0.2537046,-0.17981088,0.21599497,-0.16700265,0.002346468,0.047339097,0.041953556,-0.027257701,-0.082541436,0.1094907,0.14530179,-0.22894457,0.048108794,-0.18887168,0.056257337,-0.050273024,-0.09104454,-0.000993764,0.07661809,-0.051005132,0.088553235,-0.12724718,0.20403752,-0.0343154,-0.07727363,0.1674286,-0.09840133,-0.063314036,-0.11546988,-0.032450892,0.007104203,-0.07693059,-0.027814573,-0.14216392,0.11187585,0.030476755,-0.013900681,-0.13312435,-0.11870089,-0.12611112,0.25249326,0.18874757,0.2488737,-0.06967832,-0.09766784,0.15518788,-0.19493552,0.11724165,0.09851904,-0.11486108,0.16013764,0.24668814,0.000361586,-0.1991264,-0.0163599,-0.050172403,-0.1278068,0.12813428,0.15237129,-0.1620761
-0.1300119,0.26410612,-0.13174818,-0.22143985,0.15492527,-0.06151238,0.11551641,-0.12994161,0.08928095,0.076042354,0.15648444,-0.032086786,-0.1696128,-0.1626599,0.21369201,-0.16479625,0.15026471,-0.056642294,-0.12106888,0.05469406,-0.20381726,0.09874712,-0.08297059,0.2036319,0.28034067,0.0484466,0.28079224,-0.12731545,0.14119767,-0.00598452,-0.006855069,-0.049103253,-0.06657894,-0.26479656,-0.18934867,-0.052210636,-0.034054287,-0.19545443,0.011023551,0.014508251,0.027806135,-0.08350763,-0.20752738,-0.28760988,0.30702323,-0.011155788,0.2138059,0.12714933,-0.22416717,0.17295736,-0.18794952,0.03369707,0.14218721,-0.22855797,0.038940825,0.1782561,-0.052631155,-0.078354515,0.08589629,-0.07405626,-0.000136061,0.06888893,0.09264588,-0.19092931
-0.18088655,-0.013825884,0.16254361,-0.027121799,0.10068576,0.121668816,0.17785203,-0.026779903,0.01135984,-0.04779375,0.11471096,-0.0915346,-0.15210173,-0.31543332,0.42392936,0.085945226,0.11567013,0.037846234,0.008715115,-0.044000234,-0.07370014,0.18648127,-0.07860014,0.20652008,0.025666464,0.04695813,0.055194404,-0.041236173,0.024490241,-0.02144979,-0.14828086,0.01967949,0.21306564,-0.11728265,-0.2997535,0.008931833,-0.06449758,-0.3583071,0.06260091,0.11086059,-0.101322584,-0.13796668,0.044308394,-0.1060696,0.054464098,-0.056135383,0.1657629,0.021649439,-0.13251527,0.062173136,0.010958463,0.07375515,0.024410456,-0.007085443,-0.096945606,0.14073616,0.045821942,-0.055152573,0.17926374,0.15183778,0.06500395,0.002576109,-0.021716027,-0.09327451
-0.20622651,-0.096984625,0.122911744,-0.001188049,0.22051075,-0.022901125,0.10709009,0.0102107,-0.018488815,-0.044975862,-0.09803192,-0.23511331,-0.27932367,-0.18554619,0.416194,0.21371406,0.08440551,-0.0416322,-0.06258509,-0.11155178,-0.062461305,0.07991406,-0.009982036,0.113076285,-0.07760146,0.07312479,-0.018622091,-0.15907466,0.06823524,-0.09019801,-0.24972859,0.14683789,0.060864188,-0.061809886,-0.21364498,0.05073989,-0.04756413,-0.19456227,-0.09077374,-0.08148837,-0.07300418,-0.07423108,0.062308375,0.043257926,0.006038337,-0.0466507,0.18699332,-0.053831328,-0.010787817,-0.037508518,0.042547602,0.11501164,-0.029642299,0.06380488,-0.21550487,0.10649764,0.09385714,-0.17013414,0.10979782,0.08996427,0.051323526,0.06662915,-0.12824236,-0.07915083
-0.15570904,0.18302673,-0.14246756,-0.030137055,0.2624727,0.10027699,0.13532862,0.010097686,0.09894716,-0.061260145,-0.17011362,-0.016227737,-0.17769279,-0.33847877,0.24303858,-0.05421084,0.23748022,-0.010554268,0.20557255,-0.08391168,-0.08097268,-0.042190783,-0.098651856,0.14869799,0.23382229,0.05066101,0.1163294,-0.17907059,0.06013433,0.07258185,-0.20598824,-0.0926453,-0.14256579,-0.23191614,0.018125216,-0.101605564,-0.19033043,0.01227844,0.08824236,-0.11584178,-0.047134537,0.033674505,-0.12773822,-0.04461897,0.16907413,-0.03556822,0.06989441,-0.010405962,-0.07354517,-0.09510625,0.01063166,-0.03531815,0.13120206,-0.14412886,-0.19612545,0.039155204,0.009873753,-0.088195935,-0.10359312,-0.030119035,0.001520757,0.15594794,-0.21426769,-0.07432345
-0.13925773,0.159799,-0.0628233,0.042040788,0.11916895,0.027064936,-0.033182334,0.16971502,-0.004857284,0.057775814,-0.29031765,-0.052796554,-0.08373366,-0.42562878,0.30712938,0.07347265,0.24208616,-0.019081607,0.09102957,-0.07663988,-0.02037771,0.004876263,-0.06292294,0.2267959,0.22092336,0.24051301,0.11183536,-0.011950236,0.17736395,-0.003850699,-0.23359096,-0.060913533,-0.18011281,-0.17052431,-0.07015191,0.10849856,-0.27036268,0.06744662,0.024923949,-0.13997576,-0.19040743,0.005137916,-0.012688294,-0.03165823,0.006749086,-0.039641503,0.1119682,0.07558842,-0.20315227,-0.12101786,0.021093218,-0.027484225,0.029066673,-0.13768795,-0.10006142,-0.1236124,-0.009994287,0.020201879,0.07884596,0.001959986,0.046840586,0.007166803,-0.12597336,0.008147472
0.09829196,0.18208641,-0.0821171,0.09518577,0.23525873,0.0784211,0.08946814,0.06498593,0.0898695,0.028427523,-0.30458984,-0.07503112,-0.16853136,-0.41637492,0.2743264,0.0634578,0.19266471,0.05092363,0.144199,-0.051257696,0.001134408,0.0113565,0.029717857,0.15297616,0.15958226,0.21893962,0.13614053,-0.15062797,0.09972751,-0.024517678,-0.33818638,-0.12966529,-0.016384091,-0.11111997,0.089231044,-0.000543192,-0.26207557,-0.1993318,-0.07066426,-0.16697241,-0.17971939,-0.09950411,-0.0665424,-0.09651785,-0.018639628,0.1041567,0.075790405,0.105126955,-0.1735401,-0.07885809,0.1219423,0.043607082,0.025588289,-0.27568856,0.005165317,-0.063909695,-0.045662284,-0.02064396,0.11703736,0.047356926,0.007814242,0.10284591,-0.012695406,-0.08258575
0.004120473,0.07946591,0.028440922,0.069125816,0.09189649,0.16660562,0.13494746,0.2268922,0.08006311,0.071734786,-0.32503104,-0.000979967,-0.3542617,-0.42399842,0.29035646,0.08992227,0.21630067,0.08060792,-0.002462145,0.06727396,0.09090121,0.08073234,-0.035528585,0.057262715,0.03470063,0.15045947,-0.00066289,-0.07884521,0.05539688,-0.007429877,-0.2817667,0.05906387,-0.06359852,-0.11559112,0.051356494,-0.015585767,-0.24411595,-0.13169688,-0.0867577,-0.051529184,-0.018152434,-0.09869366,-0.1623026,-0.003025892,-0.17056791,0.07951413,0.09650396,0.026648344,-0.16318764,0.011297051,0.23376828,0.10877679,0.060270593,-0.13761678,-0.05701494,-0.049331043,0.17496009,-0.007645354,0.122282095,0.05870739,0.08772193,0.05709524,0.07596876,8.23E-05
-0.016582662,0.091662146,0.010825059,-0.11258574,0.13803197,0.06972648,0.013746806,0.14317165,0.05044654,0.04820505,-0.26127118,-0.052316014,-0.2789365,-0.31362736,0.2537641,0.02114432,0.16443656,0.096175134,-0.06768125,-0.044333313,-0.047968857,-0.054911956,-0.006631742,0.030753814,-0.000958575,0.12039721,0.12946233,-0.09154966,0.10087124,0.106998384,-0.11319791,-0.08608656,0.05852101,-0.044033732,-0.004790517,0.030846223,-0.22561142,-0.17445694,-0.14784801,-0.026056211,0.052140366,0.04237348,-0.12236254,-0.016661383,-0.147839,-0.0840172,0.13116339,0.11271316,-0.054566987,-0.049516622,0.10861934,0.041567393,0.026534427,-0.11095409,-0.020867394,0.08034065,0.13205397,-0.00065662,0.048729613,-0.086251974,-0.007188916,0.10429025,0.06762379,-0.040932734
0.029916845,0.111475155,-0.011255154,0.044326454,0.08625587,0.037107445,0.049627155,0.10831116,0.15272047,-0.038345046,-0.3496557,-0.072135955,-0.11917248,-0.39776224,0.15738995,0.000675482,0.18094292,0.0272354,0.10681711,0.018487958,0.030092997,-0.05482407,0.14411479,0.13482231,-0.000931033,0.18959647,0.1281745,-0.093951575,0.11107367,0.044796236,-0.12507161,0.023225227,-0.034329552,-0.035927784,-0.056042567,0.0819379,-0.168951,-0.08934005,0.069299705,-0.04530474,0.1268037,0.11286062,-0.052873097,-0.08007369,-0.10506123,-0.12774819,0.13249978,0.014182663,-0.07811352,-0.026820032,-0.033054773,0.015231237,0.028029796,-0.15210217,0.07949651,-0.08299728,-0.02180165,-0.002214407,-0.003950726,-0.06814032,0.01507616,0.037201494,0.007659445,-0.10453187
-0.01633154,0.004030735,0.012413506,-0.017043566,0.013002218,0.01541273,0.09397916,-0.000209546,0.12543178,0.034209684,-0.29831335,0.01729918,-0.16673444,-0.2647186,0.14495337,0.075597726,0.067641824,-0.004743302,0.000664888,-0.02142935,0.09640734,-0.000212446,0.14456041,0.12530257,0.061152995,0.2102067,0.06444005,-0.14963254,-0.027758373,0.036726777,-0.20056923,0.07340925,-0.09591286,0.111075334,-0.042671777,0.04930372,-0.16225377,-0.07403529,-0.07041977,-0.026288375,0.047327954,0.015454941,0.10061359,0.004524782,-0.15782191,0.04634343,0.07425987,0.05229726,-0.008695166,0.08390287,0.065195985,0.003330315,0.06274911,-0.07390773,-0.11424384,-0.14810129,0.07563068,0.047242902,0.17517428,0.036865544,-0.036179148,-0.017068323,0.064906135,-0.0931671
0.03460085,0.014200949,0.09678143,0.006734563,0.15001678,0.014283943,-0.00847127,0.054584455,0.27726948,0.050742514,-0.19563358,0.06614119,0.010479383,-0.2338842,0.09581044,0.03185928,0.078217946,0.052489784,-0.07596407,-0.055132974,0.08030413,0.046305083,-0.058387294,0.08328247,-0.009995657,0.001898873,0.02077654,-0.13487442,-0.074547745,0.15425338,-0.122851014,0.23328064,0.12544657,0.1525291,0.08187168,0.12284436,-0.13214341,0.008238471,-0.10876319,-0.05767276,0.12531316,-0.01994152,0.062546425,0.08447951,-0.022744766,-0.09596069,-0.03527266,0.06741541,-0.08857082,-0.020299206,0.10106504,-0.034720074,0.09351984,-0.03734212,-0.083457455,-0.3217133,-0.005560489,-0.025929872,0.13395108,0.14816943,-0.010521993,0.029805476,-0.04496141,-0.07663946
0.10009087,0.09477161,0.058223005,0.056312613,0.20660232,-0.20537892,0.13617785,0.037023198,0.29603672,0.05248622,-0.3144052,0.095854476,0.045602247,-0.023122951,0.15300104,-0.015763264,0.007491169,0.01887492,0.1476861,-0.1008438,0.015189467,0.012400365,0.00855964,0.07437298,0.10656806,0.07672543,-0.030200316,-0.04763302,-0.20632392,0.10913131,-0.16779594,0.03294696,0.15007319,0.030489428,0.14568363,-0.031231226,-0.015535418,-0.025457917,-0.04998921,-0.15370692,0.018444318,0.095312834,-0.087789714,0.10698313,-0.053490024,0.03338719,0.05243974,0.07082883,0.058588404,0.05328889,-0.035259683,-0.058769587,0.08434618,-0.029917227,-0.05351099,-0.19836845,-0.023849774,-0.03871783,0.08702795,0.08611951,-0.002890887,-0.013176522,0.009189939,-0.045811903
-0.005775913,0.10256621,0.03370558,0.059991434,0.01401408,-0.18758616,0.101188004,0.035845827,0.24976929,0.1497605,-0.19192779,0.064738,-0.014412814,0.03510995,0.15412804,0.06526165,0.13852552,0.046004325,0.14704224,-0.06458306,0.04234978,0.09748164,0.096765995,0.080429904,0.032496393,0.026430842,-0.09437125,-0.003252827,-0.32668528,0.08822715,-0.030421553,0.10911434,0.06472656,0.24573798,0.049157776,-0.006843572,-0.124245636,0.024798995,-0.054835152,-0.1586695,0.054265108,0.029086182,0.023426482,0.0694857,-0.052963104,-0.035691254,0.055047445,0.05543983,-0.023019154,-0.09626294,-0.15495294,-0.17498747,0.03247986,0.08757191,0.06182771,-0.2817567,0.00881609,0.06968874,0.14869152,-0.030175805,-0.07260064,-0.10082797,0.14244059,0.018500425
0.09210674,-0.003184079,0.1312655,0.021325761,-0.010382312,-0.23027335,0.114044435,0.14118227,0.1779411,0.025272846,0.016329283,-0.037761185,-0.049107663,0.08541622,0.1762053,0.084339775,0.081729054,0.03701246,0.053836364,0.062855154,0.053879056,0.016830975,0.11999567,0.069924004,0.03186247,0.010719502,-0.27984095,0.08309372,-0.20226005,0.09559044,0.062254887,0.10848352,0.029470969,0.0692387,-0.013280618,0.045779366,-0.054521665,0.006320793,-0.08886587,0.04071314,0.002106812,0.032899547,-0.03266393,0.03753662,0.12945272,-0.07834754,0.00928882,0.04210135,-0.018875012,-0.020303689,0.053450007,-0.1613466,-0.01631999,0.1344268,-0.035418082,-0.27158633,0.024702024,-0.001039879,0.013798241,0.1342384,0.0770015,-0.06312251,0.14595076,0.023252485
